/*!
 * The following copyright notice may not be removed under any circumstances.
 * 
 * Copyright:
 * Copyright (c) Mark Simonson 2009. All rights reserved.
 * 
 * Trademark:
 * Anonymous Pro is a trademark of Mark Simonson.
 * 
 * Designer:
 * Mark Simonson
 * 
 * Vendor URL:
 * http://www.ms-studio.com
 */
Cufon.registerFont({"w":1118,"face":{"font-family":"Anonymous Pro","font-weight":700,"font-stretch":"normal","units-per-em":"2048","panose-1":"2 6 8 9 3 2 2 0 5 4","ascent":"1733","descent":"-315","x-height":"23","bbox":"-117 -1776 1120 395","underline-thickness":"123","underline-position":"-126","unicode-range":"U+0020-U+2122"},"glyphs":{" ":{},"!":{"d":"602,-1305r-51,932r-170,0r-51,-932r272,0xm592,0r-252,0r0,-252r252,0r0,252"},"\"":{"d":"776,-1305r-45,500r-158,0r-45,-500r248,0xm403,-1305r-45,500r-157,0r-45,-500r247,0"},"#":{"d":"932,-559r-187,0r0,186r-186,0r0,-186r-186,0r0,186r-187,0r0,-186r-186,0r0,-186r186,0r0,-187r-186,0r0,-186r186,0r0,-187r187,0r0,187r186,0r0,-187r186,0r0,187r187,0r0,186r-187,0r0,187r187,0r0,186xm559,-745r0,-187r-186,0r0,187r186,0"},"$":{"d":"373,16v-222,-25,-371,-172,-393,-389r192,-30v25,128,92,205,201,231r0,-438v-172,-71,-350,-145,-350,-383v0,-85,31,-157,92,-217v61,-60,147,-97,258,-111r0,-170r186,0r0,174v158,29,268,117,323,247v17,42,26,85,29,130r-194,22v-15,-110,-68,-179,-158,-208r0,374v140,55,274,122,338,254v37,77,45,198,7,283v-58,129,-178,209,-345,231r0,170r-186,0r0,-170xm559,-172v93,-18,163,-64,164,-168v0,-48,-15,-87,-46,-116v-31,-29,-70,-56,-118,-79r0,363xm373,-1133v-80,16,-142,51,-144,138v0,39,13,72,40,98v27,26,61,49,104,70r0,-306"},"%":{"d":"954,-1257r-835,1298r-137,-88r837,-1303xm-4,-974v-27,-61,-27,-136,0,-198v39,-88,113,-155,233,-155v119,0,195,67,233,155v27,62,27,137,0,198v-39,87,-114,155,-233,155v-119,0,-193,-69,-233,-155xm229,-1180v-56,0,-104,49,-104,105v0,56,48,104,104,104v56,0,105,-48,105,-104v0,-56,-49,-105,-105,-105xm474,-132v-27,-61,-27,-137,0,-198v40,-88,113,-155,233,-155v117,0,195,68,233,155v27,61,27,137,0,198v-39,86,-115,155,-233,155v-120,0,-193,-69,-233,-155xm707,-338v-56,0,-105,49,-105,105v0,56,49,104,105,104v56,0,104,-48,104,-104v0,-56,-48,-105,-104,-105"},"&":{"d":"692,-399v33,-64,57,-137,76,-213r188,47v-25,109,-65,213,-122,299r157,145r-129,148r-149,-146v-88,79,-193,142,-348,142v-179,0,-300,-92,-360,-217v-20,-43,-30,-89,-30,-140v-3,-175,76,-274,164,-356v-65,-85,-119,-168,-119,-301v0,-160,85,-264,202,-313v77,-31,175,-30,254,-2v114,40,196,124,196,274v0,148,-85,228,-170,296v-31,25,-63,47,-94,68xm182,-358v-2,112,87,196,197,194v89,-1,152,-38,203,-84r-314,-305r-2,0v-44,48,-83,107,-84,195xm356,-1141v-80,0,-130,69,-129,150v1,90,14,134,58,194v67,-44,132,-89,165,-165v10,-22,15,-47,15,-74v2,-61,-50,-105,-109,-105"},"'":{"d":"590,-1305r-45,500r-158,0r-45,-500r248,0"},"(":{"d":"475,-1014v-83,172,-132,433,-75,675v58,248,187,444,360,581r-127,127v-201,-159,-348,-383,-415,-670v-40,-174,-40,-359,0,-533v67,-286,214,-511,415,-669r127,127v-120,91,-217,221,-285,362"},")":{"d":"461,-118v83,-172,132,-435,75,-676v-58,-247,-187,-444,-360,-580r127,-127v201,160,347,383,415,669v41,174,41,359,0,533v-67,285,-215,511,-415,670r-127,-127v120,-93,217,-221,285,-362"},"*":{"d":"537,-963r282,-196r99,174r-310,147r310,146r-99,174r-282,-197r28,342r-198,0r28,-342r-282,197r-99,-174r310,-146r-310,-147r99,-174r282,196r-28,-342r198,0"},"+":{"d":"932,-571r-373,0r0,372r-186,0r0,-372r-373,0r0,-187r373,0r0,-372r186,0r0,372r373,0r0,187"},",":{"d":"641,-187r-274,559r-158,0r186,-559r246,0"},"-":{"d":"745,-373r-559,0r0,-186r559,0r0,186"},".":{"d":"592,0r-252,0r0,-252r252,0r0,252"},"\/":{"d":"778,-1366r154,76r-766,1542r-154,-76"},"0":{"d":"80,-184v-107,-162,-143,-471,-85,-722v38,-163,115,-288,241,-364v122,-73,340,-72,462,0v184,109,269,331,269,617v0,284,-84,510,-267,619v-122,73,-345,74,-466,0v-63,-39,-113,-88,-154,-150xm698,-989v-44,-84,-109,-152,-231,-152v-95,0,-166,44,-218,129v-71,115,-90,349,-63,537xm240,-307v44,81,105,143,227,143v124,1,191,-70,233,-156v60,-125,73,-327,48,-497"},"1":{"d":"778,0r-626,0r0,-186r210,0r0,-742v-45,138,-184,198,-362,203r0,-207v166,-4,275,-84,330,-206v21,-46,32,-102,32,-167r207,0r0,1119r209,0r0,186"},"2":{"d":"23,-856v-1,-293,163,-475,458,-471v189,3,326,81,389,215v51,110,45,240,-14,352v-34,63,-77,126,-135,182r-408,392r383,0r0,-179r187,0r0,365r-840,0r0,-195r526,-503v45,-47,79,-91,99,-132v34,-67,42,-142,10,-206v-33,-67,-102,-105,-197,-105v-170,0,-267,106,-264,285r-194,0"},"3":{"d":"496,-1141v-174,3,-256,94,-254,279r-197,0v1,-229,99,-374,267,-436v100,-36,238,-41,340,-4v139,51,243,158,243,344v0,125,-61,209,-149,252v-32,16,-68,25,-107,28v138,14,224,95,263,208v31,89,23,195,-17,272v-67,131,-199,221,-389,221v-212,0,-351,-88,-422,-238v-26,-55,-42,-120,-47,-195r194,-32v10,161,111,277,275,278v123,1,218,-72,217,-190v0,-78,-25,-134,-76,-167v-51,-33,-139,-50,-266,-50r0,-187v132,0,240,-36,293,-114v16,-24,24,-53,24,-86v0,-113,-73,-185,-192,-183"},"4":{"d":"932,0r-627,0r0,-186r209,0r0,-162r-514,0r0,-187r477,-770r242,0r0,770r213,0r0,187r-213,0r0,162r213,0r0,186xm514,-535r0,-526r-328,526r328,0"},"5":{"d":"483,-715v-108,0,-188,47,-227,127r-207,0r0,-717r817,0r0,187r-610,0r0,338v61,-81,151,-121,268,-121v200,0,323,117,384,270v44,112,47,264,-5,373v-53,111,-144,197,-259,245v-108,45,-246,47,-357,8v-161,-57,-266,-182,-283,-382r197,-29v14,148,95,254,260,252v132,-2,211,-69,249,-167v12,-33,19,-69,19,-107v3,-164,-91,-277,-246,-277"},"6":{"d":"186,-682v42,-138,159,-239,344,-236v127,1,227,61,294,134v72,78,125,195,124,340v-2,228,-115,367,-281,434v-129,53,-320,37,-425,-24v-183,-107,-250,-334,-250,-617v0,-293,108,-514,302,-621v112,-62,291,-73,426,-26v58,20,109,49,152,88r-112,151v-61,-54,-123,-82,-225,-82v-189,0,-284,121,-327,275v-15,56,-22,117,-22,184xm487,-164v155,0,254,-114,254,-280v0,-162,-95,-289,-262,-289v-163,0,-272,115,-270,278v2,135,56,227,153,269v35,15,76,22,125,22"},"7":{"d":"932,-1118v-200,216,-335,420,-375,776v-11,100,-17,213,-18,342r-211,0v3,-371,74,-645,225,-872v53,-81,119,-163,197,-246r-517,0r0,219r-184,0r0,-406r883,0r0,187"},"8":{"d":"920,-474v36,91,21,207,-17,282v-72,142,-228,215,-438,215v-211,0,-367,-73,-439,-215v-37,-75,-50,-191,-16,-282v41,-110,127,-198,260,-216v-114,-15,-181,-97,-216,-190v-31,-82,-16,-175,18,-244v65,-129,205,-203,393,-203v188,0,328,75,393,203v35,69,48,162,18,244v-36,94,-104,175,-219,190v134,18,220,107,263,216xm465,-780v136,0,221,-54,221,-176v0,-121,-92,-185,-221,-185v-130,0,-221,63,-221,185v0,122,85,176,221,176xm465,-594v-156,0,-268,59,-268,215v0,152,113,215,268,215v119,0,206,-40,247,-119v14,-27,21,-59,21,-96v-3,-156,-113,-215,-268,-215"},"9":{"d":"745,-623v-41,140,-158,239,-344,236v-127,-1,-226,-62,-293,-135v-72,-78,-125,-194,-124,-338v2,-228,115,-368,281,-434v130,-52,320,-37,424,24v182,107,251,334,251,617v0,293,-108,514,-303,621v-113,62,-290,73,-425,25v-58,-20,-109,-49,-153,-87r113,-152v61,54,123,82,225,82v189,0,282,-120,325,-274v15,-56,23,-118,23,-185xm444,-1141v-154,0,-254,116,-254,281v0,162,96,289,263,289v162,0,273,-116,270,-279v-4,-181,-93,-291,-279,-291"},":":{"d":"592,-680r-252,0r0,-252r252,0r0,252xm592,0r-252,0r0,-252r252,0r0,252"},";":{"d":"592,-680r-252,0r0,-252r252,0r0,252xm641,-187r-274,559r-158,0r186,-559r246,0"},"<":{"d":"829,-274r-118,120r-512,-512r512,-512r118,121r-391,391"},"=":{"d":"932,-758r-932,0r0,-186r932,0r0,186xm932,-385r-932,0r0,-186r932,0r0,186"},">":{"d":"494,-666r-392,-391r119,-121r512,512r-512,512r-119,-120"},"?":{"d":"557,-1327v211,0,352,121,352,323v1,105,-44,172,-92,232v-76,94,-184,161,-237,276v-17,37,-27,77,-27,123r-213,0v1,-174,93,-270,181,-359v53,-54,118,-109,155,-175v18,-30,26,-63,26,-99v1,-87,-56,-136,-143,-135v-136,-1,-183,82,-199,205r-192,-29v23,-217,150,-362,389,-362xm592,0r-252,0r0,-252r252,0r0,252"},"@":{"d":"467,-70v124,-2,200,-41,264,-112r60,73v-85,86,-193,129,-324,129v-190,1,-309,-86,-387,-203v-149,-224,-149,-714,0,-938v78,-117,197,-206,387,-206v188,0,309,90,386,206v76,115,114,286,114,470v0,136,-34,263,-113,325v-29,23,-66,35,-111,35v-94,0,-161,-64,-151,-166v-38,96,-87,166,-205,166v-135,0,-197,-100,-225,-215v-36,-143,-1,-302,64,-385v47,-60,115,-111,214,-113v79,-1,119,34,152,72r0,-53r153,0r0,522v-4,50,49,64,69,23v25,-53,46,-133,46,-211v0,-242,-60,-441,-208,-538v-94,-61,-271,-63,-366,0v-148,98,-212,296,-212,538v0,240,62,441,212,534v50,31,110,47,181,47xm467,-881v-121,0,-166,121,-166,250v0,135,40,203,121,203v52,0,93,-25,124,-76v31,-51,46,-116,46,-196r0,-129v-26,-32,-72,-51,-125,-52"},"A":{"d":"776,0r-94,-311r-432,0r-92,311r-217,0r407,-1305r238,0r407,1305r-217,0xm305,-494r322,0r-160,-538"},"B":{"d":"885,-965v-2,147,-81,260,-203,299v83,26,145,62,186,109v41,47,62,113,62,199v0,119,-40,208,-121,268v-81,60,-195,90,-344,90r-416,0r0,-1305r393,0v117,1,226,17,302,64v84,51,143,137,141,276xm442,-758v138,1,238,-42,238,-180v0,-138,-100,-180,-238,-180r-186,0r0,360r186,0xm465,-186v151,0,260,-51,260,-193v0,-141,-110,-192,-260,-192r-209,0r0,385r209,0"},"C":{"d":"952,-399v-47,183,-133,328,-296,392v-122,48,-305,34,-407,-27v-182,-110,-269,-333,-269,-619v0,-283,85,-507,264,-617v101,-62,289,-78,394,-12v48,30,91,72,107,131r0,-154r187,0r0,494r-187,0v-1,-141,-53,-248,-146,-301v-74,-43,-199,-34,-262,14v-143,109,-172,381,-137,621v17,116,59,213,136,270v38,29,86,43,145,43v85,0,149,-27,195,-81v46,-54,83,-127,110,-218"},"D":{"d":"946,-902v38,155,39,342,2,498v-37,158,-117,282,-244,351v-64,35,-141,53,-231,53r-424,0r0,-1305r424,0v185,-1,308,84,385,196v40,59,69,128,88,207xm768,-653v0,-151,-26,-265,-77,-345v-51,-80,-124,-120,-218,-120r-217,0r0,932r217,0v94,0,167,-41,218,-122v51,-81,77,-196,77,-345"},"E":{"d":"883,0r-834,0r0,-1305r834,0r0,187r-627,0r0,360r489,0r0,187r-489,0r0,385r627,0r0,186"},"F":{"d":"883,-1118r-627,0r0,360r489,0r0,187r-489,0r0,571r-207,0r0,-1305r834,0r0,187"},"G":{"d":"983,-682v5,302,-77,537,-269,650v-122,71,-344,70,-465,-2v-183,-109,-269,-331,-269,-617v0,-285,86,-510,269,-619v100,-60,286,-80,390,-12v46,30,90,72,106,131r0,-154r187,0r0,463r-187,0v-2,-135,-63,-230,-157,-276v-77,-38,-190,-26,-251,21v-142,109,-173,381,-137,621v17,115,59,212,136,269v38,29,86,43,145,43v85,0,153,-27,205,-81v52,-54,88,-138,107,-251r-275,0r0,-186r465,0"},"H":{"d":"883,0r-207,0r0,-571r-420,0r0,571r-207,0r0,-1305r207,0r0,547r420,0r0,-547r207,0r0,1305"},"I":{"d":"782,0r-626,0r0,-186r206,0r0,-932r-206,0r0,-187r626,0r0,187r-213,0r0,932r213,0r0,186"},"J":{"d":"184,-412v36,141,107,248,271,248v181,0,221,-153,221,-334r0,-807r207,0r0,807v0,314,-125,521,-428,521v-255,0,-402,-144,-457,-365"},"K":{"d":"926,0r-242,0r-342,-608r-86,102r0,506r-207,0r0,-1305r207,0r0,512r406,-512r266,0r-455,541"},"L":{"d":"883,0r-834,0r0,-1305r207,0r0,1119r627,0r0,186"},"M":{"d":"883,0r-207,0r0,-883r-131,469r-160,0r-129,-469r0,883r-207,0r0,-1305r246,0r170,590r170,-590r248,0r0,1305"},"N":{"d":"883,0r-240,0r-387,-946r0,946r-207,0r0,-1305r260,0r367,899r0,-899r207,0r0,1305"},"O":{"d":"80,-184v-107,-162,-143,-471,-85,-722v38,-163,115,-288,241,-364v122,-73,340,-72,462,0v184,109,269,331,269,617v0,284,-84,510,-267,619v-122,73,-345,74,-466,0v-63,-39,-113,-88,-154,-150xm249,-1012v-93,152,-100,514,-15,692v42,86,109,156,233,156v124,0,192,-69,233,-156v81,-172,80,-493,0,-665v-41,-86,-111,-156,-233,-156v-95,0,-166,44,-218,129"},"P":{"d":"479,-1305v274,-1,453,123,453,390v0,269,-178,387,-451,387r-225,0r0,528r-207,0r0,-1305r430,0xm481,-715v144,0,244,-61,244,-203v0,-139,-101,-200,-244,-200r-225,0r0,403r225,0"},"Q":{"d":"932,369r-107,4v-269,0,-448,-127,-479,-365v-272,-69,-379,-326,-379,-661v0,-283,86,-508,269,-617v122,-73,340,-72,462,0v184,109,268,331,269,617v1,262,-71,470,-219,587v-51,42,-113,68,-187,80v16,143,122,169,287,172r84,-2r0,185xm249,-1012v-93,152,-100,514,-15,692v42,86,109,156,233,156v124,0,192,-69,233,-156v81,-172,80,-493,0,-665v-41,-86,-111,-156,-233,-156v-95,0,-166,44,-218,129"},"R":{"d":"479,-1305v274,-1,453,123,453,390v0,180,-88,283,-214,339v-43,18,-90,30,-140,37r372,539r-262,0r-338,-528r-94,0r0,528r-207,0r0,-1305r430,0xm479,-715v146,0,246,-60,246,-203v0,-140,-102,-200,-246,-200r-223,0r0,403r223,0"},"S":{"d":"459,-1143v-111,0,-210,54,-209,160v1,58,24,90,60,117v86,63,220,93,326,143v96,45,176,106,226,197v47,85,47,235,6,328v-59,133,-178,221,-362,221v-139,0,-231,-50,-293,-142r0,119r-186,0r0,-426r186,0v2,132,71,209,168,246v33,12,67,18,104,18v123,-1,210,-54,207,-180v-4,-160,-133,-192,-254,-238v-144,-55,-291,-107,-360,-236v-42,-80,-47,-229,-4,-314v61,-121,179,-195,354,-197v123,-1,209,59,254,139r0,-117r186,0r0,406r-186,0v2,-146,-83,-244,-223,-244"},"T":{"d":"930,-829r-185,0r0,-289r-176,0r0,932r207,0r0,186r-620,0r0,-186r206,0r0,-932r-178,0r0,289r-184,0r0,-476r930,0r0,476"},"U":{"d":"256,-465v1,163,42,302,209,301v166,-1,211,-135,211,-301r0,-840r207,0r0,840v0,226,-74,383,-231,453v-100,45,-275,45,-374,0v-156,-71,-229,-230,-229,-455r0,-838r207,0r0,840"},"V":{"d":"991,-1305r-407,1305r-236,0r-407,-1305r217,0r309,1033r307,-1033r217,0"},"W":{"d":"995,-1305r-202,1305r-213,0r-115,-563r-113,563r-213,0r-202,-1305r215,0r120,879r95,-506r198,0r92,506r123,-879r215,0"},"X":{"d":"952,0r-426,0r0,-186r74,0r-137,-295r-137,295r73,0r0,186r-422,0r0,-186r113,0r254,-473r-250,-459r-94,0r0,-187r414,0r0,187r-84,0r133,289r135,-289r-82,0r0,-187r416,0r0,187r-101,0r-249,459r254,473r116,0r0,186"},"Y":{"d":"952,-1118r-94,0r-289,586r0,346r209,0r0,186r-624,0r0,-186r208,0r0,-346r-288,-586r-94,0r0,-187r411,0r0,187r-90,0r166,383r164,-383r-90,0r0,-187r411,0r0,187"},"Z":{"d":"883,0r-834,0r0,-184r584,-934r-397,0r0,284r-187,0r0,-471r817,0r0,187r-567,932r401,0r0,-287r183,0r0,473"},"[":{"d":"807,373r-434,0r0,-1864r434,0r0,186r-248,0r0,1491r248,0r0,187"},"\\":{"d":"932,176r-154,76r-766,-1542r154,-76"},"]":{"d":"559,373r-434,0r0,-187r248,0r0,-1491r-248,0r0,-186r434,0r0,1864"},"^":{"d":"809,-559r-158,0r-184,-547r-182,547r-158,0r186,-746r308,0"},"_":{"d":"1118,186r-1118,0r0,-186r1118,0r0,186"},"`":{"d":"344,-1405r404,287r-89,137r-432,-244"},"a":{"d":"676,-137v-74,124,-291,196,-478,141v-82,-24,-141,-74,-176,-146v-39,-81,-33,-199,18,-270v111,-155,367,-206,636,-176r0,-37v0,-105,-94,-145,-205,-145v-129,1,-246,39,-336,92r-84,-162v142,-84,357,-145,569,-97v100,23,182,76,226,157v23,42,35,94,35,155r0,625r-205,0r0,-137xm676,-408v-129,-19,-317,-13,-398,30v-51,28,-77,60,-77,99v0,78,59,117,178,117v126,0,224,-46,273,-125v22,-35,26,-70,24,-121"},"b":{"d":"514,23v-120,-1,-186,-47,-258,-109r0,86r-207,0r0,-1305r207,0r0,457v72,-62,137,-106,258,-106v209,0,327,129,386,292v43,118,43,277,0,394v-41,117,-114,206,-219,255v-51,24,-107,36,-167,36xm461,-768v-80,1,-165,36,-205,84r0,436v41,48,124,83,205,84v161,1,264,-132,264,-301v0,-169,-103,-304,-264,-303"},"c":{"d":"487,-164v137,1,233,-48,304,-115r106,146v-105,107,-219,156,-405,156v-244,0,-405,-109,-476,-287v-47,-116,-47,-280,0,-398v47,-118,126,-206,238,-256v55,-24,113,-36,174,-36v133,0,231,59,270,157r0,-135r185,0r0,434r-185,0v7,-187,-151,-321,-334,-252v-106,40,-178,135,-178,285v0,153,72,243,186,283v37,12,76,18,115,18"},"d":{"d":"416,-954v121,2,188,44,260,106r0,-270r-180,0r0,-187r387,0r0,1305r-207,0r0,-86v-73,62,-139,109,-260,109v-209,0,-328,-128,-386,-291v-42,-117,-41,-276,0,-394v41,-117,114,-206,219,-256v51,-24,107,-36,167,-36xm469,-164v80,-1,167,-36,207,-84r0,-436v-40,-49,-126,-83,-207,-84v-161,-1,-264,134,-264,303v0,169,103,302,264,301"},"e":{"d":"897,-133v-106,107,-221,156,-410,156v-237,0,-394,-120,-469,-290v-51,-114,-50,-276,-2,-393v71,-172,217,-294,453,-294v252,0,396,134,465,328v25,70,37,150,37,239r-781,0v21,132,134,223,297,223v137,0,233,-48,304,-115xm737,-569v-17,-115,-137,-199,-268,-199v-131,0,-254,84,-270,199r538,0"},"f":{"d":"799,-1327v44,0,91,5,133,10r0,182v-155,-13,-323,-17,-352,108v-7,27,-11,58,-11,95r363,0r0,187r-363,0r0,559r213,0r0,186r-626,0r0,-186r206,0r0,-559r-206,0r0,-187r206,0v-2,-259,176,-396,437,-395"},"g":{"d":"416,-954v121,2,188,44,260,106r0,-84r207,0r0,922v-2,205,-110,323,-265,378v-54,18,-114,27,-180,27v-162,0,-300,-49,-415,-147r98,-160v95,82,201,123,317,123v143,-1,241,-69,238,-217r0,-100v-77,64,-136,108,-260,108v-208,0,-326,-134,-386,-294v-43,-114,-42,-255,0,-370v41,-115,115,-203,219,-254v51,-25,107,-38,167,-38xm362,-206v107,51,255,6,314,-64r0,-414v-41,-49,-127,-82,-209,-84v-198,-5,-312,211,-243,408v25,71,73,123,138,154"},"h":{"d":"578,-954v211,0,305,145,305,379r0,575r-207,0r0,-575v0,-133,-42,-193,-160,-193v-77,0,-140,31,-188,93v-48,62,-72,148,-72,257r0,418r-207,0r0,-1305r207,0r0,607v37,-149,146,-256,322,-256"},"i":{"d":"592,-1053r-252,0r0,-252r252,0r0,252xm782,0r-626,0r0,-186r206,0r0,-559r-206,0r0,-187r413,0r0,746r213,0r0,186"},"j":{"d":"344,209v136,2,204,-80,205,-209r0,-745r-211,0r0,-187r418,0r0,932v-3,194,-99,314,-244,368v-51,18,-107,27,-168,27v-142,0,-257,-53,-344,-159r123,-138v56,65,114,109,221,111xm778,-1053r-252,0r0,-252r252,0r0,252"},"k":{"d":"930,0r-268,0r-312,-377r-94,96r0,281r-207,0r0,-1305r207,0r0,768r373,-395r284,0r-430,428"},"l":{"d":"784,0r-626,0r0,-186r204,0r0,-932r-204,0r0,-187r411,0r0,1119r215,0r0,186"},"m":{"d":"389,-954v88,0,139,60,156,137v23,-47,48,-81,73,-103v25,-22,63,-34,115,-34v64,0,113,23,147,70v34,47,52,119,52,214r0,670r-207,0r0,-639v0,-44,-4,-76,-13,-97v-9,-21,-25,-32,-48,-32v-41,0,-67,24,-78,70v-11,46,-17,113,-17,202r0,496r-207,0r0,-639v0,-44,-5,-76,-14,-97v-9,-21,-26,-32,-49,-32v-41,0,-67,24,-77,70v-10,46,-15,113,-15,202r0,496r-207,0r0,-932r209,0r0,135v27,-92,72,-157,180,-157"},"n":{"d":"578,-954v211,0,305,145,305,379r0,575r-207,0r0,-575v0,-133,-42,-193,-160,-193v-77,0,-140,31,-188,93v-48,62,-72,148,-72,257r0,418r-207,0r0,-932r207,0r0,234v37,-149,146,-256,322,-256"},"o":{"d":"922,-662v46,117,46,279,0,395v-70,173,-219,290,-455,290v-234,0,-384,-118,-453,-290v-46,-116,-46,-278,0,-395v68,-174,217,-292,453,-292v238,0,386,118,455,292xm730,-345v26,-71,26,-166,0,-239v-39,-107,-123,-184,-263,-184v-141,0,-222,77,-261,184v-26,73,-26,168,0,239v39,105,120,181,261,181v141,0,224,-77,263,-181"},"p":{"d":"514,23v-120,-1,-186,-47,-258,-109r0,459r-207,0r0,-1305r207,0r0,84v72,-62,137,-106,258,-106v209,0,327,129,386,292v43,118,43,277,0,394v-41,117,-114,206,-219,255v-51,24,-107,36,-167,36xm461,-768v-80,1,-165,36,-205,84r0,434v41,48,124,85,205,86v161,1,264,-132,264,-301v0,-169,-103,-304,-264,-303"},"q":{"d":"416,-954v121,2,188,44,260,106r0,-84r207,0r0,1305r-207,0r0,-459v-73,62,-139,109,-260,109v-209,0,-328,-128,-386,-291v-42,-117,-41,-276,0,-394v41,-117,114,-206,219,-256v51,-24,107,-36,167,-36xm469,-164v80,-1,167,-36,207,-84r0,-436v-40,-49,-126,-83,-207,-84v-161,-1,-264,134,-264,303v0,169,103,302,264,301"},"r":{"d":"418,-698v59,-170,180,-256,387,-256v69,0,131,14,182,41r-78,202v-75,-41,-201,-50,-293,-17v-123,44,-198,143,-198,310r0,232r209,0r0,186r-627,0r0,-186r211,0r0,-559r-211,0r0,-187r418,0r0,234"},"s":{"d":"774,-684v-107,-70,-224,-94,-390,-80v-52,4,-101,18,-130,46v-43,41,-24,84,42,108v67,25,281,50,381,78v129,35,228,94,230,253v1,126,-65,195,-147,240v-144,78,-375,79,-552,25v-84,-25,-157,-57,-218,-97r86,-170v124,71,222,117,385,117v83,0,144,-8,182,-26v38,-18,57,-43,57,-74v0,-41,-30,-52,-69,-66v-144,-50,-378,-48,-498,-130v-62,-42,-108,-101,-108,-204v1,-110,65,-178,139,-222v126,-75,344,-88,510,-40v69,19,130,47,182,82"},"t":{"d":"578,-164v115,2,170,-77,182,-174r182,41v-17,188,-162,322,-364,320v-176,-2,-288,-87,-340,-217v-18,-45,-27,-95,-27,-148r0,-403r-211,0r0,-187r211,0r0,-373r207,0r0,373r391,0r0,187r-391,0r0,403v-2,112,57,176,160,178"},"u":{"d":"354,23v-210,0,-305,-146,-305,-379r0,-576r207,0r0,576v-1,132,43,192,160,192v76,0,138,-31,187,-93v49,-62,73,-148,73,-257r0,-418r207,0r0,932r-207,0r0,-233v-37,148,-147,256,-322,256"},"v":{"d":"932,-932r-344,932r-244,0r-344,-932r221,0r246,705r244,-705r221,0"},"w":{"d":"961,-932r-140,932r-256,0r-98,-561r-100,561r-256,0r-140,-932r203,0r82,623r100,-623r219,0r101,623r82,-623r203,0"},"x":{"d":"954,0r-442,0r0,-186r82,0r-127,-195r-125,195r76,0r0,186r-438,0r0,-186r135,0r209,-287r-199,-272r-125,0r0,-187r420,0r0,187r-66,0r113,180r115,-180r-74,0r0,-187r424,0r0,187r-121,0r-199,272r209,287r133,0r0,186"},"y":{"d":"43,168v46,17,91,29,143,29v62,0,104,-27,127,-82r37,-90r-356,-957r215,0r256,705r237,-705r222,0r-402,1114v-53,148,-155,211,-336,211v-68,0,-129,-13,-186,-35"},"z":{"d":"883,0r-834,0r0,-184r531,-561r-349,0r0,188r-182,0r0,-375r815,0r0,187r-532,559r368,0r0,-185r183,0r0,371"},"{":{"d":"559,92v1,72,20,95,92,96r154,0r0,185v-96,-3,-196,9,-267,-21v-98,-42,-165,-126,-165,-260r0,-426v-1,-117,-69,-128,-187,-131r0,-186v119,-4,186,-12,187,-131r0,-426v2,-135,68,-219,165,-262v71,-32,170,-18,267,-21r0,186r-154,0v-72,1,-92,24,-92,97r0,426v4,122,-92,206,-188,225v85,14,141,67,171,139v11,26,17,54,17,84r0,426"},"|":{"d":"559,186r-186,0r0,-1677r186,0r0,1677"},"}":{"d":"745,-469v-117,3,-185,15,-186,131r0,430v-2,134,-69,218,-166,260v-71,30,-170,18,-266,21r0,-185r154,0v72,-1,92,-24,92,-96r0,-430v3,-97,52,-164,117,-200v22,-12,46,-19,71,-23v-98,-19,-188,-103,-188,-225r0,-426v-1,-73,-20,-93,-92,-93r-154,0r0,-186v96,3,195,-9,266,21v97,42,166,124,166,258r0,426v0,119,68,127,186,131r0,186"},"~":{"d":"566,-660v35,63,107,44,132,-18v15,-38,30,-101,41,-190r197,14v-12,176,-66,319,-184,389v-70,42,-200,45,-258,-6v-53,-46,-94,-115,-126,-174v-33,-62,-110,-45,-134,17v-15,38,-30,101,-41,190r-197,-15v13,-174,66,-320,184,-389v71,-42,200,-43,259,8v57,48,91,109,127,174"},"\u00a0":{},"\u00a1":{"d":"516,0r51,-932r170,0r51,932r-272,0xm778,-1053r-252,0r0,-252r252,0r0,252"},"\u00a2":{"d":"373,-176v-234,-39,-393,-212,-393,-477v-1,-266,158,-440,393,-477r0,-175r186,0r0,168v148,17,247,61,338,152r-106,145v-58,-54,-133,-95,-232,-108r0,592v98,-14,174,-57,232,-111r106,145v-91,93,-188,138,-338,154r0,168r-186,0r0,-176xm373,-936v-109,40,-187,129,-187,283v0,153,78,243,187,282r0,-565"},"\u00a3":{"d":"965,-281v-78,176,-253,281,-492,281r-473,0r0,-186v44,-1,91,3,120,-12v41,-22,66,-64,66,-124r0,-237r-186,0r0,-186r186,0r0,-230v3,-166,89,-273,208,-325v113,-48,252,-28,336,38v56,44,93,106,108,187r-187,45v-20,-74,-63,-111,-129,-111v-89,0,-129,61,-129,166r0,230r187,0r0,186r-187,0r0,186v1,86,-38,157,-92,187v134,-3,286,13,373,-38v58,-33,86,-81,121,-147"},"\u00a4":{"d":"465,-1141v119,0,212,33,287,82r118,-119r121,121r-119,119v49,74,82,168,82,287v0,118,-33,212,-82,286r119,119r-121,121r-118,-119v-147,107,-427,107,-574,0r-119,119r-120,-121r118,-119v-49,-74,-80,-167,-80,-286v0,-109,27,-204,80,-285r-118,-121r120,-121r119,119v79,-55,175,-82,287,-82xm728,-532v26,-72,26,-167,0,-239v-39,-107,-123,-183,-263,-183v-141,0,-222,76,-261,183v-26,73,-26,167,0,239v39,105,119,182,261,182v141,0,224,-77,263,-182"},"\u00a5":{"d":"365,-559r0,-4r-84,-182r-281,0r0,-187r197,0r-168,-373r215,0r225,555r223,-555r215,0r-170,373r195,0r0,187r-279,0r-82,182r0,4r361,0r0,186r-361,0r0,373r-206,0r0,-373r-365,0r0,-186r365,0"},"\u00a6":{"d":"569,186r-207,0r0,-764r207,0r0,764xm569,-727r-207,0r0,-764r207,0r0,764"},"\u00a7":{"d":"512,0v109,0,203,-70,203,-184v0,-52,-17,-93,-49,-123v-106,-102,-301,-122,-430,-206v-94,-61,-168,-143,-168,-300v0,-103,47,-200,102,-252v-61,-55,-103,-123,-102,-240v1,-191,98,-300,244,-347v95,-31,213,-31,310,-2v156,47,267,154,291,335r-192,33v-20,-148,-96,-201,-254,-203v-97,-1,-193,56,-193,158v0,45,16,81,48,109v110,97,303,128,432,211v90,58,168,136,168,282v0,134,-46,206,-105,283v61,53,106,127,105,241v0,130,-52,223,-122,287v-68,62,-167,104,-288,104v-199,0,-338,-78,-423,-200v-32,-46,-55,-100,-69,-164r187,-47v40,137,126,225,305,225xm655,-549v38,-35,60,-72,60,-145v0,-98,-56,-144,-122,-180v-74,-41,-169,-64,-255,-97v-70,58,-88,171,-29,242v78,94,227,122,346,180"},"\u00a8":{"d":"778,-1053r-252,0r0,-252r252,0r0,252xm406,-1053r-252,0r0,-252r252,0r0,252"},"\u00a9":{"d":"385,-748v0,112,64,199,178,199v77,0,130,-27,160,-82r141,99v-64,98,-164,147,-301,147v-174,0,-284,-89,-335,-217v-34,-85,-36,-199,-2,-286v51,-130,159,-222,337,-222v137,0,237,49,301,147r-141,99v-30,-55,-83,-82,-160,-82v-112,0,-178,87,-178,198xm1073,-966v58,132,60,296,3,432v-57,136,-157,241,-292,302v-130,60,-294,61,-432,6v-137,-55,-244,-157,-305,-290v-60,-131,-62,-310,-3,-446v59,-136,163,-240,298,-299v132,-57,299,-58,432,-2v134,57,240,163,299,297xm1014,-551v51,-117,52,-266,1,-384v-51,-119,-143,-211,-261,-264v-117,-52,-266,-53,-385,-2v-120,50,-214,142,-265,261v-51,118,-51,271,0,389v52,119,142,211,262,261v118,50,267,51,386,0v120,-51,211,-142,262,-261"},"\u00aa":{"d":"268,-541v-165,0,-276,-89,-276,-239v0,-156,123,-213,259,-239v97,-18,212,-18,308,-1r0,-59v-2,-75,-84,-97,-170,-97v-110,1,-215,26,-291,70r-63,-129v129,-94,446,-126,604,-31v61,37,106,93,106,187r0,520r-186,0r0,-109v-65,69,-153,127,-291,127xm170,-780v0,66,51,94,143,92v90,-3,174,-35,223,-80v31,-28,21,-62,23,-111v-63,-10,-95,-10,-158,-10v-154,0,-231,36,-231,109xm745,-199r-745,0r0,-186r745,0r0,186"},"\u00ab":{"d":"457,-444r-119,120r-324,-327r324,-330r119,121r-203,209xm827,-444r-118,120r-324,-327r324,-330r118,121r-202,209"},"\u00ac":{"d":"932,-199r-187,0r0,-372r-745,0r0,-187r932,0r0,559"},"\u00ad":{"d":"932,-571r-932,0r0,-187r932,0r0,187"},"\u00ae":{"d":"1073,-1153v58,132,60,298,3,433v-57,136,-157,241,-292,301v-130,59,-294,61,-432,6v-137,-55,-244,-156,-305,-289v-60,-131,-63,-311,-3,-447v59,-135,163,-239,298,-298v132,-57,299,-58,432,-2v134,57,240,163,299,296xm1014,-737v51,-116,52,-266,1,-384v-51,-119,-143,-213,-261,-265v-117,-52,-266,-52,-385,-2v-120,50,-214,143,-265,262v-51,118,-51,271,0,389v51,119,142,211,262,261v118,50,267,51,386,0v120,-51,211,-142,262,-261xm854,-1047v0,126,-43,173,-141,218r153,233r-207,0r-122,-227r-35,0r0,227r-174,0r0,-676r268,0v151,4,258,71,258,225xm596,-965v51,2,86,-36,86,-82v1,-59,-30,-85,-86,-86r-94,0r0,168r94,0"},"\u00af":{"d":"745,-1044r-559,0r0,-175r559,0r0,175"},"\u00b0":{"d":"30,-972v-39,-89,-39,-200,0,-290v39,-91,108,-161,198,-200v89,-39,200,-39,290,0v91,40,159,109,198,200v39,90,39,201,0,290v-39,90,-108,157,-198,197v-90,40,-201,40,-290,0v-89,-40,-159,-107,-198,-197xm209,-1278v-51,48,-92,159,-49,251v36,78,104,140,211,140v107,0,176,-62,211,-140v25,-55,25,-123,0,-178v-35,-78,-103,-141,-211,-141v-69,0,-124,32,-162,68"},"\u00b1":{"d":"932,-571r-373,0r0,323r-186,0r0,-323r-373,0r0,-187r373,0r0,-372r186,0r0,372r373,0r0,187xm932,0r-932,0r0,-186r932,0r0,186"},"\u00b2":{"d":"244,-1184v-54,2,-63,35,-64,101r-153,0v0,-155,72,-232,217,-232v86,0,155,36,188,93v24,42,22,109,-2,152v-12,24,-29,45,-49,64r-139,134r204,0r0,127r-403,0r0,-127r215,-209v20,-21,32,-29,33,-64v1,-24,-24,-40,-47,-39"},"\u00b3":{"d":"248,-1309v108,0,189,58,190,158v0,49,-21,86,-63,109v49,35,74,78,74,127v0,95,-95,172,-201,172v-135,0,-210,-66,-223,-197r151,-14v5,56,29,84,70,84v27,0,50,-21,49,-50v-1,-55,-32,-68,-90,-69r0,-98v53,0,80,-19,80,-56v0,-27,-15,-41,-45,-41v-37,0,-55,36,-54,82r-149,0v-3,-131,82,-207,211,-207"},"\u00b4":{"d":"711,-1225r-432,244r-89,-137r404,-287"},"\u00b5":{"d":"258,-354v0,132,42,190,160,190v76,0,138,-31,186,-92v48,-61,72,-147,72,-256r0,-420r207,0r0,932r-207,0r0,-231v-21,80,-57,142,-108,187v-51,45,-105,67,-162,67v-66,0,-115,-18,-148,-54r0,404r-209,0r0,-1305r209,0r0,578"},"\u00b6":{"d":"362,-532v-207,-30,-362,-149,-362,-383v0,-266,179,-390,453,-390r479,0r0,1305r-207,0r0,-526r-156,0r0,526r-207,0r0,-532xm569,-1118r0,405r156,0r0,-405r-156,0xm248,-1048v-51,66,-54,192,0,264v29,38,65,62,114,67r0,-397v-51,6,-88,32,-114,66"},"\u00b7":{"d":"592,-352r-252,0r0,-252r252,0r0,252"},"\u00b8":{"d":"242,193v110,1,171,-49,172,-152r0,-41r176,0v9,184,-72,292,-202,345v-43,17,-91,26,-146,26r0,-178"},"\u00b9":{"d":"414,-745r-338,0r0,-127r90,0r0,-234v-31,33,-89,62,-166,59r0,-135v67,-2,120,-33,150,-74v11,-15,16,-31,16,-49r158,0r0,433r90,0r0,127"},"\u00ba":{"d":"736,-1092v38,95,38,226,0,321v-55,139,-175,232,-363,232v-187,0,-310,-91,-365,-229v-38,-94,-38,-229,0,-324v55,-140,176,-233,365,-233v188,0,308,93,363,233xm373,-690v136,0,215,-96,215,-240v0,-142,-81,-244,-215,-244v-135,0,-217,101,-217,244v0,145,80,240,217,240xm745,-199r-745,0r0,-186r745,0r0,186"},"\u00bb":{"d":"680,-651r-203,-209r119,-121r324,330r-324,327r-119,-120xm309,-651r-203,-209r119,-121r324,330r-324,327r-119,-120"},"\u00bc":{"d":"954,-1257r-835,1298r-137,-88r837,-1303xm414,-745r-338,0r0,-127r90,0r0,-234v-31,33,-89,62,-166,59r0,-135v67,-2,120,-33,150,-74v11,-15,16,-31,16,-49r158,0r0,433r90,0r0,127xm852,0r-156,0r0,-113r-198,0r0,-151r213,-295r141,0r0,317r90,0r0,129r-90,0r0,113xm696,-242r0,-104r-80,104r80,0"},"\u00bd":{"d":"739,-438v-53,2,-62,36,-63,100r-154,0v0,-154,72,-231,217,-231v86,0,155,34,187,92v24,42,24,110,0,153v-12,24,-29,45,-49,64r-140,133r205,0r0,127r-403,0r0,-127r215,-209v20,-19,31,-29,32,-63v1,-25,-22,-40,-47,-39xm954,-1257r-835,1298r-137,-88r837,-1303xm414,-745r-338,0r0,-127r90,0r0,-234v-31,33,-89,62,-166,59r0,-135v67,-2,120,-33,150,-74v11,-15,16,-31,16,-49r158,0r0,433r90,0r0,127"},"\u00be":{"d":"248,-1309v108,0,189,58,190,158v0,49,-21,86,-63,109v49,35,74,78,74,127v0,95,-95,172,-201,172v-135,0,-210,-66,-223,-197r151,-14v5,56,29,84,70,84v27,0,50,-21,49,-50v-1,-55,-32,-68,-90,-69r0,-98v53,0,80,-19,80,-56v0,-27,-15,-41,-45,-41v-37,0,-55,36,-54,82r-149,0v-3,-131,82,-207,211,-207xm852,0r-156,0r0,-113r-198,0r0,-151r213,-295r141,0r0,317r90,0r0,129r-90,0r0,113xm696,-242r0,-104r-80,104r80,0xm954,-1257r-835,1298r-137,-88r837,-1303"},"\u00bf":{"d":"561,23v-211,0,-352,-122,-352,-324v-1,-105,44,-171,92,-231v75,-94,184,-161,237,-276v17,-36,27,-77,27,-124r213,0v-1,175,-93,270,-181,360v-53,54,-118,109,-155,175v-18,30,-26,63,-26,98v-1,87,57,135,143,135v136,0,185,-81,199,-205r192,29v-23,217,-150,363,-389,363xm526,-1305r252,0r0,252r-252,0r0,-252"},"\u00c0":{"d":"344,-1776r404,287r-89,137r-432,-244xm776,0r-94,-311r-432,0r-92,311r-217,0r407,-1305r238,0r407,1305r-217,0xm305,-494r322,0r-160,-538"},"\u00c1":{"d":"711,-1596r-432,244r-89,-137r404,-287xm776,0r-94,-311r-432,0r-92,311r-217,0r407,-1305r238,0r407,1305r-217,0xm305,-494r322,0r-160,-538"},"\u00c2":{"d":"791,-1456r-80,102r-242,-205r-246,207r-80,-100r324,-318xm776,0r-94,-311r-432,0r-92,311r-217,0r407,-1305r238,0r407,1305r-217,0xm305,-494r322,0r-160,-538"},"\u00c3":{"d":"874,-1616v-31,64,-69,113,-114,150v-62,51,-164,74,-244,36v-46,-22,-84,-54,-126,-80v-47,-29,-115,-22,-152,14v-23,21,-46,50,-68,87r-121,-70v31,-63,70,-112,115,-149v62,-51,165,-74,244,-36v45,22,85,55,126,80v46,29,114,23,152,-12v23,-21,46,-51,68,-90xm776,0r-94,-311r-432,0r-92,311r-217,0r407,-1305r238,0r407,1305r-217,0xm305,-494r322,0r-160,-538"},"\u00c4":{"d":"778,-1424r-252,0r0,-252r252,0r0,252xm406,-1424r-252,0r0,-252r252,0r0,252xm776,0r-94,-311r-432,0r-92,311r-217,0r407,-1305r238,0r407,1305r-217,0xm305,-494r322,0r-160,-538"},"\u00c5":{"d":"336,-1266v-73,-45,-122,-167,-77,-272v33,-77,102,-137,208,-137v106,0,173,60,207,137v12,27,18,57,18,88v0,82,-42,149,-94,184r395,1266r-217,0r-94,-311r-432,0r-92,311r-217,0xm305,-494r322,0r-160,-538xm467,-1542v-51,0,-92,41,-92,92v0,51,41,92,92,92v51,0,92,-41,92,-92v0,-51,-41,-92,-92,-92"},"\u00c6":{"d":"395,0r0,-311r-170,0r-75,311r-213,0r364,-1305r631,0r0,187r-330,0r0,360r281,0r0,187r-281,0r0,385r330,0r0,186r-537,0xm268,-494r127,0r0,-516"},"\u00c7":{"d":"242,193v118,1,178,-56,172,-175v-164,-18,-266,-110,-335,-227v-135,-229,-131,-698,13,-912v78,-115,190,-209,377,-206v139,2,241,66,276,176r0,-154r187,0r0,494r-187,0v-1,-141,-53,-248,-146,-301v-74,-43,-199,-34,-262,14v-143,109,-172,381,-137,621v17,116,59,213,136,270v38,29,86,43,145,43v85,0,149,-27,195,-81v46,-54,83,-127,110,-218r166,64v-29,109,-72,200,-130,273v-58,73,-135,119,-232,138v6,177,-75,281,-202,333v-43,17,-91,26,-146,26r0,-178"},"\u00c8":{"d":"344,-1776r404,287r-89,137r-432,-244xm883,0r-834,0r0,-1305r834,0r0,187r-627,0r0,360r489,0r0,187r-489,0r0,385r627,0r0,186"},"\u00c9":{"d":"711,-1596r-432,244r-89,-137r404,-287xm883,0r-834,0r0,-1305r834,0r0,187r-627,0r0,360r489,0r0,187r-489,0r0,385r627,0r0,186"},"\u00ca":{"d":"791,-1456r-80,102r-242,-205r-246,207r-80,-100r324,-318xm883,0r-834,0r0,-1305r834,0r0,187r-627,0r0,360r489,0r0,187r-489,0r0,385r627,0r0,186"},"\u00cb":{"d":"778,-1424r-252,0r0,-252r252,0r0,252xm406,-1424r-252,0r0,-252r252,0r0,252xm883,0r-834,0r0,-1305r834,0r0,187r-627,0r0,360r489,0r0,187r-489,0r0,385r627,0r0,186"},"\u00cc":{"d":"344,-1776r404,287r-89,137r-432,-244xm782,0r-626,0r0,-186r206,0r0,-932r-206,0r0,-187r626,0r0,187r-213,0r0,932r213,0r0,186"},"\u00cd":{"d":"711,-1596r-432,244r-89,-137r404,-287xm782,0r-626,0r0,-186r206,0r0,-932r-206,0r0,-187r626,0r0,187r-213,0r0,932r213,0r0,186"},"\u00ce":{"d":"791,-1456r-80,102r-242,-205r-246,207r-80,-100r324,-318xm782,0r-626,0r0,-186r206,0r0,-932r-206,0r0,-187r626,0r0,187r-213,0r0,932r213,0r0,186"},"\u00cf":{"d":"778,-1424r-252,0r0,-252r252,0r0,252xm406,-1424r-252,0r0,-252r252,0r0,252xm782,0r-626,0r0,-186r206,0r0,-932r-206,0r0,-187r626,0r0,187r-213,0r0,932r213,0r0,186"},"\u00d0":{"d":"-117,-758r166,0r0,-547r424,0v185,-1,306,85,385,196v153,213,155,698,2,913v-80,112,-200,197,-387,196r-424,0r0,-571r-166,0r0,-187xm768,-653v0,-151,-26,-265,-77,-345v-51,-80,-124,-120,-218,-120r-217,0r0,360r184,0r0,187r-184,0r0,385r217,0v94,0,167,-41,218,-122v51,-81,77,-196,77,-345"},"\u00d1":{"d":"874,-1616v-31,64,-69,113,-114,150v-62,51,-164,74,-244,36v-46,-22,-84,-54,-126,-80v-47,-29,-115,-22,-152,14v-23,21,-46,50,-68,87r-121,-70v31,-63,70,-112,115,-149v62,-51,165,-74,244,-36v45,22,85,55,126,80v46,29,114,23,152,-12v23,-21,46,-51,68,-90xm883,0r-240,0r-387,-946r0,946r-207,0r0,-1305r260,0r367,899r0,-899r207,0r0,1305"},"\u00d2":{"d":"344,-1776r404,287r-89,137r-432,-244xm80,-184v-107,-162,-143,-471,-85,-722v38,-163,115,-288,241,-364v122,-73,340,-72,462,0v184,109,269,331,269,617v0,284,-84,510,-267,619v-122,73,-345,74,-466,0v-63,-39,-113,-88,-154,-150xm249,-1012v-93,152,-100,514,-15,692v42,86,109,156,233,156v124,0,192,-69,233,-156v81,-172,80,-493,0,-665v-41,-86,-111,-156,-233,-156v-95,0,-166,44,-218,129"},"\u00d3":{"d":"711,-1596r-432,244r-89,-137r404,-287xm80,-184v-107,-162,-143,-471,-85,-722v38,-163,115,-288,241,-364v122,-73,340,-72,462,0v184,109,269,331,269,617v0,284,-84,510,-267,619v-122,73,-345,74,-466,0v-63,-39,-113,-88,-154,-150xm249,-1012v-93,152,-100,514,-15,692v42,86,109,156,233,156v124,0,192,-69,233,-156v81,-172,80,-493,0,-665v-41,-86,-111,-156,-233,-156v-95,0,-166,44,-218,129"},"\u00d4":{"d":"791,-1456r-80,102r-242,-205r-246,207r-80,-100r324,-318xm80,-184v-107,-162,-143,-471,-85,-722v38,-163,115,-288,241,-364v122,-73,340,-72,462,0v184,109,269,331,269,617v0,284,-84,510,-267,619v-122,73,-345,74,-466,0v-63,-39,-113,-88,-154,-150xm249,-1012v-93,152,-100,514,-15,692v42,86,109,156,233,156v124,0,192,-69,233,-156v81,-172,80,-493,0,-665v-41,-86,-111,-156,-233,-156v-95,0,-166,44,-218,129"},"\u00d5":{"d":"874,-1616v-31,64,-69,113,-114,150v-62,51,-164,74,-244,36v-46,-22,-84,-54,-126,-80v-47,-29,-115,-22,-152,14v-23,21,-46,50,-68,87r-121,-70v31,-63,70,-112,115,-149v62,-51,165,-74,244,-36v45,22,85,55,126,80v46,29,114,23,152,-12v23,-21,46,-51,68,-90xm80,-184v-107,-162,-143,-471,-85,-722v38,-163,115,-288,241,-364v122,-73,340,-72,462,0v184,109,269,331,269,617v0,284,-84,510,-267,619v-122,73,-345,74,-466,0v-63,-39,-113,-88,-154,-150xm249,-1012v-93,152,-100,514,-15,692v42,86,109,156,233,156v124,0,192,-69,233,-156v81,-172,80,-493,0,-665v-41,-86,-111,-156,-233,-156v-95,0,-166,44,-218,129"},"\u00d6":{"d":"778,-1424r-252,0r0,-252r252,0r0,252xm406,-1424r-252,0r0,-252r252,0r0,252xm80,-184v-107,-162,-143,-471,-85,-722v38,-163,115,-288,241,-364v122,-73,340,-72,462,0v184,109,269,331,269,617v0,284,-84,510,-267,619v-122,73,-345,74,-466,0v-63,-39,-113,-88,-154,-150xm249,-1012v-93,152,-100,514,-15,692v42,86,109,156,233,156v124,0,192,-69,233,-156v81,-172,80,-493,0,-665v-41,-86,-111,-156,-233,-156v-95,0,-166,44,-218,129"},"\u00d7":{"d":"856,-934r-270,270r270,271r-121,119r-268,-271r-270,271r-119,-119r268,-271r-268,-270r119,-119r270,271r268,-271"},"\u00d8":{"d":"20,-303v-60,-165,-70,-411,-25,-603v38,-163,114,-290,241,-364v64,-38,141,-57,231,-57v186,0,302,80,379,194r133,-133r0,222r-61,61v84,252,56,617,-64,799v-78,118,-196,207,-387,207v-179,0,-294,-75,-371,-181r-137,138r0,-222xm700,-985v-43,-86,-110,-156,-233,-156v-95,0,-166,44,-218,129v-70,114,-91,353,-63,541xm242,-303v44,79,106,139,225,139v124,1,191,-70,233,-156v60,-124,70,-322,50,-493"},"\u00d9":{"d":"344,-1776r404,287r-89,137r-432,-244xm256,-465v1,163,42,302,209,301v166,-1,211,-135,211,-301r0,-840r207,0r0,840v0,226,-74,383,-231,453v-100,45,-275,45,-374,0v-156,-71,-229,-230,-229,-455r0,-838r207,0r0,840"},"\u00da":{"d":"711,-1596r-432,244r-89,-137r404,-287xm256,-465v1,163,42,302,209,301v166,-1,211,-135,211,-301r0,-840r207,0r0,840v0,226,-74,383,-231,453v-100,45,-275,45,-374,0v-156,-71,-229,-230,-229,-455r0,-838r207,0r0,840"},"\u00db":{"d":"791,-1456r-80,102r-242,-205r-246,207r-80,-100r324,-318xm256,-465v1,163,42,302,209,301v166,-1,211,-135,211,-301r0,-840r207,0r0,840v0,226,-74,383,-231,453v-100,45,-275,45,-374,0v-156,-71,-229,-230,-229,-455r0,-838r207,0r0,840"},"\u00dc":{"d":"778,-1424r-252,0r0,-252r252,0r0,252xm406,-1424r-252,0r0,-252r252,0r0,252xm256,-465v1,163,42,302,209,301v166,-1,211,-135,211,-301r0,-840r207,0r0,840v0,226,-74,383,-231,453v-100,45,-275,45,-374,0v-156,-71,-229,-230,-229,-455r0,-838r207,0r0,840"},"\u00dd":{"d":"711,-1596r-432,244r-89,-137r404,-287xm952,-1118r-94,0r-289,586r0,346r209,0r0,186r-624,0r0,-186r208,0r0,-346r-288,-586r-94,0r0,-187r411,0r0,187r-90,0r166,383r164,-383r-90,0r0,-187r411,0r0,187"},"\u00de":{"d":"479,-1049v274,-1,453,119,453,385v0,270,-177,385,-451,385r-225,0r0,279r-207,0r0,-1305r207,0r0,256r223,0xm481,-465v144,0,246,-57,246,-199v0,-139,-104,-198,-246,-198r-225,0r0,397r225,0"},"\u00df":{"d":"541,-1040v0,-61,-37,-101,-115,-101v-67,0,-112,25,-135,76v-23,51,-35,124,-35,219r0,846r-207,0r0,-844v1,-117,17,-237,65,-318v57,-96,152,-168,312,-165v151,2,252,66,298,173v32,72,26,187,-12,245v-40,61,-91,96,-144,140v-38,31,-48,79,-4,109v81,56,192,95,264,164v55,53,106,122,104,228v-3,146,-98,226,-212,268v-91,34,-226,28,-310,-5v-48,-19,-94,-46,-138,-81r117,-162v60,54,100,80,191,84v85,3,145,-37,145,-106v0,-66,-55,-98,-102,-128v-91,-57,-205,-101,-263,-192v-38,-60,-38,-172,2,-226v41,-56,100,-95,146,-142v22,-22,33,-49,33,-82"},"\u00e0":{"d":"344,-1405r404,287r-89,137r-432,-244xm676,-137v-74,124,-291,196,-478,141v-82,-24,-141,-74,-176,-146v-39,-81,-33,-199,18,-270v111,-155,367,-206,636,-176r0,-37v0,-105,-94,-145,-205,-145v-129,1,-246,39,-336,92r-84,-162v142,-84,357,-145,569,-97v100,23,182,76,226,157v23,42,35,94,35,155r0,625r-205,0r0,-137xm676,-408v-129,-19,-317,-13,-398,30v-51,28,-77,60,-77,99v0,78,59,117,178,117v126,0,224,-46,273,-125v22,-35,26,-70,24,-121"},"\u00e1":{"d":"711,-1225r-432,244r-89,-137r404,-287xm676,-137v-74,124,-291,196,-478,141v-82,-24,-141,-74,-176,-146v-39,-81,-33,-199,18,-270v111,-155,367,-206,636,-176r0,-37v0,-105,-94,-145,-205,-145v-129,1,-246,39,-336,92r-84,-162v142,-84,357,-145,569,-97v100,23,182,76,226,157v23,42,35,94,35,155r0,625r-205,0r0,-137xm676,-408v-129,-19,-317,-13,-398,30v-51,28,-77,60,-77,99v0,78,59,117,178,117v126,0,224,-46,273,-125v22,-35,26,-70,24,-121"},"\u00e2":{"d":"791,-1085r-80,102r-242,-205r-246,207r-80,-100r324,-318xm676,-137v-74,124,-291,196,-478,141v-82,-24,-141,-74,-176,-146v-39,-81,-33,-199,18,-270v111,-155,367,-206,636,-176r0,-37v0,-105,-94,-145,-205,-145v-129,1,-246,39,-336,92r-84,-162v142,-84,357,-145,569,-97v100,23,182,76,226,157v23,42,35,94,35,155r0,625r-205,0r0,-137xm676,-408v-129,-19,-317,-13,-398,30v-51,28,-77,60,-77,99v0,78,59,117,178,117v126,0,224,-46,273,-125v22,-35,26,-70,24,-121"},"\u00e3":{"d":"874,-1245v-31,64,-69,114,-114,151v-62,51,-164,74,-244,36v-46,-22,-84,-54,-126,-80v-47,-29,-115,-24,-152,12v-23,21,-46,51,-68,88r-121,-70v31,-63,70,-111,115,-148v62,-51,165,-74,244,-36v45,22,85,55,126,80v46,29,114,21,152,-14v23,-21,46,-50,68,-89xm676,-137v-74,124,-291,196,-478,141v-82,-24,-141,-74,-176,-146v-39,-81,-33,-199,18,-270v111,-155,367,-206,636,-176r0,-37v0,-105,-94,-145,-205,-145v-129,1,-246,39,-336,92r-84,-162v142,-84,357,-145,569,-97v100,23,182,76,226,157v23,42,35,94,35,155r0,625r-205,0r0,-137xm676,-408v-129,-19,-317,-13,-398,30v-51,28,-77,60,-77,99v0,78,59,117,178,117v126,0,224,-46,273,-125v22,-35,26,-70,24,-121"},"\u00e4":{"d":"778,-1053r-252,0r0,-252r252,0r0,252xm406,-1053r-252,0r0,-252r252,0r0,252xm676,-137v-74,124,-291,196,-478,141v-82,-24,-141,-74,-176,-146v-39,-81,-33,-199,18,-270v111,-155,367,-206,636,-176r0,-37v0,-105,-94,-145,-205,-145v-129,1,-246,39,-336,92r-84,-162v142,-84,357,-145,569,-97v100,23,182,76,226,157v23,42,35,94,35,155r0,625r-205,0r0,-137xm676,-408v-129,-19,-317,-13,-398,30v-51,28,-77,60,-77,99v0,78,59,117,178,117v126,0,224,-46,273,-125v22,-35,26,-70,24,-121"},"\u00e5":{"d":"676,-137v-74,124,-291,196,-478,141v-82,-24,-141,-74,-176,-146v-39,-81,-33,-199,18,-270v111,-155,367,-206,636,-176r0,-37v0,-105,-94,-145,-205,-145v-129,1,-246,39,-336,92r-84,-162v142,-84,357,-145,569,-97v100,23,182,76,226,157v23,42,35,94,35,155r0,625r-205,0r0,-137xm676,-408v-129,-19,-317,-13,-398,30v-51,28,-77,60,-77,99v0,78,59,117,178,117v126,0,224,-46,273,-125v22,-35,26,-70,24,-121xm259,-1169v-23,-53,-23,-125,0,-177v34,-76,102,-137,208,-137v106,0,172,62,207,137v24,52,24,124,0,177v-35,77,-101,137,-207,137v-105,0,-174,-60,-208,-137xm467,-1350v-51,0,-92,43,-92,93v0,49,41,92,92,92v51,0,92,-43,92,-92v0,-50,-41,-93,-92,-93"},"\u00e6":{"d":"674,23v-118,0,-186,-64,-223,-154v-26,43,-58,78,-91,109v-55,51,-166,58,-238,22v-87,-43,-142,-129,-142,-254v0,-161,78,-262,196,-306v59,-21,131,-27,197,-13r0,-60v1,-86,-29,-137,-101,-137v-71,0,-122,34,-155,96r-125,-119v37,-57,81,-97,132,-123v134,-70,308,-40,347,91v42,-81,96,-128,205,-129v132,-2,192,80,228,180v38,104,41,247,42,387r-387,0v0,83,12,141,35,172v23,31,50,47,80,47v52,-2,77,-30,88,-80r174,58v-43,129,-107,213,-262,213xm739,-569v-3,-79,-11,-132,-25,-160v-28,-57,-101,-52,-128,4v-15,30,-24,82,-27,156r180,0xm258,-166v77,2,116,-84,115,-164r0,-61v-21,-3,-37,-4,-64,-4v-69,0,-125,55,-125,131v0,60,23,97,74,98"},"\u00e7":{"d":"487,-164v137,1,233,-48,304,-115r106,146v-85,86,-171,131,-307,149v5,174,-76,277,-202,329v-43,17,-91,26,-146,26r0,-178v118,1,178,-56,172,-175v-260,-25,-437,-203,-434,-483v2,-227,114,-380,274,-453v55,-24,113,-36,174,-36v133,0,231,59,270,157r0,-135r185,0r0,434r-185,0v7,-187,-151,-321,-334,-252v-106,40,-178,135,-178,285v0,153,72,243,186,283v37,12,76,18,115,18"},"\u00e8":{"d":"344,-1405r404,287r-89,137r-432,-244xm897,-133v-106,107,-221,156,-410,156v-237,0,-394,-120,-469,-290v-51,-114,-50,-276,-2,-393v71,-172,217,-294,453,-294v252,0,396,134,465,328v25,70,37,150,37,239r-781,0v21,132,134,223,297,223v137,0,233,-48,304,-115xm737,-569v-17,-115,-137,-199,-268,-199v-131,0,-254,84,-270,199r538,0"},"\u00e9":{"d":"711,-1225r-432,244r-89,-137r404,-287xm897,-133v-106,107,-221,156,-410,156v-237,0,-394,-120,-469,-290v-51,-114,-50,-276,-2,-393v71,-172,217,-294,453,-294v252,0,396,134,465,328v25,70,37,150,37,239r-781,0v21,132,134,223,297,223v137,0,233,-48,304,-115xm737,-569v-17,-115,-137,-199,-268,-199v-131,0,-254,84,-270,199r538,0"},"\u00ea":{"d":"791,-1085r-80,102r-242,-205r-246,207r-80,-100r324,-318xm897,-133v-106,107,-221,156,-410,156v-237,0,-394,-120,-469,-290v-51,-114,-50,-276,-2,-393v71,-172,217,-294,453,-294v252,0,396,134,465,328v25,70,37,150,37,239r-781,0v21,132,134,223,297,223v137,0,233,-48,304,-115xm737,-569v-17,-115,-137,-199,-268,-199v-131,0,-254,84,-270,199r538,0"},"\u00eb":{"d":"778,-1053r-252,0r0,-252r252,0r0,252xm406,-1053r-252,0r0,-252r252,0r0,252xm897,-133v-106,107,-221,156,-410,156v-237,0,-394,-120,-469,-290v-51,-114,-50,-276,-2,-393v71,-172,217,-294,453,-294v252,0,396,134,465,328v25,70,37,150,37,239r-781,0v21,132,134,223,297,223v137,0,233,-48,304,-115xm737,-569v-17,-115,-137,-199,-268,-199v-131,0,-254,84,-270,199r538,0"},"\u00ec":{"d":"344,-1405r404,287r-89,137r-432,-244xm782,0r-626,0r0,-186r206,0r0,-559r-206,0r0,-187r413,0r0,746r213,0r0,186"},"\u00ed":{"d":"711,-1225r-432,244r-89,-137r404,-287xm782,0r-626,0r0,-186r206,0r0,-559r-206,0r0,-187r413,0r0,746r213,0r0,186"},"\u00ee":{"d":"791,-1085r-80,102r-242,-205r-246,207r-80,-100r324,-318xm782,0r-626,0r0,-186r206,0r0,-559r-206,0r0,-187r413,0r0,746r213,0r0,186"},"\u00ef":{"d":"778,-1053r-252,0r0,-252r252,0r0,252xm406,-1053r-252,0r0,-252r252,0r0,252xm782,0r-626,0r0,-186r206,0r0,-559r-206,0r0,-187r413,0r0,746r213,0r0,186"},"\u00f0":{"d":"430,23v-260,1,-453,-123,-450,-377v2,-158,81,-254,185,-326v126,-88,301,-139,492,-170v-41,-59,-93,-110,-157,-154r-148,148r-119,-121r111,-110v-47,-23,-91,-41,-143,-60r63,-180v78,29,148,63,219,100r146,-145r119,121r-115,114v173,133,317,300,317,600v0,267,-112,442,-303,521v-64,26,-136,39,-217,39xm430,-164v200,-2,313,-152,313,-373v0,-47,-4,-92,-12,-133v-171,15,-305,50,-401,105v-96,55,-144,125,-144,211v1,132,103,191,244,190"},"\u00f1":{"d":"874,-1245v-31,64,-69,114,-114,151v-62,51,-164,74,-244,36v-46,-22,-84,-54,-126,-80v-47,-29,-115,-24,-152,12v-23,21,-46,51,-68,88r-121,-70v31,-63,70,-111,115,-148v62,-51,165,-74,244,-36v45,22,85,55,126,80v46,29,114,21,152,-14v23,-21,46,-50,68,-89xm578,-954v211,0,305,145,305,379r0,575r-207,0r0,-575v0,-133,-42,-193,-160,-193v-77,0,-140,31,-188,93v-48,62,-72,148,-72,257r0,418r-207,0r0,-932r207,0r0,234v37,-149,146,-256,322,-256"},"\u00f2":{"d":"344,-1405r404,287r-89,137r-432,-244xm922,-662v46,117,46,279,0,395v-70,173,-219,290,-455,290v-234,0,-384,-118,-453,-290v-46,-116,-46,-278,0,-395v68,-174,217,-292,453,-292v238,0,386,118,455,292xm730,-345v26,-71,26,-166,0,-239v-39,-107,-123,-184,-263,-184v-141,0,-222,77,-261,184v-26,73,-26,168,0,239v39,105,120,181,261,181v141,0,224,-77,263,-181"},"\u00f3":{"d":"711,-1225r-432,244r-89,-137r404,-287xm922,-662v46,117,46,279,0,395v-70,173,-219,290,-455,290v-234,0,-384,-118,-453,-290v-46,-116,-46,-278,0,-395v68,-174,217,-292,453,-292v238,0,386,118,455,292xm730,-345v26,-71,26,-166,0,-239v-39,-107,-123,-184,-263,-184v-141,0,-222,77,-261,184v-26,73,-26,168,0,239v39,105,120,181,261,181v141,0,224,-77,263,-181"},"\u00f4":{"d":"791,-1085r-80,102r-242,-205r-246,207r-80,-100r324,-318xm922,-662v46,117,46,279,0,395v-70,173,-219,290,-455,290v-234,0,-384,-118,-453,-290v-46,-116,-46,-278,0,-395v68,-174,217,-292,453,-292v238,0,386,118,455,292xm730,-345v26,-71,26,-166,0,-239v-39,-107,-123,-184,-263,-184v-141,0,-222,77,-261,184v-26,73,-26,168,0,239v39,105,120,181,261,181v141,0,224,-77,263,-181"},"\u00f5":{"d":"874,-1245v-31,64,-69,114,-114,151v-62,51,-164,74,-244,36v-46,-22,-84,-54,-126,-80v-47,-29,-115,-24,-152,12v-23,21,-46,51,-68,88r-121,-70v31,-63,70,-111,115,-148v62,-51,165,-74,244,-36v45,22,85,55,126,80v46,29,114,21,152,-14v23,-21,46,-50,68,-89xm922,-662v46,117,46,279,0,395v-70,173,-219,290,-455,290v-234,0,-384,-118,-453,-290v-46,-116,-46,-278,0,-395v68,-174,217,-292,453,-292v238,0,386,118,455,292xm730,-345v26,-71,26,-166,0,-239v-39,-107,-123,-184,-263,-184v-141,0,-222,77,-261,184v-26,73,-26,168,0,239v39,105,120,181,261,181v141,0,224,-77,263,-181"},"\u00f6":{"d":"778,-1053r-252,0r0,-252r252,0r0,252xm406,-1053r-252,0r0,-252r252,0r0,252xm922,-662v46,117,46,279,0,395v-70,173,-219,290,-455,290v-234,0,-384,-118,-453,-290v-46,-116,-46,-278,0,-395v68,-174,217,-292,453,-292v238,0,386,118,455,292xm730,-345v26,-71,26,-166,0,-239v-39,-107,-123,-184,-263,-184v-141,0,-222,77,-261,184v-26,73,-26,168,0,239v39,105,120,181,261,181v141,0,224,-77,263,-181"},"\u00f7":{"d":"592,-911r-252,0r0,-252r252,0r0,252xm592,-166r-252,0r0,-252r252,0r0,252xm932,-571r-932,0r0,-187r932,0r0,187"},"\u00f8":{"d":"467,23v-141,0,-250,-47,-330,-113r-137,113r0,-203r39,-33v-67,-111,-83,-312,-26,-449v72,-173,217,-290,454,-292v139,-1,249,48,328,114r137,-114r0,202r-39,33v66,112,82,314,27,452v-47,118,-135,207,-253,254v-59,24,-126,36,-200,36xm291,-219v64,54,200,75,293,33v100,-45,162,-138,164,-279v0,-42,-6,-82,-19,-119xm204,-584v-25,71,-27,167,-1,236r436,-363v-69,-61,-196,-74,-290,-33v-69,31,-119,85,-145,160"},"\u00f9":{"d":"344,-1405r404,287r-89,137r-432,-244xm354,23v-210,0,-305,-146,-305,-379r0,-576r207,0r0,576v-1,132,43,192,160,192v76,0,138,-31,187,-93v49,-62,73,-148,73,-257r0,-418r207,0r0,932r-207,0r0,-233v-37,148,-147,256,-322,256"},"\u00fa":{"d":"711,-1225r-432,244r-89,-137r404,-287xm354,23v-210,0,-305,-146,-305,-379r0,-576r207,0r0,576v-1,132,43,192,160,192v76,0,138,-31,187,-93v49,-62,73,-148,73,-257r0,-418r207,0r0,932r-207,0r0,-233v-37,148,-147,256,-322,256"},"\u00fb":{"d":"791,-1085r-80,102r-242,-205r-246,207r-80,-100r324,-318xm354,23v-210,0,-305,-146,-305,-379r0,-576r207,0r0,576v-1,132,43,192,160,192v76,0,138,-31,187,-93v49,-62,73,-148,73,-257r0,-418r207,0r0,932r-207,0r0,-233v-37,148,-147,256,-322,256"},"\u00fc":{"d":"778,-1053r-252,0r0,-252r252,0r0,252xm406,-1053r-252,0r0,-252r252,0r0,252xm354,23v-210,0,-305,-146,-305,-379r0,-576r207,0r0,576v-1,132,43,192,160,192v76,0,138,-31,187,-93v49,-62,73,-148,73,-257r0,-418r207,0r0,932r-207,0r0,-233v-37,148,-147,256,-322,256"},"\u00fd":{"d":"711,-1225r-432,244r-89,-137r404,-287xm43,168v46,17,91,29,143,29v62,0,104,-27,127,-82r37,-90r-356,-957r215,0r256,705r237,-705r222,0r-402,1114v-53,148,-155,211,-336,211v-68,0,-129,-13,-186,-35"},"\u00fe":{"d":"514,23v-120,-1,-186,-47,-258,-109r0,459r-207,0r0,-1678r207,0r0,457v72,-62,137,-106,258,-106v209,0,327,129,386,292v43,118,43,277,0,394v-41,117,-114,206,-219,255v-51,24,-107,36,-167,36xm461,-768v-80,1,-165,36,-205,84r0,436v41,48,124,83,205,84v161,1,264,-132,264,-301v0,-169,-103,-304,-264,-303"},"\u00ff":{"d":"778,-1053r-252,0r0,-252r252,0r0,252xm406,-1053r-252,0r0,-252r252,0r0,252xm43,168v46,17,91,29,143,29v62,0,104,-27,127,-82r37,-90r-356,-957r215,0r256,705r237,-705r222,0r-402,1114v-53,148,-155,211,-336,211v-68,0,-129,-13,-186,-35"},"\u0152":{"d":"276,-1327v99,0,152,68,183,149r0,-127r473,0r0,187r-336,0r0,360r246,0r0,187r-246,0r0,385r336,0r0,186r-473,0r0,-123v-35,97,-96,146,-183,146v-195,0,-292,-225,-292,-674v0,-451,97,-676,292,-676xm395,-651v0,-73,-1,-139,-4,-199v-5,-102,-12,-193,-45,-255v-25,-48,-77,-48,-102,0v-55,107,-54,284,-54,454v0,128,3,253,21,353v8,43,19,77,33,100v25,46,78,47,102,0v54,-105,49,-287,49,-453"},"\u0153":{"d":"674,-164v67,0,84,-43,96,-110r182,53v-19,82,-51,143,-97,183v-46,40,-100,61,-161,61v-120,0,-196,-68,-229,-203v-29,135,-99,203,-211,203v-187,0,-281,-163,-281,-490v0,-325,94,-487,281,-487v109,0,179,64,209,192v29,-128,102,-192,219,-192v139,0,203,85,240,189v36,102,42,248,43,380r-396,0v0,64,9,117,26,159v17,42,44,62,79,62xm758,-571v0,-62,-6,-110,-18,-145v-12,-35,-37,-52,-74,-52v-37,0,-62,17,-74,52v-12,35,-20,83,-23,145r189,0xm362,-467v0,-201,-30,-301,-90,-301v-61,0,-92,100,-92,301v0,202,31,303,92,303v60,0,90,-101,90,-303"},"\u0178":{"d":"778,-1424r-252,0r0,-252r252,0r0,252xm406,-1424r-252,0r0,-252r252,0r0,252xm952,-1118r-94,0r-289,586r0,346r209,0r0,186r-624,0r0,-186r208,0r0,-346r-288,-586r-94,0r0,-187r411,0r0,187r-90,0r166,383r164,-383r-90,0r0,-187r411,0r0,187"},"\u02c6":{"d":"791,-1085r-80,102r-242,-205r-246,207r-80,-100r324,-318"},"\u02dc":{"d":"874,-1245v-31,64,-69,114,-114,151v-62,51,-164,74,-244,36v-46,-22,-84,-54,-126,-80v-47,-29,-115,-24,-152,12v-23,21,-46,51,-68,88r-121,-70v31,-63,70,-111,115,-148v62,-51,165,-74,244,-36v45,22,85,55,126,80v46,29,114,21,152,-14v23,-21,46,-50,68,-89"},"\u2013":{"d":"0,-385r0,-186r932,0r0,186r-932,0"},"\u2014":{"d":"-92,-385r0,-186r1118,0r0,186r-1118,0"},"\u2018":{"d":"745,-1133v-140,-1,-211,60,-206,201r206,0r0,252r-372,0r0,-266v4,-234,131,-358,372,-359r0,172"},"\u2019":{"d":"186,-852v150,2,208,-63,207,-201r-207,0r0,-252r373,0r0,267v-4,233,-130,358,-373,358r0,-172"},"\u201a":{"d":"590,-186r-45,500r-158,0r-45,-500r248,0"},"\u201c":{"d":"373,-1133v-141,-1,-212,59,-207,201r207,0r0,252r-373,0r0,-266v4,-234,131,-358,373,-359r0,172xm932,-1133v-140,-1,-212,59,-207,201r207,0r0,252r-373,0r0,-266v4,-234,131,-358,373,-359r0,172"},"\u201d":{"d":"559,-852v150,2,208,-63,207,-201r-207,0r0,-252r373,0r0,267v-4,233,-130,358,-373,358r0,-172xm0,-852v150,2,208,-63,207,-201r-207,0r0,-252r373,0r0,267v-4,233,-131,358,-373,358r0,-172"},"\u201e":{"d":"776,-186r-45,500r-158,0r-45,-500r248,0xm403,-186r-45,500r-157,0r-45,-500r247,0"},"\u2022":{"d":"216,-414v-40,-89,-40,-200,0,-290v40,-91,108,-158,198,-198v89,-40,201,-40,290,0v91,40,158,107,198,198v40,90,40,201,0,290v-40,90,-107,158,-198,198v-90,40,-201,40,-290,0v-90,-40,-158,-108,-198,-198"},"\u2026":{"d":"592,0r-252,0r0,-252r252,0r0,252xm965,0r-252,0r0,-252r252,0r0,252xm219,0r-252,0r0,-252r252,0r0,252"},"\u2039":{"d":"641,-444r-119,120r-323,-327r323,-330r119,121r-203,209"},"\u203a":{"d":"494,-651r-203,-209r119,-121r323,330r-323,327r-119,-120"},"\u20ac":{"d":"0,-907r172,0v33,-173,105,-322,242,-389v83,-41,211,-41,294,0v140,69,207,217,244,393r-182,37v-17,-93,-40,-163,-69,-208v-29,-45,-75,-67,-136,-67v-53,0,-95,22,-124,67v-29,45,-51,101,-64,167r182,0r0,174r-201,0v-3,51,-3,109,0,162r201,0r0,174r-182,0v13,67,35,123,64,167v29,44,71,66,124,66v60,0,104,-23,133,-68v29,-45,53,-113,72,-204r182,37v-37,176,-103,325,-244,392v-83,41,-212,39,-294,-2v-137,-69,-210,-213,-242,-388r-172,0r0,-174r152,0v-3,-51,-3,-110,0,-162r-152,0r0,-174"},"\u2122":{"d":"1120,-932r-110,0r0,-393r-131,334r-78,0r-129,-334r0,393r-111,0r0,-559r158,0r121,328r121,-328r159,0r0,559xm465,-1378r-176,0r0,446r-113,0r0,-446r-176,0r0,-113r465,0r0,113"}}});
