/*!
 * The following copyright notice may not be removed under any circumstances.
 * 
 * Copyright:
 * Copyright (c) Mark Simonson 2009. All rights reserved.
 * 
 * Trademark:
 * Anonymous Pro is a trademark of Mark Simonson.
 * 
 * Designer:
 * Mark Simonson
 * 
 * Vendor URL:
 * http://www.ms-studio.com
 */
Cufon.registerFont({"w":1118,"face":{"font-family":"Anonymous Pro","font-weight":700,"font-style":"italic","font-stretch":"normal","units-per-em":"2048","panose-1":"2 6 8 9 3 2 2 0 5 4","ascent":"1733","descent":"-315","bbox":"-174 -1776 1337 395","underline-thickness":"123","underline-position":"-126","slope":"-12","unicode-range":"U+0020-U+2122"},"glyphs":{" ":{},"!":{"d":"780,-1305r-250,932r-170,0r148,-932r272,0xm494,0r-252,0r53,-252r252,0"},"\"":{"d":"954,-1305r-151,500r-158,0r62,-500r247,0xm582,-1305r-152,500r-158,0r62,-500r248,0"},"#":{"d":"952,-559r-186,0r-41,186r-186,0r41,-186r-187,0r-41,186r-186,0r41,-186r-187,0r39,-186r187,0r39,-187r-187,0r41,-186r187,0r39,-187r186,0r-39,187r186,0r39,-187r187,0r-39,187r186,0r-41,186r-186,0r-39,187r186,0xm618,-745r39,-187r-186,0r-39,187r186,0"},"$":{"d":"270,16v-210,-23,-331,-162,-311,-389r199,-30v-3,128,48,205,151,231r94,-438v-148,-68,-319,-143,-268,-383v38,-181,209,-306,420,-328r35,-170r186,0r-37,174v145,27,240,110,271,247v8,42,9,85,2,130r-199,22v8,-110,-30,-179,-115,-208r-77,374v157,71,336,156,282,412v-32,153,-145,254,-281,312v-50,21,-105,36,-165,44r-37,170r-187,0xm496,-172v102,-19,179,-70,200,-168v10,-48,3,-87,-22,-116v-25,-29,-58,-56,-101,-79xm514,-1133v-87,17,-155,56,-172,138v-8,39,-1,72,20,98v21,26,50,49,87,70"},"%":{"d":"1122,-1257r-1112,1298r-116,-88r1114,-1303xm104,-974v-26,-125,44,-219,113,-278v64,-56,188,-102,289,-54v77,36,131,115,106,233v-24,113,-103,192,-204,233v-64,26,-139,28,-198,0v-54,-26,-93,-70,-106,-134xm381,-1180v-83,0,-167,100,-111,178v33,46,103,36,147,0v41,-33,68,-97,31,-147v-16,-21,-38,-31,-67,-31xm402,-132v-24,-125,45,-219,114,-278v64,-56,188,-102,289,-54v77,36,131,115,106,233v-24,113,-106,192,-207,233v-64,26,-138,28,-197,0v-54,-26,-93,-70,-105,-134xm746,-307v-55,-76,-181,-1,-193,74v-9,58,28,104,82,104v83,0,168,-101,111,-178"},"&":{"d":"678,-399v46,-66,84,-139,121,-213r178,47v-46,107,-109,213,-186,299r127,145r-160,148r-119,-146v-102,77,-217,142,-379,142v-167,0,-278,-84,-314,-217v-11,-43,-9,-89,1,-140v34,-169,128,-271,239,-356v-48,-87,-81,-172,-55,-301v31,-153,133,-262,267,-313v80,-30,178,-30,256,-2v102,38,171,124,139,274v-40,190,-198,274,-342,364xm186,-218v49,63,161,67,243,32v36,-15,71,-36,106,-62r-248,-305r-2,0v-56,50,-108,110,-125,195v-12,58,-3,103,26,140xm500,-1141v-86,0,-148,74,-162,150v-15,80,-18,129,16,194v79,-45,155,-91,202,-165v25,-38,50,-109,14,-150v-17,-19,-40,-29,-70,-29"},"'":{"d":"768,-1305r-152,500r-157,0r61,-500r248,0"},"(":{"d":"592,-1014v-122,179,-222,389,-219,675v3,258,97,449,235,581r-153,127v-160,-154,-273,-371,-273,-670v0,-328,115,-578,254,-785v109,-162,254,-307,418,-417r98,127v-141,94,-265,223,-360,362"},")":{"d":"387,-118v122,-179,218,-392,218,-676v0,-257,-97,-449,-236,-580r153,-127v115,106,194,249,239,417v44,164,45,344,7,519v-68,307,-224,551,-414,745v-70,71,-146,135,-229,191r-100,-127v143,-94,267,-222,362,-362"},"*":{"d":"641,-963r326,-196r61,174r-342,147r279,146r-136,174r-239,-197r-45,342r-199,0r103,-342r-326,197r-62,-174r340,-146r-276,-147r135,-174r240,196r45,-342r198,0"},"+":{"d":"954,-571r-372,0r-80,372r-187,0r80,-372r-372,0r38,-187r373,0r80,-372r186,0r-79,372r372,0"},",":{"d":"621,-186r-394,559r-157,0r305,-559r246,0"},"-":{"d":"725,-373r-559,0r41,-186r559,0"},".":{"d":"494,0r-252,0r53,-252r252,0"},"\/":{"d":"969,-1366r137,76r-1094,1542r-135,-76"},"0":{"d":"-20,-400v0,-297,97,-553,241,-721v97,-113,230,-205,428,-206v180,-1,289,83,343,206v58,132,49,307,14,468v-58,270,-183,503,-398,619v-127,69,-351,78,-466,0v-105,-72,-162,-196,-162,-366xm809,-989v-29,-88,-82,-153,-199,-152v-95,0,-176,44,-246,129v-93,113,-160,327,-176,537xm205,-307v31,85,81,144,198,143v132,-1,207,-74,266,-156v62,-88,103,-213,130,-333v12,-56,19,-111,22,-164"},"1":{"d":"680,0r-627,0r39,-186r211,0r158,-742v-70,128,-213,199,-406,203r43,-207v178,-5,297,-90,375,-206v31,-46,54,-102,68,-167r207,0r-238,1119r209,0"},"2":{"d":"104,-856v58,-274,243,-471,560,-471v176,0,304,72,342,215v13,48,16,103,2,164v-35,150,-148,276,-265,370r-489,392r383,0r37,-179r186,0r-76,365r-839,0r41,-195r632,-503v88,-76,159,-142,183,-250v29,-128,-53,-193,-176,-193v-184,0,-292,117,-326,285r-195,0"},"3":{"d":"639,-1141v-187,0,-279,105,-313,279r-197,0v48,-217,165,-369,359,-436v104,-35,241,-42,342,-4v125,48,209,160,169,344v-26,119,-100,207,-203,252v-36,16,-73,25,-112,28v162,14,249,143,211,324v-38,180,-172,294,-337,350v-107,36,-235,35,-338,1v-154,-52,-238,-185,-206,-407r201,-32v-23,167,59,278,217,278v131,0,234,-79,256,-190v16,-78,3,-134,-40,-167v-43,-33,-128,-50,-255,-50r39,-187v140,0,250,-42,318,-114v46,-48,67,-159,21,-218v-26,-33,-69,-51,-132,-51"},"4":{"d":"834,0r-627,0r39,-186r209,0r34,-162r-514,0r39,-187r641,-770r242,0r-164,770r213,0r-39,187r-213,0r-35,162r213,0xm528,-535r113,-526r-440,526r327,0"},"5":{"d":"537,-715v-115,0,-200,50,-254,127r-207,0r151,-717r817,0r-38,187r-611,0r-73,338v79,-81,177,-121,294,-121v248,0,379,192,320,463v-45,209,-201,352,-388,425v-112,44,-251,50,-360,8v-140,-53,-230,-176,-200,-382r202,-29v-18,156,49,255,207,252v142,-3,228,-76,285,-167v48,-76,75,-238,18,-311v-37,-47,-90,-73,-163,-73"},"6":{"d":"231,-682v69,-131,200,-237,396,-236v122,0,210,58,263,134v57,82,84,202,54,340v-47,215,-183,362,-374,434v-131,49,-324,42,-420,-24v-105,-72,-158,-193,-151,-364v16,-408,177,-730,466,-874v120,-61,295,-75,431,-26v54,20,99,49,134,88r-145,151v-50,-55,-110,-82,-207,-82v-127,0,-218,57,-286,129v-78,83,-131,199,-161,330xm424,-164v166,-2,283,-124,313,-280v32,-167,-36,-294,-200,-289v-211,5,-354,168,-339,392v8,117,91,179,226,177"},"7":{"d":"1071,-1118v-254,221,-429,433,-541,776v-33,100,-63,213,-90,342r-211,0v78,-361,204,-638,409,-872v71,-81,155,-163,251,-246r-516,0r-47,219r-185,0r86,-406r883,0"},"8":{"d":"920,-367v-43,200,-178,317,-369,367v-115,30,-262,32,-372,0v-151,-44,-257,-153,-210,-367v28,-128,119,-229,225,-285v39,-20,80,-33,123,-38v-103,-14,-163,-90,-176,-190v-14,-107,25,-180,70,-244v87,-123,236,-203,436,-203v175,0,310,66,351,203v23,80,3,184,-34,244v-55,89,-134,173,-259,190v122,16,194,100,215,216v6,36,8,72,0,107xm530,-780v145,0,236,-63,261,-176v27,-125,-56,-185,-183,-185v-138,0,-237,72,-260,185v-25,125,50,176,182,176xm401,-164v170,0,284,-75,314,-215v34,-155,-72,-215,-223,-215v-170,0,-285,70,-314,215v-30,152,74,215,223,215"},"9":{"d":"778,-623v-67,132,-198,237,-393,236v-121,0,-212,-59,-265,-135v-57,-82,-81,-201,-52,-338v31,-146,109,-263,206,-342v88,-72,209,-124,355,-125v272,-2,391,157,382,422v-14,407,-177,730,-467,873v-122,61,-294,74,-430,25v-54,-20,-99,-49,-134,-87r145,-152v50,56,111,82,209,82v203,0,310,-130,383,-274v27,-56,48,-118,61,-185xm588,-1141v-167,4,-283,126,-314,281v-33,167,37,289,201,289v174,0,301,-127,330,-279v34,-175,-38,-295,-217,-291"},":":{"d":"637,-680r-252,0r53,-252r252,0xm494,0r-252,0r53,-252r252,0"},";":{"d":"637,-680r-252,0r53,-252r252,0xm621,-186r-394,559r-157,0r305,-559r246,0"},"<":{"d":"788,-274r-145,120r-401,-512r620,-512r92,121r-473,391"},"=":{"d":"993,-758r-932,0r39,-186r932,0xm913,-385r-931,0r41,-186r931,0"},">":{"d":"537,-666r-310,-391r146,-121r403,512r-622,512r-93,-120"},"?":{"d":"274,-965v66,-205,210,-359,465,-362v206,-2,328,115,285,323v-21,102,-78,170,-141,232v-126,122,-303,200,-351,399r-213,0v50,-218,220,-321,364,-446v59,-51,115,-104,134,-187v20,-89,-31,-136,-115,-135v-144,1,-201,90,-241,205xm494,0r-252,0r53,-252r252,0"},"@":{"d":"383,-70v130,-1,210,-43,287,-112r45,73v-104,86,-222,129,-353,129v-182,0,-290,-78,-342,-203v-94,-225,-13,-536,66,-722v67,-159,176,-286,320,-365v126,-69,347,-78,462,0v107,72,165,194,165,365v0,238,-63,473,-209,579v-59,43,-172,50,-219,-5v-28,-32,-29,-82,-15,-126v-33,55,-68,95,-106,124v-61,47,-170,58,-235,13v-78,-54,-95,-190,-67,-311v35,-152,119,-278,244,-342v41,-21,84,-31,129,-31v75,0,111,31,135,72r12,-53r154,0r-111,522v-7,31,3,47,29,47v11,0,23,-8,35,-24v73,-99,114,-275,117,-434v2,-144,-36,-253,-120,-315v-89,-66,-267,-59,-367,0v-177,104,-277,306,-326,538v-29,139,-43,288,3,407v41,104,122,176,267,174xm670,-829v-22,-33,-64,-51,-115,-52v-56,0,-103,24,-141,71v-38,47,-63,107,-78,179v-29,135,-3,203,78,203v52,0,99,-25,140,-76v41,-51,69,-116,87,-196"},"A":{"d":"678,0r-29,-311r-432,0r-158,311r-217,0r684,-1305r238,0r131,1305r-217,0xm311,-494r322,0r-45,-538"},"B":{"d":"907,-358v-51,239,-247,358,-540,358r-416,0r276,-1305r394,0v234,0,429,71,370,340v-31,139,-130,258,-266,299v78,26,132,62,163,109v31,47,37,113,19,199xm504,-758v151,2,249,-53,276,-180v30,-139,-64,-180,-198,-180r-187,0r-78,360r187,0xm406,-186v160,0,275,-61,301,-193v29,-145,-74,-192,-220,-192r-208,0r-82,385r209,0"},"C":{"d":"938,-399v-83,176,-195,324,-380,392v-122,46,-308,38,-401,-27v-104,-73,-165,-196,-165,-366v0,-297,97,-553,240,-721v96,-113,223,-206,419,-206v99,0,175,38,215,100v14,22,22,47,25,76r33,-154r186,0r-104,494r-187,0v16,-80,13,-166,-17,-226v-30,-60,-87,-105,-177,-104v-131,1,-209,73,-267,156v-90,129,-144,307,-156,508v-11,178,40,312,216,313v85,0,155,-27,212,-81v57,-54,109,-127,156,-218"},"D":{"d":"993,-1109v96,210,25,521,-59,705v-69,153,-172,279,-318,351v-71,35,-151,53,-241,53r-424,0r276,-1305r424,0v176,-2,288,77,342,196xm807,-653v32,-151,32,-265,-2,-345v-34,-80,-98,-120,-193,-120r-217,0r-198,932r217,0v94,0,176,-41,244,-122v68,-81,117,-196,149,-345"},"E":{"d":"784,0r-833,0r276,-1305r834,0r-39,187r-627,0r-78,360r490,0r-39,187r-489,0r-82,385r626,0"},"F":{"d":"1022,-1118r-627,0r-78,360r490,0r-39,187r-489,0r-121,571r-207,0r276,-1305r834,0"},"G":{"d":"1028,-682v-56,289,-180,530,-406,650v-127,68,-351,76,-465,-2v-105,-72,-165,-194,-166,-364v-1,-187,47,-364,109,-506v68,-158,175,-288,320,-366v107,-57,289,-85,392,-12v40,28,74,71,79,131r33,-154r186,0r-98,463r-187,0v32,-166,-38,-299,-200,-299v-131,0,-210,75,-269,158v-91,128,-141,308,-154,507v-11,177,41,312,216,312v85,0,158,-27,221,-81v63,-54,116,-138,160,-251r-275,0r39,-186r465,0"},"H":{"d":"784,0r-206,0r120,-571r-419,0r-121,571r-207,0r276,-1305r207,0r-117,547r420,0r117,-547r207,0"},"I":{"d":"684,0r-627,0r39,-186r207,0r199,-932r-207,0r39,-187r627,0r-39,187r-213,0r-199,932r213,0"},"J":{"d":"172,-412v6,150,67,248,219,248v97,0,155,-44,199,-101v47,-60,73,-145,92,-233r172,-807r207,0r-172,807v-35,165,-97,293,-187,384v-90,91,-207,137,-352,137v-238,-1,-369,-130,-379,-365"},"K":{"d":"827,0r-241,0r-213,-608r-109,102r-106,506r-207,0r276,-1305r207,0r-108,512r514,-512r266,0r-569,541"},"L":{"d":"784,0r-833,0r276,-1305r207,0r-237,1119r626,0"},"M":{"d":"784,0r-206,0r186,-883r-232,469r-159,0r-29,-469r-186,883r-207,0r276,-1305r246,0r45,590r295,-590r248,0"},"N":{"d":"784,0r-239,0r-187,-946r-200,946r-207,0r276,-1305r260,0r177,899r190,-899r207,0"},"O":{"d":"-20,-400v0,-297,97,-553,241,-721v97,-113,230,-205,428,-206v180,-1,289,83,343,206v58,132,49,307,14,468v-58,270,-183,503,-398,619v-127,69,-351,78,-466,0v-105,-72,-162,-196,-162,-366xm364,-1012v-92,114,-162,322,-174,535v-10,177,38,313,213,313v132,0,208,-73,266,-156v89,-129,140,-311,154,-508v12,-175,-40,-312,-213,-313v-95,0,-177,44,-246,129"},"P":{"d":"1028,-915v-51,252,-240,385,-534,387r-226,0r-110,528r-207,0r276,-1305r430,0v268,-1,426,117,371,390xm535,-715v154,-1,259,-71,286,-203v29,-142,-62,-201,-200,-200r-226,0r-86,403r226,0"},"Q":{"d":"698,372v-282,15,-475,-94,-452,-364v-189,-45,-270,-205,-266,-436v3,-178,48,-342,108,-478v69,-158,175,-285,320,-364v127,-69,345,-78,460,0v107,72,165,194,165,364v0,374,-138,680,-369,840v-60,42,-129,68,-205,80v-7,66,12,110,53,136v53,33,177,40,281,34r-39,185xm364,-1012v-92,114,-162,322,-174,535v-10,177,38,313,213,313v132,0,208,-73,266,-156v89,-129,140,-311,154,-508v12,-175,-40,-312,-213,-313v-95,0,-177,44,-246,129"},"R":{"d":"852,0r-262,0r-228,-528r-94,0r-110,528r-207,0r276,-1305r430,0v268,-1,428,117,371,390v-46,220,-204,342,-436,376xm532,-715v157,-1,262,-69,289,-203v29,-144,-62,-200,-203,-200r-223,0r-86,403r223,0"},"S":{"d":"610,-1327v118,-2,195,55,226,139r24,-117r187,0r-86,406r-187,0v35,-150,-34,-244,-172,-244v-118,0,-222,60,-242,160v-12,59,6,91,36,117v74,64,199,93,294,143v84,44,154,102,184,197v35,111,-15,255,-63,328v-83,125,-214,221,-410,221v-132,0,-217,-46,-262,-142r-24,119r-187,0r90,-426r187,0v-28,128,25,211,115,246v83,32,192,19,258,-25v44,-29,76,-74,88,-137v30,-157,-93,-193,-203,-238v-130,-54,-269,-99,-311,-236v-32,-103,15,-248,63,-314v83,-113,209,-194,395,-197"},"T":{"d":"1008,-829r-185,0r62,-289r-176,0r-199,932r207,0r-39,186r-621,0r39,-186r207,0r199,-932r-178,0r-62,289r-184,0r100,-476r930,0"},"U":{"d":"883,-465v-48,213,-145,377,-328,453v-103,43,-277,48,-373,0v-91,-46,-142,-128,-151,-253v-4,-61,2,-128,18,-202r178,-838r207,0r-178,840v-12,61,-23,136,-7,199v16,63,67,102,152,102v95,0,152,-46,195,-101v41,-52,65,-128,80,-200r178,-840r207,0"},"V":{"d":"1169,-1305r-684,1305r-235,0r-131,-1305r217,0r90,1033r526,-1033r217,0"},"W":{"d":"1174,-1305r-480,1305r-213,0r4,-563r-231,563r-213,0r74,-1305r215,0r-66,879r201,-506r199,0r-15,506r309,-879r216,0"},"X":{"d":"854,0r-426,0r39,-186r74,0r-76,-295r-199,295r74,0r-39,186r-422,0r39,-186r113,0r354,-473r-152,-459r-94,0r39,-187r414,0r-39,187r-84,0r72,289r196,-289r-82,0r39,-187r416,0r-39,187r-100,0r-348,459r153,473r117,0"},"Y":{"d":"1092,-1118r-95,0r-413,586r-74,346r209,0r-39,186r-625,0r39,-186r209,0r74,-346r-164,-586r-94,0r39,-187r411,0r-39,187r-90,0r84,383r246,-383r-90,0r39,-187r411,0"},"Z":{"d":"784,0r-833,0r39,-184r782,-934r-397,0r-62,284r-186,0r100,-471r817,0r-38,187r-766,932r401,0r61,-287r183,0"},"[":{"d":"629,373r-434,0r395,-1864r434,0r-39,186r-248,0r-317,1491r248,0"},"\\":{"d":"795,176r-170,76r-439,-1542r170,-76"},"]":{"d":"381,373r-434,0r39,-187r247,0r318,-1491r-248,0r39,-186r434,0"},"^":{"d":"829,-559r-157,0r-70,-547r-297,547r-158,0r345,-746r307,0"},"_":{"d":"979,186r-1116,0r39,-186r1118,0"},"`":{"d":"543,-1405r344,287r-119,137r-379,-244"},"a":{"d":"606,-137v-76,93,-225,160,-385,160v-139,0,-240,-54,-267,-165v-26,-108,18,-209,74,-270v135,-145,391,-208,674,-176r7,-37v22,-108,-66,-146,-174,-145v-134,1,-256,41,-355,92r-49,-162v153,-80,374,-147,590,-97v92,21,163,72,191,157v14,42,14,93,1,155r-131,625r-204,0xm664,-408v-133,-20,-316,-13,-404,30v-57,27,-91,60,-100,99v-17,78,34,117,153,117v134,0,238,-50,301,-125v30,-35,39,-74,50,-121"},"b":{"d":"410,23v-116,-1,-175,-45,-236,-109r-16,86r-207,0r276,-1305r207,0r-98,457v85,-60,156,-105,282,-106v128,-1,218,57,270,138v57,87,75,214,44,351v-47,211,-168,374,-347,452v-57,24,-115,36,-175,36xm209,-248v33,50,111,84,188,84v173,0,295,-144,328,-301v37,-174,-44,-305,-201,-303v-85,2,-173,38,-223,84"},"c":{"d":"312,-182v163,54,344,-15,438,-97r75,146v-124,104,-243,156,-438,156v-228,0,-384,-96,-415,-287v-39,-237,83,-438,214,-552v85,-75,203,-137,346,-138v127,-1,215,53,236,157r29,-135r184,0r-92,434r-184,0v36,-159,-41,-275,-187,-270v-130,4,-217,79,-277,166v-40,59,-78,177,-59,272v16,77,60,125,130,148"},"d":{"d":"520,-954v115,1,177,41,236,106r59,-270r-180,0r39,-187r387,0r-277,1305r-206,0r16,-86v-83,60,-158,109,-283,109v-258,0,-371,-216,-313,-488v45,-211,169,-374,347,-453v57,-24,115,-36,175,-36xm721,-684v-30,-51,-112,-84,-189,-84v-171,0,-294,146,-327,303v-36,174,43,303,201,301v84,-1,175,-37,223,-84"},"e":{"d":"825,-133v-124,105,-245,156,-442,156v-222,0,-366,-108,-407,-290v-32,-143,21,-297,80,-393v71,-116,176,-207,310,-258v123,-46,290,-49,403,2v169,76,237,279,185,529r-780,0v-6,141,95,223,250,223v141,0,245,-50,326,-115xm760,-569v5,-122,-104,-200,-228,-199v-139,1,-274,90,-311,199r539,0"},"f":{"d":"461,-932v52,-280,308,-437,651,-385r-39,182v-122,-12,-256,-9,-323,43v-47,36,-66,90,-82,160r362,0r-39,187r-362,0r-119,559r213,0r-39,186r-627,0r39,-186r207,0r119,-559r-207,0r39,-187r207,0"},"g":{"d":"520,-954v115,0,177,41,236,106r18,-84r207,0r-195,922v-42,194,-170,320,-347,378v-58,18,-120,27,-185,27v-163,0,-290,-49,-381,-147r129,-160v79,82,177,123,293,123v154,0,255,-79,283,-217r22,-100v-89,62,-155,108,-285,108v-192,0,-299,-123,-322,-294v-30,-229,76,-409,197,-522v80,-75,191,-140,330,-140xm721,-684v-31,-51,-113,-84,-191,-84v-167,0,-293,140,-323,291v-25,128,14,229,99,271v112,55,265,-3,329,-64"},"h":{"d":"305,-698v66,-142,190,-256,377,-256v205,0,273,140,223,379r-121,575r-206,0r120,-575v29,-135,-5,-193,-118,-193v-77,0,-146,31,-207,93v-61,62,-104,148,-127,257r-88,418r-207,0r276,-1305r207,0"},"i":{"d":"717,-1053r-252,0r53,-252r252,0xm684,0r-627,0r39,-186r207,0r119,-559r-207,0r39,-187r414,0r-158,746r213,0"},"j":{"d":"2,98v46,67,96,109,199,111v143,1,225,-90,250,-209r157,-745r-211,0r39,-187r418,0r-197,932v-42,183,-156,311,-323,368v-55,18,-113,27,-174,27v-142,0,-244,-53,-307,-159xm903,-1053r-252,0r54,-252r251,0"},"k":{"d":"831,0r-268,0r-231,-377r-115,96r-59,281r-207,0r276,-1305r207,0r-164,768r457,-395r285,0r-520,428"},"l":{"d":"686,0r-627,0r39,-186r205,0r199,-932r-205,0r39,-187r412,0r-238,1119r215,0"},"m":{"d":"494,-954v80,-2,125,55,124,137v35,-47,67,-81,97,-103v30,-22,71,-34,123,-34v143,0,173,113,137,284r-141,670r-207,0r135,-639v9,-44,12,-76,7,-97v-5,-21,-19,-32,-42,-32v-41,0,-71,24,-92,70v-21,46,-41,113,-60,202r-104,496r-207,0r135,-639v10,-44,13,-76,7,-97v-6,-21,-21,-32,-44,-32v-41,0,-70,24,-90,70v-20,46,-40,113,-59,202r-104,496r-207,0r196,-932r209,0r-28,135v45,-88,100,-155,215,-157"},"n":{"d":"305,-698v66,-142,190,-256,377,-256v205,0,273,140,223,379r-121,575r-206,0r120,-575v29,-135,-5,-193,-118,-193v-77,0,-146,31,-207,93v-61,62,-104,148,-127,257r-88,418r-207,0r196,-932r207,0"},"o":{"d":"964,-662v24,147,-28,299,-86,395v-70,116,-172,204,-306,254v-121,45,-286,50,-400,0v-153,-67,-243,-226,-192,-452v50,-220,186,-380,384,-453v121,-46,287,-49,400,0v105,45,180,131,200,256xm628,-250v81,-73,142,-185,127,-334v-8,-78,-52,-130,-112,-160v-65,-33,-165,-29,-235,0v-115,48,-194,147,-222,279v-37,176,42,301,217,301v98,-1,169,-37,225,-86"},"p":{"d":"410,23v-116,-1,-175,-45,-236,-109r-96,459r-205,0r274,-1305r207,0r-18,84v85,-60,156,-105,282,-106v128,-1,218,57,270,138v57,87,75,214,44,351v-47,211,-168,374,-347,452v-57,24,-115,36,-175,36xm209,-250v33,50,111,86,188,86v173,0,295,-144,328,-301v37,-174,-44,-305,-201,-303v-85,2,-173,38,-223,84"},"q":{"d":"520,-954v115,1,177,41,236,106r18,-84r207,0r-276,1305r-207,0r96,-459v-83,60,-158,109,-283,109v-258,0,-371,-216,-313,-488v45,-211,169,-374,347,-453v57,-24,115,-36,175,-36xm721,-684v-30,-51,-112,-84,-189,-84v-171,0,-294,146,-327,303v-36,174,43,303,201,301v84,-1,175,-37,223,-84"},"r":{"d":"961,-711v-72,-44,-198,-48,-291,-17v-140,46,-229,153,-262,310r-50,232r209,0r-39,186r-626,0r39,-186r211,0r118,-559r-211,0r39,-187r418,0r-49,234v53,-93,118,-159,193,-198v98,-49,212,-72,337,-49v30,6,58,17,84,32"},"s":{"d":"819,-684v-91,-73,-217,-93,-373,-80v-54,5,-104,20,-138,46v-18,13,-29,29,-34,48v-5,25,12,43,52,60v60,27,273,50,366,78v82,23,144,58,172,130v12,33,12,74,2,123v-24,121,-101,193,-196,240v-148,74,-383,82,-558,25v-78,-25,-145,-57,-198,-97r123,-170v110,73,204,117,360,117v83,0,145,-8,187,-26v42,-18,68,-42,73,-74v7,-41,-21,-52,-56,-66v-167,-65,-467,-36,-531,-211v-13,-33,-14,-74,-4,-123v22,-105,102,-176,188,-222v132,-70,353,-90,519,-40v65,19,119,47,163,82"},"t":{"d":"514,-164v121,2,188,-84,219,-174r172,41v-53,178,-215,320,-432,320v-212,0,-338,-137,-289,-365r86,-403r-211,0r39,-187r211,0r80,-373r207,0r-80,373r391,0r-39,187r-391,0r-86,403v-25,114,23,177,123,178"},"u":{"d":"627,-233v-67,140,-190,256,-377,256v-206,0,-276,-141,-225,-379r122,-576r207,0r-123,576v-28,134,7,192,121,192v77,0,146,-31,207,-93v61,-62,104,-148,127,-257r88,-418r207,0r-197,932r-206,0"},"v":{"d":"1030,-932r-541,932r-243,0r-148,-932r221,0r97,705r393,-705r221,0"},"w":{"d":"1059,-932r-336,932r-256,0r20,-561r-219,561r-256,0r58,-932r202,0r-49,623r232,-623r219,0r-31,623r213,-623r203,0"},"x":{"d":"856,0r-442,0r39,-186r82,0r-86,-195r-166,195r75,0r-39,186r-438,0r39,-186r135,0r271,-287r-142,-272r-125,0r39,-187r420,0r-39,187r-65,0r73,180r154,-180r-74,0r39,-187r424,0r-39,187r-121,0r-256,272r148,287r133,0"},"y":{"d":"-92,168v43,18,86,29,137,29v61,0,111,-27,145,-82r56,-90r-154,-957r215,0r107,705r387,-705r221,0r-637,1114v-83,141,-188,211,-381,211v-66,0,-125,-13,-178,-35"},"z":{"d":"784,0r-833,0r39,-184r649,-561r-348,0r-41,188r-182,0r79,-375r816,0r-39,187r-652,559r369,0r39,-185r182,0"},"{":{"d":"627,373v-93,-3,-196,9,-263,-21v-88,-39,-138,-130,-110,-260r90,-426v12,-55,4,-90,-24,-106v-28,-16,-72,-25,-134,-25r39,-186v128,-3,192,-19,215,-131r90,-426v28,-128,111,-216,222,-262v75,-31,171,-18,270,-21r-39,186r-154,0v-77,1,-98,29,-112,97r-90,426v-21,116,-128,204,-238,225v79,13,127,63,143,139v6,26,4,54,-2,84r-90,426v-16,74,2,95,72,96r154,0"},"|":{"d":"420,186r-187,0r357,-1677r186,0"},"}":{"d":"582,-561v-93,-18,-168,-100,-142,-225r90,-426v17,-75,-1,-93,-71,-93r-154,0r39,-186v93,3,195,-9,262,21v87,39,138,128,111,258r-90,426v-13,56,-5,92,24,108v29,16,74,23,135,23r-41,186v-127,3,-190,22,-213,131r-92,430v-26,128,-110,216,-221,260v-74,30,-172,19,-270,21r39,-185r153,0v79,-1,99,-28,113,-96r92,-430v19,-94,83,-163,159,-200v25,-12,51,-19,77,-23"},"~":{"d":"653,-621v36,0,67,-19,91,-57v24,-38,51,-101,81,-190r193,14v-47,170,-127,314,-266,389v-72,39,-205,48,-258,-6v-44,-45,-68,-114,-90,-174v-9,-26,-25,-39,-48,-39v-35,0,-65,18,-89,56v-24,38,-51,101,-81,190r-194,-15v50,-166,127,-315,266,-389v74,-39,204,-46,259,8v48,47,64,108,89,174v9,27,25,39,47,39"},"\u00a0":{},"\u00a1":{"d":"418,0r248,-932r170,0r-146,932r-272,0xm903,-1053r-252,0r54,-252r251,0"},"\u00a2":{"d":"311,-176v-222,-38,-349,-207,-293,-477v52,-251,239,-436,496,-477r37,-175r186,0r-37,168v142,15,233,58,308,152r-138,145v-47,-56,-116,-96,-208,-108r-127,592v105,-14,188,-58,256,-111r75,145v-108,90,-211,138,-370,154r-35,168r-187,0xm473,-936v-124,43,-218,136,-248,283v-32,154,26,243,127,282"},"\u00a3":{"d":"926,-281v-112,169,-298,281,-551,281r-473,0r39,-186v45,-1,91,4,121,-12v47,-24,83,-68,94,-124r51,-237r-187,0r39,-186r187,0r49,-230v34,-157,138,-269,275,-325v111,-45,255,-32,329,38v47,44,71,106,68,187r-197,45v-4,-74,-39,-111,-104,-111v-98,0,-143,66,-164,166r-49,230r186,0r-39,186r-186,0v-27,105,-35,225,-92,301v-24,33,-50,57,-80,72v138,-2,288,11,381,-38v66,-35,102,-83,151,-147"},"\u00a4":{"d":"608,-1141v116,0,202,32,269,82r145,-119r94,121r-143,119v36,82,44,179,20,287v-26,115,-77,210,-143,286r94,119r-147,121r-92,-119v-155,100,-436,113,-574,0r-145,119r-92,-121r141,-119v-37,-82,-42,-179,-19,-286v23,-109,71,-204,142,-285r-95,-121r148,-121r92,119v91,-55,193,-82,305,-82xm666,-436v79,-73,144,-190,126,-335v-14,-115,-92,-183,-223,-183v-200,0,-308,135,-346,303v-40,175,42,301,217,301v97,0,172,-36,226,-86"},"\u00a5":{"d":"385,-559r-45,-186r-281,0r39,-187r197,0r-88,-373r215,0r106,555r342,-555r215,0r-249,373r194,0r-39,187r-278,0r-121,182r0,4r360,0r-41,186r-360,0r-78,373r-207,0r78,-373r-364,0r40,-186r365,0"},"\u00a6":{"d":"430,186r-207,0r162,-764r207,0xm625,-727r-207,0r162,-764r206,0"},"\u00a7":{"d":"156,-225v11,147,90,228,258,225v118,-1,220,-77,241,-184v10,-52,4,-93,-22,-123v-88,-104,-277,-122,-389,-206v-82,-61,-137,-143,-103,-300v22,-99,88,-198,156,-252v-52,-57,-76,-126,-51,-240v40,-180,153,-297,318,-347v98,-30,214,-32,310,-2v138,44,236,145,220,335r-199,33v11,-155,-63,-203,-211,-203v-104,0,-209,62,-225,158v-8,45,-2,81,24,109v91,99,275,127,387,211v78,58,139,136,107,282v-28,130,-86,203,-164,283v52,54,78,129,53,241v-40,184,-164,307,-330,365v-158,54,-358,18,-453,-61v-71,-59,-125,-147,-124,-277xm352,-831v-20,92,32,137,87,173v67,43,160,69,233,109v48,-37,77,-75,92,-145v21,-98,-27,-144,-85,-180v-67,-41,-156,-64,-235,-97v-50,39,-81,85,-92,140"},"\u00a8":{"d":"903,-1053r-252,0r54,-252r251,0xm530,-1053r-251,0r53,-252r252,0"},"\u00a9":{"d":"879,-532v-86,98,-197,147,-334,147v-210,-1,-331,-137,-285,-363v33,-161,140,-277,282,-334v48,-19,101,-28,158,-28v137,0,226,49,269,147r-162,99v-18,-55,-65,-82,-141,-82v-119,0,-201,94,-222,198v-24,115,24,199,136,199v76,0,135,-27,178,-82xm1178,-966v36,168,-18,322,-88,432v-84,132,-205,239,-356,302v-135,57,-300,64,-434,6v-121,-52,-211,-152,-242,-290v-37,-167,20,-336,92,-446v86,-132,208,-238,361,-299v137,-55,303,-61,432,-2v119,54,205,158,235,297xm893,-394v136,-116,263,-294,221,-541v-21,-124,-101,-213,-205,-264v-113,-55,-262,-50,-385,-2v-197,78,-351,233,-399,456v-49,227,52,383,205,455v114,52,262,49,384,0v66,-25,126,-59,179,-104"},"\u00aa":{"d":"602,-668v-78,66,-174,127,-317,127v-162,0,-262,-86,-228,-239v45,-201,260,-256,515,-252v41,1,65,7,104,12r14,-59v13,-77,-67,-97,-149,-97v-113,0,-225,27,-308,70r-34,-129v116,-71,326,-113,505,-75v110,24,204,87,173,231r-111,520r-186,0xm647,-879v-60,-10,-94,-10,-155,-10v-155,0,-240,36,-256,109v-5,23,2,45,16,64v25,33,135,33,196,16v58,-16,113,-37,153,-68v38,-29,33,-64,46,-111xm688,-199r-745,0r39,-186r745,0"},"\u00ab":{"d":"453,-444r-146,120r-254,-327r393,-330r95,121r-248,209xm823,-444r-145,120r-254,-327r393,-330r94,121r-247,209"},"\u00ac":{"d":"874,-199r-186,0r80,-372r-745,0r38,-187r932,0"},"\u00ad":{"d":"954,-571r-931,0r38,-187r932,0"},"\u00ae":{"d":"1217,-932v-56,245,-226,423,-443,513v-136,57,-301,64,-435,6v-122,-52,-209,-150,-241,-289v-39,-167,18,-338,90,-447v86,-131,209,-237,362,-298v138,-55,303,-61,433,-2v119,54,205,157,237,296v16,68,15,142,-3,221xm1071,-737v62,-97,115,-235,83,-384v-38,-180,-174,-304,-390,-304v-156,0,-284,64,-379,141v-102,83,-189,206,-221,352v-32,148,5,270,70,352v66,84,176,145,321,142v245,-6,414,-139,516,-299xm893,-596r-207,0r-74,-227r-34,0r-50,227r-174,0r144,-676r268,0v140,2,244,66,211,225v-25,119,-77,171,-186,218xm702,-965v53,2,94,-39,103,-82v12,-60,-14,-86,-68,-86r-94,0r-35,168r94,0"},"\u00af":{"d":"868,-1044r-559,0r37,-175r559,0"},"\u00b0":{"d":"136,-972v-37,-183,66,-323,168,-410v71,-60,167,-109,286,-109v161,0,268,92,294,229v36,189,-63,319,-166,407v-69,59,-170,110,-286,110v-163,0,-269,-91,-296,-227xm381,-1278v-63,54,-127,137,-103,251v17,84,83,140,183,140v113,0,191,-66,239,-140v30,-46,53,-109,38,-178v-18,-84,-81,-141,-181,-141v-71,0,-134,32,-176,68"},"\u00b1":{"d":"954,-571r-372,0r-70,323r-186,0r69,-323r-372,0r38,-187r373,0r80,-372r186,0r-79,372r372,0xm834,0r-932,0r39,-186r931,0"},"\u00b2":{"d":"395,-1184v-59,3,-68,39,-84,101r-153,0v33,-155,121,-232,266,-232v80,0,151,31,168,93v26,97,-38,171,-96,216r-168,134r204,0r-26,127r-404,0r27,-127r260,-209v25,-21,38,-30,45,-64v6,-25,-16,-40,-39,-39"},"\u00b3":{"d":"172,-1102v25,-124,115,-205,254,-207v106,-2,178,56,158,158v-10,50,-40,86,-86,109v41,35,58,78,47,127v-19,88,-125,172,-238,172v-135,0,-196,-66,-182,-197r156,-14v-7,56,10,84,51,84v29,0,54,-23,59,-50v10,-57,-19,-68,-76,-69r21,-98v53,0,84,-19,92,-56v5,-27,-7,-41,-37,-41v-39,0,-62,39,-69,82r-150,0"},"\u00b4":{"d":"872,-1225r-485,244r-57,-137r463,-287"},"\u00b5":{"d":"301,23v-65,0,-110,-18,-135,-54r-86,404r-207,0r274,-1305r209,0r-123,578v-28,134,7,190,121,190v77,0,145,-31,206,-92v61,-61,103,-147,126,-256r88,-420r207,0r-197,932r-206,0r49,-231v-39,80,-88,142,-149,187v-61,45,-120,67,-177,67"},"\u00b6":{"d":"96,-915v50,-250,243,-390,535,-390r479,0r-276,1305r-207,0r110,-526r-155,0r-111,526r-207,0r113,-532v-107,-15,-186,-55,-239,-118v-53,-63,-65,-151,-42,-265xm709,-1118r-88,405r155,0r88,-405r-155,0xm370,-1048v-54,53,-98,170,-54,264v19,39,52,62,100,67r84,-397v-54,6,-97,34,-130,66"},"\u00b7":{"d":"567,-352r-252,0r54,-252r252,0"},"\u00b8":{"d":"492,0v-16,62,-28,120,-62,171v-72,113,-188,196,-367,200r39,-178v117,1,184,-56,203,-152r10,-41r177,0"},"\u00b9":{"d":"473,-745r-338,0r27,-127r90,0r49,-234v-35,31,-99,62,-178,59r29,-135v70,-3,127,-35,164,-74v14,-15,24,-31,28,-49r158,0r-92,433r90,0"},"\u00ba":{"d":"868,-1092v29,194,-64,355,-174,445v-75,61,-180,108,-307,108v-228,0,-360,-145,-309,-391v37,-181,151,-307,312,-366v98,-36,226,-40,318,0v86,37,145,102,160,204xm420,-690v146,-1,237,-105,266,-240v31,-146,-34,-245,-164,-244v-144,2,-239,111,-268,244v-32,149,33,241,166,240xm688,-199r-745,0r39,-186r745,0"},"\u00bb":{"d":"719,-651r-158,-209r144,-121r253,330r-393,327r-92,-120xm348,-651r-158,-209r144,-121r254,330r-393,327r-93,-120"},"\u00bc":{"d":"1122,-1257r-1112,1298r-116,-88r1114,-1303xm473,-745r-338,0r27,-127r90,0r49,-234v-35,31,-99,62,-178,59r29,-135v70,-3,127,-35,164,-74v14,-15,24,-31,28,-49r158,0r-92,433r90,0xm754,0r-156,0r23,-113r-199,0r33,-151r276,-295r141,0r-67,317r90,0r-29,129r-90,0xm649,-242r21,-104r-101,104r80,0"},"\u00bd":{"d":"733,-438v-59,3,-68,39,-84,100r-153,0v33,-154,121,-231,266,-231v81,0,150,30,167,92v27,98,-40,170,-98,217r-165,133r204,0r-26,127r-404,0r27,-127r258,-209v27,-19,39,-30,47,-63v6,-26,-15,-40,-39,-39xm1122,-1257r-1112,1298r-116,-88r1114,-1303xm473,-745r-338,0r27,-127r90,0r49,-234v-35,31,-99,62,-178,59r29,-135v70,-3,127,-35,164,-74v14,-15,24,-31,28,-49r158,0r-92,433r90,0"},"\u00be":{"d":"172,-1102v25,-124,115,-205,254,-207v106,-2,178,56,158,158v-10,50,-40,86,-86,109v41,35,58,78,47,127v-19,88,-125,172,-238,172v-135,0,-196,-66,-182,-197r156,-14v-7,56,10,84,51,84v29,0,54,-23,59,-50v10,-57,-19,-68,-76,-69r21,-98v53,0,84,-19,92,-56v5,-27,-7,-41,-37,-41v-39,0,-62,39,-69,82r-150,0xm754,0r-156,0r23,-113r-199,0r33,-151r276,-295r141,0r-67,317r90,0r-29,129r-90,0xm649,-242r21,-104r-101,104r80,0xm1122,-1257r-1112,1298r-116,-88r1114,-1303"},"\u00bf":{"d":"496,-164v144,-1,203,-88,241,-205r187,29v-37,112,-96,201,-174,266v-78,65,-176,97,-293,97v-206,0,-326,-115,-283,-324v21,-102,80,-169,142,-231v125,-124,301,-200,348,-400r213,0v-50,220,-220,321,-364,447v-58,51,-115,104,-132,186v-19,90,30,135,115,135xm705,-1305r251,0r-53,252r-252,0"},"\u00c0":{"d":"623,-1776r344,287r-119,137r-379,-244xm678,0r-29,-311r-432,0r-158,311r-217,0r684,-1305r238,0r131,1305r-217,0xm311,-494r322,0r-45,-538"},"\u00c1":{"d":"952,-1596r-485,244r-57,-137r463,-287xm678,0r-29,-311r-432,0r-158,311r-217,0r684,-1305r238,0r131,1305r-217,0xm311,-494r322,0r-45,-538"},"\u00c2":{"d":"1002,-1456r-101,102r-198,-205r-291,207r-58,-100r392,-318xm678,0r-29,-311r-432,0r-158,311r-217,0r684,-1305r238,0r131,1305r-217,0xm311,-494r322,0r-45,-538"},"\u00c3":{"d":"1120,-1616v-45,64,-94,114,-147,150v-53,36,-111,55,-172,55v-95,0,-130,-61,-187,-99v-46,-30,-114,-20,-156,14v-28,21,-57,50,-87,87r-107,-70v45,-63,95,-113,148,-149v53,-36,111,-54,172,-54v95,0,131,61,188,98v46,30,113,22,155,-12v28,-21,57,-51,87,-90xm678,0r-29,-311r-432,0r-158,311r-217,0r684,-1305r238,0r131,1305r-217,0xm311,-494r322,0r-45,-538"},"\u00c4":{"d":"983,-1424r-252,0r54,-252r251,0xm610,-1424r-251,0r53,-252r252,0xm678,0r-29,-311r-432,0r-158,311r-217,0r684,-1305r238,0r131,1305r-217,0xm311,-494r322,0r-45,-538"},"\u00c5":{"d":"506,-1266v-45,-36,-73,-101,-55,-184v22,-101,93,-172,181,-208v55,-22,124,-24,176,0v69,32,113,103,93,208v-15,79,-72,147,-133,184r127,1266r-217,0r-29,-311r-432,0r-158,311r-217,0xm311,-494r322,0r-45,-538xm696,-1542v-54,0,-102,45,-112,92v-11,53,21,92,71,92v54,0,104,-45,113,-92v10,-52,-22,-92,-72,-92"},"\u00c6":{"d":"297,0r65,-311r-169,0r-142,311r-213,0r641,-1305r631,0r-39,187r-330,0r-77,360r280,0r-39,187r-280,0r-82,385r329,0r-38,186r-537,0xm274,-494r127,0r109,-516"},"\u00c7":{"d":"938,-399v-52,109,-114,200,-188,273v-74,73,-162,119,-263,138v-28,168,-128,279,-272,333v-47,17,-97,26,-152,26r39,-178v117,1,184,-56,203,-152r6,-23v-153,-17,-243,-103,-287,-227v-47,-131,-38,-293,-6,-444v57,-269,183,-500,396,-617v108,-59,292,-83,397,-12v41,28,74,70,80,131r33,-154r186,0r-104,494r-187,0v16,-80,13,-166,-17,-226v-30,-60,-87,-105,-177,-104v-131,1,-209,73,-267,156v-90,129,-144,307,-156,508v-11,178,40,312,216,313v85,0,155,-27,212,-81v57,-54,109,-127,156,-218"},"\u00c8":{"d":"623,-1776r344,287r-119,137r-379,-244xm784,0r-833,0r276,-1305r834,0r-39,187r-627,0r-78,360r490,0r-39,187r-489,0r-82,385r626,0"},"\u00c9":{"d":"952,-1596r-485,244r-57,-137r463,-287xm784,0r-833,0r276,-1305r834,0r-39,187r-627,0r-78,360r490,0r-39,187r-489,0r-82,385r626,0"},"\u00ca":{"d":"1002,-1456r-101,102r-198,-205r-291,207r-58,-100r392,-318xm784,0r-833,0r276,-1305r834,0r-39,187r-627,0r-78,360r490,0r-39,187r-489,0r-82,385r626,0"},"\u00cb":{"d":"983,-1424r-252,0r54,-252r251,0xm610,-1424r-251,0r53,-252r252,0xm784,0r-833,0r276,-1305r834,0r-39,187r-627,0r-78,360r490,0r-39,187r-489,0r-82,385r626,0"},"\u00cc":{"d":"623,-1776r344,287r-119,137r-379,-244xm684,0r-627,0r39,-186r207,0r199,-932r-207,0r39,-187r627,0r-39,187r-213,0r-199,932r213,0"},"\u00cd":{"d":"952,-1596r-485,244r-57,-137r463,-287xm684,0r-627,0r39,-186r207,0r199,-932r-207,0r39,-187r627,0r-39,187r-213,0r-199,932r213,0"},"\u00ce":{"d":"1002,-1456r-101,102r-198,-205r-291,207r-58,-100r392,-318xm684,0r-627,0r39,-186r207,0r199,-932r-207,0r39,-187r627,0r-39,187r-213,0r-199,932r213,0"},"\u00cf":{"d":"983,-1424r-252,0r54,-252r251,0xm610,-1424r-251,0r53,-252r252,0xm684,0r-627,0r39,-186r207,0r199,-932r-207,0r39,-187r627,0r-39,187r-213,0r-199,932r213,0"},"\u00d0":{"d":"-55,-758r166,0r116,-547r424,0v176,-2,288,77,342,196v97,212,22,526,-59,705v-70,153,-172,279,-318,351v-71,35,-151,53,-241,53r-424,0r121,-571r-166,0xm807,-653v32,-151,32,-265,-2,-345v-34,-80,-98,-120,-193,-120r-217,0r-78,360r185,0r-39,187r-184,0r-82,385r217,0v94,0,176,-41,244,-122v68,-81,117,-196,149,-345"},"\u00d1":{"d":"1120,-1616v-45,64,-94,114,-147,150v-53,36,-111,55,-172,55v-95,0,-130,-61,-187,-99v-46,-30,-114,-20,-156,14v-28,21,-57,50,-87,87r-107,-70v45,-63,95,-113,148,-149v53,-36,111,-54,172,-54v95,0,131,61,188,98v46,30,113,22,155,-12v28,-21,57,-51,87,-90xm784,0r-239,0r-187,-946r-200,946r-207,0r276,-1305r260,0r177,899r190,-899r207,0"},"\u00d2":{"d":"623,-1776r344,287r-119,137r-379,-244xm-20,-400v0,-297,97,-553,241,-721v97,-113,230,-205,428,-206v180,-1,289,83,343,206v58,132,49,307,14,468v-58,270,-183,503,-398,619v-127,69,-351,78,-466,0v-105,-72,-162,-196,-162,-366xm364,-1012v-92,114,-162,322,-174,535v-10,177,38,313,213,313v132,0,208,-73,266,-156v89,-129,140,-311,154,-508v12,-175,-40,-312,-213,-313v-95,0,-177,44,-246,129"},"\u00d3":{"d":"952,-1596r-485,244r-57,-137r463,-287xm-20,-400v0,-297,97,-553,241,-721v97,-113,230,-205,428,-206v180,-1,289,83,343,206v58,132,49,307,14,468v-58,270,-183,503,-398,619v-127,69,-351,78,-466,0v-105,-72,-162,-196,-162,-366xm364,-1012v-92,114,-162,322,-174,535v-10,177,38,313,213,313v132,0,208,-73,266,-156v89,-129,140,-311,154,-508v12,-175,-40,-312,-213,-313v-95,0,-177,44,-246,129"},"\u00d4":{"d":"1002,-1456r-101,102r-198,-205r-291,207r-58,-100r392,-318xm-20,-400v0,-297,97,-553,241,-721v97,-113,230,-205,428,-206v180,-1,289,83,343,206v58,132,49,307,14,468v-58,270,-183,503,-398,619v-127,69,-351,78,-466,0v-105,-72,-162,-196,-162,-366xm364,-1012v-92,114,-162,322,-174,535v-10,177,38,313,213,313v132,0,208,-73,266,-156v89,-129,140,-311,154,-508v12,-175,-40,-312,-213,-313v-95,0,-177,44,-246,129"},"\u00d5":{"d":"1120,-1616v-45,64,-94,114,-147,150v-53,36,-111,55,-172,55v-95,0,-130,-61,-187,-99v-46,-30,-114,-20,-156,14v-28,21,-57,50,-87,87r-107,-70v45,-63,95,-113,148,-149v53,-36,111,-54,172,-54v95,0,131,61,188,98v46,30,113,22,155,-12v28,-21,57,-51,87,-90xm-20,-400v0,-297,97,-553,241,-721v97,-113,230,-205,428,-206v180,-1,289,83,343,206v58,132,49,307,14,468v-58,270,-183,503,-398,619v-127,69,-351,78,-466,0v-105,-72,-162,-196,-162,-366xm364,-1012v-92,114,-162,322,-174,535v-10,177,38,313,213,313v132,0,208,-73,266,-156v89,-129,140,-311,154,-508v12,-175,-40,-312,-213,-313v-95,0,-177,44,-246,129"},"\u00d6":{"d":"983,-1424r-252,0r54,-252r251,0xm610,-1424r-251,0r53,-252r252,0xm-20,-400v0,-297,97,-553,241,-721v97,-113,230,-205,428,-206v180,-1,289,83,343,206v58,132,49,307,14,468v-58,270,-183,503,-398,619v-127,69,-351,78,-466,0v-105,-72,-162,-196,-162,-366xm364,-1012v-92,114,-162,322,-174,535v-10,177,38,313,213,313v132,0,208,-73,266,-156v89,-129,140,-311,154,-508v12,-175,-40,-312,-213,-313v-95,0,-177,44,-246,129"},"\u00d7":{"d":"954,-934r-327,270r213,271r-146,119r-211,-271r-327,271r-95,-119r326,-271r-211,-270r146,-119r213,271r325,-271"},"\u00d8":{"d":"362,23v-171,1,-275,-69,-331,-181r-164,138r45,-222r74,-61v-19,-118,-4,-239,20,-350v57,-270,184,-504,402,-617v71,-38,151,-57,241,-57v177,-1,282,75,338,194r162,-133r-47,222r-74,61v20,201,-33,429,-102,583v-71,157,-171,289,-318,366v-72,38,-154,57,-246,57xm811,-985v-27,-90,-84,-157,-201,-156v-95,0,-177,43,-246,129v-94,117,-161,325,-178,541xm207,-303v28,83,83,140,196,139v132,-1,209,-73,266,-156v88,-128,135,-300,154,-493"},"\u00d9":{"d":"623,-1776r344,287r-119,137r-379,-244xm883,-465v-48,213,-145,377,-328,453v-103,43,-277,48,-373,0v-91,-46,-142,-128,-151,-253v-4,-61,2,-128,18,-202r178,-838r207,0r-178,840v-12,61,-23,136,-7,199v16,63,67,102,152,102v95,0,152,-46,195,-101v41,-52,65,-128,80,-200r178,-840r207,0"},"\u00da":{"d":"952,-1596r-485,244r-57,-137r463,-287xm883,-465v-48,213,-145,377,-328,453v-103,43,-277,48,-373,0v-91,-46,-142,-128,-151,-253v-4,-61,2,-128,18,-202r178,-838r207,0r-178,840v-12,61,-23,136,-7,199v16,63,67,102,152,102v95,0,152,-46,195,-101v41,-52,65,-128,80,-200r178,-840r207,0"},"\u00db":{"d":"1002,-1456r-101,102r-198,-205r-291,207r-58,-100r392,-318xm883,-465v-48,213,-145,377,-328,453v-103,43,-277,48,-373,0v-91,-46,-142,-128,-151,-253v-4,-61,2,-128,18,-202r178,-838r207,0r-178,840v-12,61,-23,136,-7,199v16,63,67,102,152,102v95,0,152,-46,195,-101v41,-52,65,-128,80,-200r178,-840r207,0"},"\u00dc":{"d":"983,-1424r-252,0r54,-252r251,0xm610,-1424r-251,0r53,-252r252,0xm883,-465v-48,213,-145,377,-328,453v-103,43,-277,48,-373,0v-91,-46,-142,-128,-151,-253v-4,-61,2,-128,18,-202r178,-838r207,0r-178,840v-12,61,-23,136,-7,199v16,63,67,102,152,102v95,0,152,-46,195,-101v41,-52,65,-128,80,-200r178,-840r207,0"},"\u00dd":{"d":"952,-1596r-485,244r-57,-137r463,-287xm1092,-1118r-95,0r-413,586r-74,346r209,0r-39,186r-625,0r39,-186r209,0r74,-346r-164,-586r-94,0r39,-187r411,0r-39,187r-90,0r84,383r246,-383r-90,0r39,-187r411,0"},"\u00de":{"d":"973,-664v-51,254,-239,383,-533,385r-225,0r-57,279r-207,0r276,-1305r207,0r-55,256r223,0v266,-1,426,111,371,385xm481,-465v153,-1,260,-66,287,-199v29,-144,-65,-198,-203,-198r-225,0r-84,397r225,0"},"\u00df":{"d":"342,-248v49,55,88,81,174,84v91,3,154,-41,168,-106v14,-65,-36,-98,-77,-128v-78,-56,-182,-97,-221,-192v-32,-78,10,-183,51,-226v53,-55,119,-95,175,-142v39,-33,70,-92,42,-151v-10,-22,-40,-32,-85,-32v-67,0,-117,25,-151,76v-34,51,-61,124,-82,219r-178,846r-207,0r178,-844v25,-113,67,-235,132,-318v73,-92,181,-167,347,-165v142,1,239,57,262,173v18,91,-20,196,-63,245v-53,60,-112,95,-175,140v-39,27,-70,73,-26,109v96,78,244,122,282,260v24,87,-6,188,-49,246v-75,101,-196,177,-364,177v-138,0,-211,-41,-285,-109"},"\u00e0":{"d":"543,-1405r344,287r-119,137r-379,-244xm606,-137v-76,93,-225,160,-385,160v-139,0,-240,-54,-267,-165v-26,-108,18,-209,74,-270v135,-145,391,-208,674,-176r7,-37v22,-108,-66,-146,-174,-145v-134,1,-256,41,-355,92r-49,-162v153,-80,374,-147,590,-97v92,21,163,72,191,157v14,42,14,93,1,155r-131,625r-204,0xm664,-408v-133,-20,-316,-13,-404,30v-57,27,-91,60,-100,99v-17,78,34,117,153,117v134,0,238,-50,301,-125v30,-35,39,-74,50,-121"},"\u00e1":{"d":"872,-1225r-485,244r-57,-137r463,-287xm606,-137v-76,93,-225,160,-385,160v-139,0,-240,-54,-267,-165v-26,-108,18,-209,74,-270v135,-145,391,-208,674,-176r7,-37v22,-108,-66,-146,-174,-145v-134,1,-256,41,-355,92r-49,-162v153,-80,374,-147,590,-97v92,21,163,72,191,157v14,42,14,93,1,155r-131,625r-204,0xm664,-408v-133,-20,-316,-13,-404,30v-57,27,-91,60,-100,99v-17,78,34,117,153,117v134,0,238,-50,301,-125v30,-35,39,-74,50,-121"},"\u00e2":{"d":"922,-1085r-101,102r-198,-205r-291,207r-58,-100r392,-318xm606,-137v-76,93,-225,160,-385,160v-139,0,-240,-54,-267,-165v-26,-108,18,-209,74,-270v135,-145,391,-208,674,-176r7,-37v22,-108,-66,-146,-174,-145v-134,1,-256,41,-355,92r-49,-162v153,-80,374,-147,590,-97v92,21,163,72,191,157v14,42,14,93,1,155r-131,625r-204,0xm664,-408v-133,-20,-316,-13,-404,30v-57,27,-91,60,-100,99v-17,78,34,117,153,117v134,0,238,-50,301,-125v30,-35,39,-74,50,-121"},"\u00e3":{"d":"1040,-1245v-45,64,-94,115,-147,151v-53,36,-111,54,-172,54v-95,0,-130,-60,-187,-98v-46,-30,-114,-22,-156,12v-28,21,-57,51,-87,88r-107,-70v45,-63,95,-112,148,-148v53,-36,111,-55,172,-55v95,0,131,62,188,99v46,30,113,20,155,-14v28,-21,57,-50,87,-89xm606,-137v-76,93,-225,160,-385,160v-139,0,-240,-54,-267,-165v-26,-108,18,-209,74,-270v135,-145,391,-208,674,-176r7,-37v22,-108,-66,-146,-174,-145v-134,1,-256,41,-355,92r-49,-162v153,-80,374,-147,590,-97v92,21,163,72,191,157v14,42,14,93,1,155r-131,625r-204,0xm664,-408v-133,-20,-316,-13,-404,30v-57,27,-91,60,-100,99v-17,78,34,117,153,117v134,0,238,-50,301,-125v30,-35,39,-74,50,-121"},"\u00e4":{"d":"903,-1053r-252,0r54,-252r251,0xm530,-1053r-251,0r53,-252r252,0xm606,-137v-76,93,-225,160,-385,160v-139,0,-240,-54,-267,-165v-26,-108,18,-209,74,-270v135,-145,391,-208,674,-176r7,-37v22,-108,-66,-146,-174,-145v-134,1,-256,41,-355,92r-49,-162v153,-80,374,-147,590,-97v92,21,163,72,191,157v14,42,14,93,1,155r-131,625r-204,0xm664,-408v-133,-20,-316,-13,-404,30v-57,27,-91,60,-100,99v-17,78,34,117,153,117v134,0,238,-50,301,-125v30,-35,39,-74,50,-121"},"\u00e5":{"d":"606,-137v-76,93,-225,160,-385,160v-139,0,-240,-54,-267,-165v-26,-108,18,-209,74,-270v135,-145,391,-208,674,-176r7,-37v22,-108,-66,-146,-174,-145v-134,1,-256,41,-355,92r-49,-162v153,-80,374,-147,590,-97v92,21,163,72,191,157v14,42,14,93,1,155r-131,625r-204,0xm664,-408v-133,-20,-316,-13,-404,30v-57,27,-91,60,-100,99v-17,78,34,117,153,117v134,0,238,-50,301,-125v30,-35,39,-74,50,-121xm408,-1169v-21,-110,39,-194,101,-248v58,-51,168,-92,258,-49v68,32,115,102,93,209v-21,101,-93,171,-181,207v-55,23,-124,25,-176,0v-48,-23,-84,-62,-95,-119xm655,-1350v-54,-1,-102,46,-112,93v-11,51,21,92,71,92v75,0,147,-87,100,-158v-12,-19,-33,-27,-59,-27"},"\u00e6":{"d":"569,23v-107,0,-172,-57,-190,-154v-35,43,-74,78,-113,109v-61,48,-171,60,-242,22v-75,-41,-112,-139,-87,-254v33,-153,123,-260,259,-306v63,-21,132,-27,199,-13v10,-44,32,-133,7,-165v-16,-20,-36,-32,-66,-32v-78,0,-128,36,-176,96r-99,-119v49,-57,102,-98,159,-123v57,-25,106,-38,147,-38v97,1,172,35,180,129v56,-77,119,-126,233,-129v126,-3,174,74,190,180v19,130,-18,270,-40,387r-387,0v-18,83,-19,141,-3,172v16,31,40,47,70,47v56,0,84,-32,105,-80r162,58v-39,72,-82,125,-131,160v-49,35,-108,53,-177,53xm762,-569v13,-79,16,-133,7,-160v-21,-64,-95,-46,-128,4v-21,31,-42,82,-59,156r180,0xm356,-391v-61,-9,-111,-4,-156,31v-30,24,-50,55,-59,96v-13,61,4,98,54,98v82,0,134,-90,149,-164"},"\u00e7":{"d":"312,-182v163,54,344,-15,438,-97r75,146v-100,84,-194,130,-338,149v-30,164,-129,276,-272,329v-47,17,-97,26,-152,26r39,-178v117,1,184,-56,203,-152r6,-23v-249,-24,-393,-197,-331,-483v31,-144,112,-269,206,-351v85,-75,203,-137,346,-138v127,-1,215,53,236,157r29,-135r184,0r-92,434r-184,0v36,-159,-41,-275,-187,-270v-130,4,-217,79,-277,166v-40,59,-78,177,-59,272v16,77,60,125,130,148"},"\u00e8":{"d":"543,-1405r344,287r-119,137r-379,-244xm825,-133v-124,105,-245,156,-442,156v-222,0,-366,-108,-407,-290v-32,-143,21,-297,80,-393v71,-116,176,-207,310,-258v123,-46,290,-49,403,2v169,77,238,280,185,529r-780,0v-6,141,95,223,250,223v141,0,245,-50,326,-115xm760,-569v5,-122,-104,-200,-228,-199v-139,1,-274,90,-311,199r539,0"},"\u00e9":{"d":"872,-1225r-485,244r-57,-137r463,-287xm825,-133v-124,105,-245,156,-442,156v-222,0,-366,-108,-407,-290v-32,-143,21,-297,80,-393v71,-116,176,-207,310,-258v123,-46,290,-49,403,2v169,77,238,280,185,529r-780,0v-6,141,95,223,250,223v141,0,245,-50,326,-115xm760,-569v5,-122,-104,-200,-228,-199v-139,1,-274,90,-311,199r539,0"},"\u00ea":{"d":"922,-1085r-101,102r-198,-205r-291,207r-58,-100r392,-318xm825,-133v-124,105,-245,156,-442,156v-222,0,-366,-108,-407,-290v-32,-143,21,-297,80,-393v71,-116,176,-207,310,-258v123,-46,290,-49,403,2v169,77,238,280,185,529r-780,0v-6,141,95,223,250,223v141,0,245,-50,326,-115xm760,-569v5,-122,-104,-200,-228,-199v-139,1,-274,90,-311,199r539,0"},"\u00eb":{"d":"903,-1053r-252,0r54,-252r251,0xm530,-1053r-251,0r53,-252r252,0xm825,-133v-124,105,-245,156,-442,156v-222,0,-366,-108,-407,-290v-32,-143,21,-297,80,-393v71,-116,176,-207,310,-258v123,-46,290,-49,403,2v169,77,238,280,185,529r-780,0v-6,141,95,223,250,223v141,0,245,-50,326,-115xm760,-569v5,-122,-104,-200,-228,-199v-139,1,-274,90,-311,199r539,0"},"\u00ec":{"d":"543,-1405r344,287r-119,137r-379,-244xm684,0r-627,0r39,-186r207,0r119,-559r-207,0r39,-187r414,0r-158,746r213,0"},"\u00ed":{"d":"872,-1225r-485,244r-57,-137r463,-287xm684,0r-627,0r39,-186r207,0r119,-559r-207,0r39,-187r414,0r-158,746r213,0"},"\u00ee":{"d":"922,-1085r-101,102r-198,-205r-291,207r-58,-100r392,-318xm684,0r-627,0r39,-186r207,0r119,-559r-207,0r39,-187r414,0r-158,746r213,0"},"\u00ef":{"d":"903,-1053r-252,0r54,-252r251,0xm530,-1053r-251,0r53,-252r252,0xm684,0r-627,0r39,-186r207,0r119,-559r-207,0r39,-187r414,0r-158,746r213,0"},"\u00f0":{"d":"446,-1327v72,29,136,62,199,100r176,-145r92,121r-139,114v111,97,201,217,208,409v10,260,-100,475,-244,600v-101,89,-235,150,-412,151v-137,0,-240,-33,-308,-97v-68,-64,-90,-157,-63,-280v33,-152,133,-251,255,-326v141,-86,327,-138,529,-170v-29,-59,-70,-110,-125,-154r-180,148r-92,-121r133,-110v-42,-23,-82,-41,-129,-60xm612,-260v93,-83,156,-235,162,-410v-173,15,-314,50,-422,105v-108,55,-173,125,-190,211v-27,135,68,191,205,190v93,0,173,-33,245,-96"},"\u00f1":{"d":"1040,-1245v-45,64,-94,115,-147,151v-53,36,-111,54,-172,54v-95,0,-130,-60,-187,-98v-46,-30,-114,-22,-156,12v-28,21,-57,51,-87,88r-107,-70v45,-63,95,-112,148,-148v53,-36,111,-55,172,-55v95,0,131,62,188,99v46,30,113,20,155,-14v28,-21,57,-50,87,-89xm305,-698v66,-142,190,-256,377,-256v205,0,273,140,223,379r-121,575r-206,0r120,-575v29,-135,-5,-193,-118,-193v-77,0,-146,31,-207,93v-61,62,-104,148,-127,257r-88,418r-207,0r196,-932r207,0"},"\u00f2":{"d":"543,-1405r344,287r-119,137r-379,-244xm964,-662v24,147,-28,299,-86,395v-70,116,-172,204,-306,254v-121,45,-286,50,-400,0v-153,-67,-243,-226,-192,-452v50,-220,186,-380,384,-453v121,-46,287,-49,400,0v105,45,180,131,200,256xm628,-250v81,-73,142,-185,127,-334v-8,-78,-52,-130,-112,-160v-65,-33,-165,-29,-235,0v-115,48,-194,147,-222,279v-37,176,42,301,217,301v98,-1,169,-37,225,-86"},"\u00f3":{"d":"872,-1225r-485,244r-57,-137r463,-287xm964,-662v24,147,-28,299,-86,395v-70,116,-172,204,-306,254v-121,45,-286,50,-400,0v-153,-67,-243,-226,-192,-452v50,-220,186,-380,384,-453v121,-46,287,-49,400,0v105,45,180,131,200,256xm628,-250v81,-73,142,-185,127,-334v-8,-78,-52,-130,-112,-160v-65,-33,-165,-29,-235,0v-115,48,-194,147,-222,279v-37,176,42,301,217,301v98,-1,169,-37,225,-86"},"\u00f4":{"d":"922,-1085r-101,102r-198,-205r-291,207r-58,-100r392,-318xm964,-662v24,147,-28,299,-86,395v-70,116,-172,204,-306,254v-121,45,-286,50,-400,0v-153,-67,-243,-226,-192,-452v50,-220,186,-380,384,-453v121,-46,287,-49,400,0v105,45,180,131,200,256xm628,-250v81,-73,142,-185,127,-334v-8,-78,-52,-130,-112,-160v-65,-33,-165,-29,-235,0v-115,48,-194,147,-222,279v-37,176,42,301,217,301v98,-1,169,-37,225,-86"},"\u00f5":{"d":"1040,-1245v-45,64,-94,115,-147,151v-53,36,-111,54,-172,54v-95,0,-130,-60,-187,-98v-46,-30,-114,-22,-156,12v-28,21,-57,51,-87,88r-107,-70v45,-63,95,-112,148,-148v53,-36,111,-55,172,-55v95,0,131,62,188,99v46,30,113,20,155,-14v28,-21,57,-50,87,-89xm964,-662v24,147,-28,299,-86,395v-70,116,-172,204,-306,254v-121,45,-286,50,-400,0v-153,-67,-243,-226,-192,-452v50,-220,186,-380,384,-453v121,-46,287,-49,400,0v105,45,180,131,200,256xm628,-250v81,-73,142,-185,127,-334v-8,-78,-52,-130,-112,-160v-65,-33,-165,-29,-235,0v-115,48,-194,147,-222,279v-37,176,42,301,217,301v98,-1,169,-37,225,-86"},"\u00f6":{"d":"903,-1053r-252,0r54,-252r251,0xm530,-1053r-251,0r53,-252r252,0xm964,-662v24,147,-28,299,-86,395v-70,116,-172,204,-306,254v-121,45,-286,50,-400,0v-153,-67,-243,-226,-192,-452v50,-220,186,-380,384,-453v121,-46,287,-49,400,0v105,45,180,131,200,256xm628,-250v81,-73,142,-185,127,-334v-8,-78,-52,-130,-112,-160v-65,-33,-165,-29,-235,0v-115,48,-194,147,-222,279v-37,176,42,301,217,301v98,-1,169,-37,225,-86"},"\u00f7":{"d":"686,-911r-252,0r53,-252r252,0xm528,-166r-252,0r54,-252r252,0xm954,-571r-931,0r38,-187r932,0"},"\u00f8":{"d":"362,23v-136,0,-237,-44,-305,-113r-159,113r41,-203r47,-33v-53,-156,2,-340,70,-449v103,-163,262,-288,515,-292v135,-2,234,46,303,114r162,-114r-43,202r-47,33v50,159,-3,344,-70,452v-71,115,-173,205,-306,254v-65,24,-134,36,-208,36xm238,-219v57,59,197,71,288,33v115,-48,193,-146,222,-279v9,-42,10,-82,6,-119xm305,-681v-78,70,-140,192,-127,333r512,-363v-58,-64,-190,-72,-282,-33v-38,16,-73,36,-103,63"},"\u00f9":{"d":"543,-1405r344,287r-119,137r-379,-244xm627,-233v-67,140,-190,256,-377,256v-206,0,-276,-141,-225,-379r122,-576r207,0r-123,576v-28,134,7,192,121,192v77,0,146,-31,207,-93v61,-62,104,-148,127,-257r88,-418r207,0r-197,932r-206,0"},"\u00fa":{"d":"872,-1225r-485,244r-57,-137r463,-287xm627,-233v-67,140,-190,256,-377,256v-206,0,-276,-141,-225,-379r122,-576r207,0r-123,576v-28,134,7,192,121,192v77,0,146,-31,207,-93v61,-62,104,-148,127,-257r88,-418r207,0r-197,932r-206,0"},"\u00fb":{"d":"922,-1085r-101,102r-198,-205r-291,207r-58,-100r392,-318xm627,-233v-67,140,-190,256,-377,256v-206,0,-276,-141,-225,-379r122,-576r207,0r-123,576v-28,134,7,192,121,192v77,0,146,-31,207,-93v61,-62,104,-148,127,-257r88,-418r207,0r-197,932r-206,0"},"\u00fc":{"d":"903,-1053r-252,0r54,-252r251,0xm530,-1053r-251,0r53,-252r252,0xm627,-233v-67,140,-190,256,-377,256v-206,0,-276,-141,-225,-379r122,-576r207,0r-123,576v-28,134,7,192,121,192v77,0,146,-31,207,-93v61,-62,104,-148,127,-257r88,-418r207,0r-197,932r-206,0"},"\u00fd":{"d":"872,-1225r-485,244r-57,-137r463,-287xm-92,168v43,18,86,29,137,29v61,0,111,-27,145,-82r56,-90r-154,-957r215,0r107,705r387,-705r221,0r-637,1114v-83,141,-188,211,-381,211v-66,0,-125,-13,-178,-35"},"\u00fe":{"d":"410,23v-116,-1,-175,-45,-236,-109r-96,459r-205,0r354,-1678r207,0r-98,457v85,-60,156,-105,282,-106v128,-1,218,57,270,138v57,87,75,214,44,351v-47,211,-168,374,-347,452v-57,24,-115,36,-175,36xm209,-248v33,50,111,84,188,84v173,0,295,-144,328,-301v37,-174,-44,-305,-201,-303v-85,2,-173,38,-223,84"},"\u00ff":{"d":"903,-1053r-252,0r54,-252r251,0xm530,-1053r-251,0r53,-252r252,0xm-92,168v43,18,86,29,137,29v61,0,111,-27,145,-82r56,-90r-154,-957r215,0r107,705r387,-705r221,0r-637,1114v-83,141,-188,211,-381,211v-66,0,-125,-13,-178,-35"},"\u0152":{"d":"459,-1327v92,0,137,64,151,149r27,-127r473,0r-39,187r-336,0r-78,360r246,0r-39,187r-246,0r-81,385r335,0r-38,186r-474,0r25,-123v-56,97,-127,146,-213,146v-194,0,-244,-225,-149,-674v95,-451,241,-676,436,-676xm434,-651v16,-73,28,-139,38,-199v14,-93,33,-179,10,-255v-17,-54,-72,-43,-103,0v-80,111,-114,287,-150,454v-25,117,-50,236,-54,353v-1,43,4,77,13,100v20,51,73,41,102,0v77,-110,108,-289,144,-453"},"\u0153":{"d":"610,-164v71,0,93,-46,119,-110r170,53v-35,82,-80,143,-135,183v-55,40,-113,61,-174,61v-120,0,-182,-68,-187,-203v-57,135,-142,203,-253,203v-186,0,-246,-164,-177,-490v69,-325,198,-487,385,-487v109,0,165,64,168,192v56,-128,143,-192,260,-192v275,0,205,363,160,569r-395,0v-14,64,-16,117,-7,159v9,42,31,62,66,62xm780,-571v13,-62,17,-110,12,-145v-5,-35,-26,-52,-63,-52v-37,0,-65,17,-85,52v-20,35,-37,83,-52,145r188,0xm362,-467v42,-201,34,-301,-26,-301v-61,0,-114,100,-156,301v-42,202,-32,303,29,303v60,0,111,-101,153,-303"},"\u0178":{"d":"983,-1424r-252,0r54,-252r251,0xm610,-1424r-251,0r53,-252r252,0xm1092,-1118r-95,0r-413,586r-74,346r209,0r-39,186r-625,0r39,-186r209,0r74,-346r-164,-586r-94,0r39,-187r411,0r-39,187r-90,0r84,383r246,-383r-90,0r39,-187r411,0"},"\u02c6":{"d":"922,-1085r-101,102r-198,-205r-291,207r-58,-100r392,-318"},"\u02dc":{"d":"1040,-1245v-45,64,-94,115,-147,151v-53,36,-111,54,-172,54v-95,0,-130,-60,-187,-98v-46,-30,-114,-22,-156,12v-28,21,-57,51,-87,88r-107,-70v45,-63,95,-112,148,-148v53,-36,111,-55,172,-55v95,0,131,62,188,99v46,30,113,20,155,-14v28,-21,57,-50,87,-89"},"\u2013":{"d":"-18,-385r41,-186r931,0r-41,186r-931,0"},"\u2014":{"d":"-109,-385r39,-186r1119,0r-41,186r-1117,0"},"\u2018":{"d":"791,-680r-373,0r57,-266v32,-160,123,-276,267,-329v52,-20,112,-30,182,-30r-37,172v-147,-1,-223,65,-246,187r-4,14r207,0"},"\u2019":{"d":"365,-1305r372,0r-57,267v-47,214,-186,356,-449,358r37,-172v160,3,225,-76,250,-201r-207,0"},"\u201a":{"d":"531,-186r-152,500r-157,0r61,-500r248,0"},"\u201c":{"d":"418,-680r-373,0r57,-266v48,-215,186,-356,449,-359r-37,172v-146,0,-223,65,-246,187r-4,14r207,0xm977,-680r-373,0r58,-266v46,-216,186,-356,448,-359r-37,172v-147,-1,-222,66,-246,187r-4,14r207,0"},"\u201d":{"d":"737,-1305r373,0r-57,267v-49,214,-185,356,-449,358r37,-172v160,3,224,-76,250,-201r-207,0xm178,-1305r373,0r-57,267v-49,214,-185,356,-449,358r37,-172v160,3,224,-76,250,-201r-207,0"},"\u201e":{"d":"717,-186r-151,500r-158,0r62,-500r247,0xm345,-186r-152,500r-158,0r62,-500r248,0"},"\u2022":{"d":"207,-559v22,-108,92,-202,165,-263v71,-58,168,-109,285,-110v107,0,192,48,241,110v49,60,79,154,54,263v-38,166,-154,283,-302,343v-93,38,-204,42,-290,0v-111,-55,-189,-169,-153,-343"},"\u2026":{"d":"494,0r-252,0r53,-252r252,0xm866,0r-252,0r54,-252r252,0xm121,0r-252,0r53,-252r252,0"},"\u2039":{"d":"637,-444r-145,120r-254,-327r393,-330r94,121r-248,209"},"\u203a":{"d":"532,-651r-157,-209r143,-121r254,330r-393,327r-92,-120"},"\u20ac":{"d":"174,-571v8,-58,18,-112,35,-162r-152,0r37,-174r172,0v68,-166,165,-317,324,-389v86,-40,213,-42,294,0v120,63,161,208,160,393r-190,37v4,-93,-4,-163,-24,-208v-20,-45,-60,-67,-121,-67v-53,0,-100,22,-139,67v-39,45,-72,101,-99,167r182,0r-37,174r-200,0v-18,49,-26,105,-35,162r201,0r-37,174r-183,0v-1,67,8,123,29,167v21,44,58,66,111,66v60,0,110,-23,148,-68v38,-45,76,-113,114,-204r174,37v-73,170,-165,320,-328,392v-86,39,-215,41,-294,-2v-117,-64,-166,-204,-158,-388r-172,0r37,-174r151,0"},"\u2122":{"d":"1219,-932r-111,0r84,-393r-203,334r-78,0r-57,-334r-84,393r-111,0r119,-559r158,0r51,328r191,-328r159,0xm659,-1378r-176,0r-96,446r-113,0r97,-446r-176,0r22,-113r465,0"}}});
