/*!
 * The following copyright notice may not be removed under any circumstances.
 * 
 * Copyright:
 * Copyright (c) Mark Simonson 2009. All rights reserved.
 * 
 * Trademark:
 * Anonymous Pro is a trademark of Mark Simonson.
 * 
 * Designer:
 * Mark Simonson
 * 
 * Vendor URL:
 * http://www.ms-studio.com
 */
Cufon.registerFont({"w":1118,"face":{"font-family":"Anonymous Pro","font-weight":400,"font-stretch":"normal","units-per-em":"2048","panose-1":"2 6 6 9 3 2 2 0 5 4","ascent":"1733","descent":"-315","bbox":"-117 -1739 1121.65 395","underline-thickness":"123","underline-position":"-126","unicode-range":"U+0020-U+2122"},"glyphs":{" ":{},"!":{"d":"557,-1305r-51,938r-82,0r-51,-938r184,0xm559,0r-186,0r0,-186r186,0r0,186"},"\"":{"d":"745,-1305r-40,465r-103,0r-43,-465r186,0xm373,-1305r-43,465r-101,0r-43,-465r187,0"},"#":{"d":"932,-594r-221,0r0,221r-117,0r0,-221r-256,0r0,221r-117,0r0,-221r-221,0r0,-117r221,0r0,-264r-221,0r0,-102r221,0r0,-228r117,0r0,228r256,0r0,-228r117,0r0,228r221,0r0,102r-221,0r0,264r221,0r0,117xm594,-711r0,-264r-256,0r0,264r256,0"},"$":{"d":"397,16v-218,-29,-355,-154,-397,-358r129,-33v33,137,117,247,268,271r0,-527v-141,-54,-273,-106,-331,-235v-31,-70,-31,-175,2,-247v55,-121,168,-196,329,-214r0,-164r138,0r0,164v156,23,264,114,322,235v19,40,30,80,34,121r-143,25v-19,-120,-90,-233,-213,-254r0,471v121,45,211,98,273,155v87,80,119,234,66,362v-53,128,-172,211,-339,228r0,170r-138,0r0,-170xm535,-104v137,-16,215,-95,215,-224v0,-57,-18,-106,-54,-146v-36,-40,-90,-77,-161,-108r0,478xm196,-1061v-29,75,-8,148,46,195v38,34,90,64,155,90r0,-426v-98,15,-171,63,-201,141"},"%":{"d":"408,-1252v57,51,99,175,54,276v-38,86,-115,155,-233,155v-116,0,-193,-69,-230,-155v-44,-100,-1,-223,53,-276v58,-57,178,-100,275,-54v31,14,57,33,81,54xm932,-1272r-836,1299r-94,-60r838,-1302xm940,-327v27,60,27,137,0,196v-39,85,-114,154,-233,154v-119,0,-192,-67,-231,-153v-27,-60,-27,-137,0,-197v39,-86,112,-152,231,-152v117,0,194,67,233,152xm229,-922v83,0,150,-69,150,-151v0,-83,-67,-152,-150,-152v-82,0,-149,69,-149,152v0,82,67,151,149,151xm707,-78v82,0,151,-69,151,-151v0,-83,-69,-150,-151,-150v-83,0,-150,67,-150,150v0,82,67,151,150,151"},"&":{"d":"700,-317v59,-79,100,-177,125,-281r131,33v-27,127,-86,245,-157,338r157,147r-94,107r-157,-154v-90,78,-203,150,-359,150v-171,0,-283,-96,-341,-217v-20,-43,-30,-89,-30,-140v0,-173,77,-272,175,-348v-68,-88,-127,-177,-130,-309v-4,-201,130,-338,328,-336v148,2,252,67,300,171v34,73,30,190,-7,257v-64,116,-191,172,-301,244xm123,-334v0,126,96,227,223,225v114,-2,202,-49,266,-108r-374,-365v-65,59,-115,127,-115,248xm530,-1036v0,-130,-141,-203,-260,-150v-94,43,-132,174,-90,302v13,39,36,84,74,134v92,-55,199,-102,252,-193v16,-27,24,-58,24,-93"},"'":{"d":"559,-1305r-43,469r-102,0r-41,-469r186,0"},"(":{"d":"633,371v-202,-159,-348,-383,-415,-671v-40,-175,-40,-359,0,-534v67,-286,214,-511,415,-669r72,90v-179,145,-313,347,-373,606v-59,252,-10,531,78,709v73,147,169,282,295,379"},")":{"d":"630,-1086v98,198,155,507,88,787v-68,285,-216,511,-417,670r-72,-90v179,-145,314,-349,375,-607v59,-253,11,-532,-78,-710v-73,-147,-173,-278,-297,-377r72,-90v139,108,248,254,329,417"},"*":{"d":"897,-1024r-342,184r342,189r-55,94r-332,-203r14,387r-116,0r14,-387r-332,203r-55,-94r342,-189r-342,-184r55,-96r332,205r-14,-390r116,0r-14,390r332,-205"},"+":{"d":"932,-606r-408,0r0,407r-116,0r0,-407r-408,0r0,-117r408,0r0,-407r116,0r0,407r408,0r0,117"},",":{"d":"610,-186r-274,559r-96,0r186,-559r184,0"},"-":{"d":"745,-420r-559,0r0,-117r559,0r0,117"},".":{"d":"559,0r-186,0r0,-186r186,0r0,186"},"\/":{"d":"905,-1303r-766,1543r-98,-52r766,-1542"},"0":{"d":"750,-1024v-57,-105,-138,-186,-283,-186v-117,0,-204,52,-269,150v-98,149,-121,465,-59,681xm186,-268v66,117,160,176,281,176v115,0,201,-52,267,-150v97,-144,121,-458,61,-669xm80,-183v-108,-161,-143,-471,-85,-721v38,-163,115,-290,241,-366v122,-73,340,-73,462,0v184,109,269,333,269,619v0,284,-84,508,-267,617v-122,72,-345,74,-466,0v-63,-39,-113,-88,-154,-149"},"1":{"d":"745,0r-559,0r0,-117r211,0r0,-891v-50,104,-151,191,-265,237v-42,17,-87,26,-132,26r0,-142v103,-4,198,-73,260,-135v66,-66,135,-166,137,-283r138,0r0,1188r210,0r0,117"},"2":{"d":"10,-856v-1,-293,164,-475,459,-471v185,2,317,80,381,207v49,96,41,252,-10,337v-45,75,-97,135,-166,205r-455,461r551,0r0,-256r117,0r0,373r-848,0r0,-121r508,-516v68,-71,145,-141,182,-240v11,-29,16,-59,16,-90v4,-158,-122,-243,-276,-243v-222,0,-333,129,-332,354r-127,0"},"3":{"d":"895,-967v0,160,-106,256,-256,277v138,19,223,100,263,215v30,89,22,194,-17,271v-67,132,-198,227,-389,227v-208,0,-349,-86,-422,-228v-26,-51,-42,-109,-47,-174r133,-18v11,191,144,303,336,303v132,0,219,-68,264,-159v32,-66,26,-177,-4,-237v-54,-109,-188,-128,-355,-128r0,-117v144,-1,267,-33,326,-120v21,-29,31,-67,31,-112v2,-147,-113,-245,-262,-243v-200,2,-326,106,-322,317r-129,0v3,-215,106,-346,267,-405v99,-36,237,-40,340,-4v139,49,243,151,243,335"},"4":{"d":"932,0r-559,0r0,-117r211,0r0,-256r-584,0r0,-119r547,-813r174,0r0,813r211,0r0,119r-211,0r0,256r211,0r0,117xm584,-492r0,-651r-439,651r439,0"},"5":{"d":"186,-780v69,-68,170,-121,293,-121v220,0,360,108,425,270v44,111,47,263,-2,373v-72,162,-214,281,-441,281v-206,0,-342,-94,-412,-236v-25,-51,-40,-109,-45,-174r133,-21v14,143,86,243,199,290v79,33,192,31,268,-2v117,-51,197,-157,197,-318v0,-162,-77,-270,-195,-320v-42,-18,-88,-26,-139,-26v-123,2,-220,56,-281,131r-137,0r0,-652r817,0r0,117r-680,0r0,408"},"6":{"d":"924,-633v47,112,45,273,-2,383v-69,163,-214,270,-437,273v-191,3,-310,-87,-385,-206v-108,-170,-141,-485,-74,-723v46,-162,139,-294,276,-366v69,-37,150,-55,243,-55v129,0,237,45,323,135r-90,80v-60,-65,-138,-98,-233,-98v-230,0,-348,137,-399,324v-18,67,-27,140,-27,220v36,-114,139,-189,253,-226v176,-57,366,18,456,112v40,42,73,90,96,147xm796,-299v32,-84,33,-197,2,-283v-45,-125,-141,-213,-306,-213v-164,0,-269,82,-318,201v-33,80,-31,191,-4,276v42,132,141,224,315,224v163,0,264,-82,311,-205"},"7":{"d":"920,-1184v-206,221,-330,459,-365,832v-9,106,-15,223,-16,352r-144,0v3,-380,58,-685,201,-930v52,-88,115,-175,192,-258r-622,0r0,256r-117,0r0,-373r871,0r0,121"},"8":{"d":"922,-474v36,91,21,207,-17,282v-72,142,-228,215,-438,215v-211,0,-366,-73,-438,-215v-38,-75,-51,-191,-17,-282v41,-110,127,-198,260,-216v-77,-8,-133,-56,-170,-106v-33,-45,-63,-108,-63,-177v0,-189,117,-285,266,-331v163,-49,363,-9,461,66v89,67,162,208,112,355v-23,66,-63,120,-119,157v-29,20,-63,32,-100,36v134,18,220,107,263,216xm467,-748v171,0,291,-72,291,-225v0,-156,-125,-237,-291,-237v-166,0,-291,81,-291,237v0,153,120,225,291,225xm778,-246v36,-65,36,-178,0,-242v-54,-96,-165,-143,-311,-143v-146,0,-258,47,-311,143v-36,64,-36,177,0,242v54,97,163,152,311,152v148,0,257,-55,311,-152"},"9":{"d":"158,-193v53,60,129,99,233,99v149,0,251,-63,319,-152v72,-93,107,-230,107,-393v-39,113,-139,190,-255,227v-177,57,-363,-18,-454,-112v-75,-77,-131,-191,-131,-336v0,-230,117,-368,286,-434v130,-50,313,-40,420,24v182,109,261,333,261,617v0,294,-114,516,-312,621v-70,37,-150,55,-241,55v-129,0,-237,-45,-323,-136xm140,-1006v-32,83,-33,198,-2,284v45,125,141,212,306,212v163,0,270,-80,318,-200v33,-81,32,-192,4,-278v-43,-132,-140,-222,-315,-222v-163,0,-264,82,-311,204"},":":{"d":"559,-745r-186,0r0,-187r186,0r0,187xm559,0r-186,0r0,-186r186,0r0,186"},";":{"d":"559,-745r-186,0r0,-187r186,0r0,187xm610,-186r-274,559r-96,0r186,-559r184,0"},"<":{"d":"788,-231r-77,79r-512,-512r512,-512r77,80r-432,432"},"=":{"d":"932,-825r-932,0r0,-119r932,0r0,119xm932,-385r-932,0r0,-117r932,0r0,117"},">":{"d":"733,-664r-512,512r-78,-79r432,-433r-432,-432r78,-80"},"?":{"d":"559,0r-186,0r0,-186r186,0r0,186xm557,-1327v205,0,351,115,352,305v0,111,-47,182,-100,244v-82,96,-201,164,-260,282v-19,36,-29,77,-29,123r-145,0v0,-113,50,-186,102,-253v79,-102,198,-177,263,-290v20,-33,30,-68,30,-106v0,-123,-81,-190,-211,-188v-171,4,-249,108,-268,264r-123,-19v23,-217,150,-362,389,-362"},"@":{"d":"467,-37v123,0,218,-45,281,-117r43,48v-85,86,-193,129,-324,129v-190,1,-309,-89,-387,-206v-149,-224,-149,-714,0,-938v78,-117,197,-206,387,-206v188,0,309,90,386,206v76,115,114,286,114,470v0,132,-31,261,-106,325v-27,24,-59,35,-97,35v-68,1,-124,-67,-121,-141r0,-49v-48,127,-127,190,-237,190v-97,1,-159,-47,-199,-106v-60,-87,-78,-251,-39,-375v42,-131,132,-232,299,-232v55,0,113,24,176,72r0,-53r102,0r0,553v-3,63,68,54,93,18v73,-106,64,-312,36,-464v-27,-149,-95,-264,-202,-336v-104,-70,-306,-68,-411,0v-158,103,-222,308,-222,563v0,193,37,343,111,451v74,108,179,163,317,163xm643,-829v-60,-62,-119,-93,-176,-93v-83,0,-132,43,-168,93v-61,87,-66,290,-7,377v28,43,66,65,114,65v173,0,232,-141,237,-313r0,-129"},"A":{"d":"995,0r-147,0r-123,-373r-516,0r-121,373r-147,0r434,-1305r186,0xm686,-494r-219,-673r-219,673r438,0"},"B":{"d":"930,-373v-1,265,-187,374,-465,373r-416,0r0,-1305r393,0v117,1,226,17,302,64v84,52,141,135,141,274v0,135,-68,228,-203,277v165,51,248,156,248,317xm720,-854v37,-54,35,-171,-1,-226v-51,-78,-154,-108,-277,-108r-256,0r0,443v163,-6,351,22,463,-41v29,-16,52,-40,71,-68xm465,-117v190,1,328,-76,328,-256v1,-189,-135,-257,-328,-258r-279,0r0,514r279,0"},"C":{"d":"481,-1327v164,0,282,59,334,174r0,-152r117,0r0,428r-117,0v-5,-156,-90,-258,-205,-307v-97,-42,-228,-29,-304,24v-171,121,-220,428,-172,706v23,133,80,244,172,310v46,34,104,50,175,50v163,0,276,-98,340,-295r119,47v-62,205,-206,364,-459,365v-191,1,-308,-90,-387,-206v-151,-223,-150,-714,0,-937v79,-118,196,-208,387,-207"},"D":{"d":"946,-900v38,155,39,342,2,498v-37,158,-117,282,-244,350v-64,35,-141,52,-231,52r-424,0r0,-1305r424,0v185,-1,308,84,385,197v40,60,69,129,88,208xm838,-651v0,-171,-32,-303,-96,-397v-64,-94,-154,-140,-269,-140r-287,0r0,1071r287,0v115,0,205,-46,269,-139v64,-93,96,-224,96,-395"},"E":{"d":"883,0r-834,0r0,-1305r834,0r0,117r-697,0r0,467r514,0r0,117r-514,0r0,487r697,0r0,117"},"F":{"d":"883,-1188r-697,0r0,467r514,0r0,117r-514,0r0,604r-137,0r0,-1305r834,0r0,117"},"G":{"d":"481,-1327v164,0,282,59,334,174r0,-152r117,0r0,428r-117,0v-4,-158,-89,-258,-205,-307v-97,-42,-228,-29,-304,24v-171,121,-220,428,-172,706v23,133,80,244,172,310v46,34,104,50,175,50v105,0,188,-41,249,-122v61,-81,97,-196,108,-343r-289,0r0,-117r434,0v3,299,-80,532,-271,644v-122,72,-342,70,-463,-2v-183,-109,-269,-331,-269,-617v0,-285,85,-512,269,-619v64,-37,141,-57,232,-57"},"H":{"d":"883,0r-138,0r0,-604r-559,0r0,604r-137,0r0,-1305r137,0r0,584r559,0r0,-584r138,0r0,1305"},"I":{"d":"745,0r-559,0r0,-117r211,0r0,-1071r-211,0r0,-117r559,0r0,117r-210,0r0,1071r210,0r0,117"},"J":{"d":"883,-498v0,314,-125,521,-428,521v-255,0,-402,-144,-457,-365r119,-45v29,108,73,182,128,227v85,70,259,90,359,29v106,-65,140,-202,141,-367r0,-807r138,0r0,807"},"K":{"d":"926,0r-168,0r-434,-639r-138,154r0,485r-137,0r0,-1305r137,0r0,635r559,-635r181,0r-512,570"},"L":{"d":"883,0r-834,0r0,-1305r137,0r0,1188r697,0r0,117"},"M":{"d":"883,0r-138,0r0,-1087r-231,673r-98,0r-230,-673r0,1087r-137,0r0,-1305r178,0r238,682r240,-682r178,0r0,1305"},"N":{"d":"883,0r-170,0r-527,-1104r0,1104r-137,0r0,-1305r193,0r503,1053r0,-1053r138,0r0,1305"},"O":{"d":"852,-1120v107,162,145,469,88,722v-37,163,-114,288,-240,364v-121,73,-344,72,-466,0v-183,-109,-267,-331,-267,-617v0,-286,86,-510,269,-619v122,-72,341,-74,462,0v63,39,113,88,154,150xm755,-274v107,-198,95,-611,-21,-786v-57,-86,-137,-149,-267,-150v-150,-1,-234,80,-288,181v-77,145,-92,374,-59,575v23,134,80,243,170,310v88,65,266,66,353,0v46,-35,84,-77,112,-130"},"P":{"d":"479,-1305v271,-1,451,112,451,373v0,263,-179,373,-449,373r-295,0r0,559r-137,0r0,-1305r430,0xm481,-676v184,-1,312,-72,312,-256v0,-184,-129,-256,-312,-256r-295,0r0,512r295,0"},"Q":{"d":"932,367r-107,4v-274,-1,-402,-113,-434,-355v-234,-33,-351,-201,-399,-422v-53,-248,-19,-557,88,-714v79,-116,198,-207,387,-207v188,0,308,90,385,207v144,217,154,685,16,916v-69,115,-176,206,-340,222v31,172,105,233,297,236v23,0,43,0,59,-1v16,-1,33,-2,48,-3r0,117xm734,-242v117,-174,127,-584,20,-787v-52,-100,-140,-181,-287,-181v-150,0,-234,80,-288,181v-108,201,-97,614,19,787v65,97,153,148,269,148v115,0,201,-51,267,-148"},"R":{"d":"479,-1305v271,-1,451,112,451,373v0,178,-98,279,-228,333v-46,19,-96,30,-151,34r393,565r-174,0r-381,-559r-203,0r0,559r-137,0r0,-1305r430,0xm479,-676v186,-1,309,-71,309,-256v0,-183,-124,-255,-309,-256r-293,0r0,512r293,0"},"S":{"d":"444,-1327v139,0,249,60,301,158r0,-136r121,0r0,373r-121,0v-4,-135,-86,-215,-187,-256v-96,-40,-234,-22,-299,28v-46,35,-79,90,-79,169v1,77,42,119,94,151v191,117,479,140,588,340v45,83,49,221,3,308v-66,125,-193,215,-376,215v-156,0,-284,-62,-348,-162r0,139r-116,0r0,-397r116,0v0,98,54,169,110,218v75,65,221,112,345,69v94,-32,166,-100,166,-222v0,-91,-46,-144,-102,-185v-62,-45,-145,-69,-222,-99v-94,-36,-197,-65,-269,-122v-71,-55,-127,-128,-126,-253v0,-114,56,-195,123,-248v66,-53,166,-88,278,-88"},"T":{"d":"932,-864r-117,0r0,-324r-280,0r0,1071r210,0r0,117r-559,0r0,-117r211,0r0,-1071r-280,0r0,324r-117,0r0,-441r932,0r0,441"},"U":{"d":"465,23v-297,-3,-416,-193,-416,-490r0,-838r137,0r0,840v1,90,15,183,52,245v43,71,110,126,227,126v116,0,186,-55,229,-126v37,-62,51,-155,51,-245r0,-840r138,0r0,840v0,226,-73,384,-231,453v-53,23,-115,35,-187,35"},"V":{"d":"995,-1305r-436,1305r-186,0r-432,-1305r145,0r381,1166r379,-1166r149,0"},"W":{"d":"995,-1305r-235,1305r-162,0r-133,-637r-135,637r-160,0r-233,-1305r145,0r184,1074r131,-701r135,0r132,701r184,-1074r147,0"},"X":{"d":"954,0r-370,0r0,-117r88,0r-205,-428r-207,428r88,0r0,117r-371,0r0,-117r127,0r283,-540r-278,-531r-109,0r0,-117r373,0r0,117r-109,0r203,418r197,-418r-105,0r0,-117r373,0r0,117r-113,0r-272,531r280,540r127,0r0,117"},"Y":{"d":"952,-1188r-106,0r-311,625r0,446r210,0r0,117r-559,0r0,-117r211,0r0,-446r-311,-625r-106,0r0,-117r368,0r0,117r-108,0r227,492r225,-492r-108,0r0,-117r368,0r0,117"},"Z":{"d":"887,0r-838,0r0,-117r656,-1071r-539,0r0,320r-117,0r0,-437r817,0r0,117r-649,1071r553,0r0,-325r117,0r0,442"},"[":{"d":"745,373r-372,0r0,-1864r372,0r0,111r-262,0r0,1640r262,0r0,113"},"\\":{"d":"997,188r-98,52r-766,-1543r98,-51"},"]":{"d":"559,373r-373,0r0,-113r263,0r0,-1640r-263,0r0,-111r373,0r0,1864"},"^":{"d":"748,-559r-97,0r-184,-498r-182,498r-97,0r187,-746r184,0"},"_":{"d":"1118,186r-1118,0r0,-110r1118,0r0,110"},"`":{"d":"700,-1077r-41,65r-430,-243r66,-109"},"a":{"d":"745,-156v-82,100,-203,179,-372,179v-123,0,-217,-24,-280,-71v-63,-47,-95,-115,-95,-204v0,-125,73,-198,160,-242v144,-72,393,-77,587,-49v1,-72,0,-136,-29,-179v-48,-71,-136,-114,-243,-116v-148,-3,-260,45,-356,103r-62,-103v135,-85,359,-152,567,-96v149,40,261,136,261,324r0,610r-138,0r0,-156xm745,-430v-211,-23,-477,-29,-579,89v-21,24,-31,54,-31,89v0,39,20,74,57,108v63,58,240,61,336,24v82,-31,148,-81,190,-144v34,-51,26,-94,27,-166"},"b":{"d":"186,-846v71,-59,158,-108,275,-108v231,0,373,119,438,292v44,118,44,277,0,394v-66,173,-206,291,-438,291v-118,0,-205,-45,-275,-107r0,84r-137,0r0,-1305r137,0r0,459xm186,-215v69,75,149,121,275,121v172,0,267,-95,311,-226v29,-88,28,-204,0,-292v-42,-133,-140,-226,-311,-226v-105,0,-197,42,-275,125r0,498"},"c":{"d":"492,-94v141,1,255,-63,309,-150r96,66v-76,118,-213,203,-405,201v-235,-2,-385,-119,-456,-290v-48,-115,-47,-277,-3,-395v65,-175,208,-292,440,-292v104,0,188,39,245,90v21,19,37,41,48,67r0,-135r123,0r0,373r-123,0v-3,-136,-76,-219,-177,-259v-80,-31,-192,-25,-263,9v-120,56,-189,172,-189,344v0,175,83,287,207,342v44,19,93,29,148,29"},"d":{"d":"471,-954v115,0,207,44,274,106r0,-340r-186,0r0,-117r324,0r0,1305r-138,0r0,-86v-68,62,-158,109,-274,109v-234,0,-376,-116,-441,-291v-43,-117,-43,-276,0,-394v65,-176,206,-292,441,-292xm745,-715v-68,-75,-151,-123,-276,-123v-172,0,-269,94,-313,226v-29,88,-29,206,0,294v44,132,141,226,313,226v105,0,197,-42,276,-125r0,-498"},"e":{"d":"893,-178v-90,123,-203,201,-406,201v-234,0,-384,-120,-455,-290v-48,-114,-48,-275,-4,-393v65,-174,208,-292,441,-294v164,-2,280,60,357,150v77,90,116,223,116,386r-805,0v17,189,147,324,350,324v138,0,257,-67,310,-150xm797,-535v-25,-185,-137,-303,-328,-303v-150,0,-239,78,-293,180v-19,38,-32,78,-37,123r658,0"},"f":{"d":"932,-1200v-44,-6,-82,-10,-135,-10v-181,2,-262,90,-262,278r397,0r0,117r-397,0r0,698r210,0r0,117r-559,0r0,-117r211,0r0,-698r-211,0r0,-117r211,0v1,-259,136,-396,400,-395v53,0,95,3,135,10r0,117"},"g":{"d":"467,-954v117,2,210,44,278,106r0,-84r138,0r0,922v-2,205,-110,324,-265,378v-127,44,-311,33,-416,-25v-64,-36,-122,-85,-169,-150r96,-74v55,84,170,153,309,153v184,0,309,-96,307,-278r0,-100v-81,72,-174,108,-278,108v-288,0,-472,-180,-469,-467v3,-230,107,-382,273,-453v58,-24,123,-36,196,-36xm467,-115v125,-3,211,-49,278,-125r0,-475v-67,-76,-153,-123,-278,-123v-172,0,-268,93,-311,226v-14,46,-21,95,-21,147v0,213,113,353,332,350"},"h":{"d":"745,-575v-1,-164,-65,-264,-229,-263v-112,1,-191,59,-242,128v-53,71,-87,174,-88,292r0,418r-137,0r0,-1305r137,0r0,607v66,-171,184,-256,353,-256v229,0,344,126,344,379r0,575r-138,0r0,-575"},"i":{"d":"559,-1118r-186,0r0,-187r186,0r0,187xm745,0r-559,0r0,-117r211,0r0,-698r-211,0r0,-117r349,0r0,815r210,0r0,117"},"j":{"d":"745,-1118r-186,0r0,-187r186,0r0,187xm721,0v0,239,-130,395,-373,395v-164,0,-279,-67,-344,-202r105,-72v44,92,112,157,239,158v176,2,236,-104,236,-279r0,-815r-211,0r0,-117r348,0r0,932"},"k":{"d":"930,0r-195,0r-381,-418r-168,154r0,264r-137,0r0,-1305r137,0r0,875r531,-502r196,0r-467,428"},"l":{"d":"745,0r-559,0r0,-117r211,0r0,-1071r-211,0r0,-117r349,0r0,1188r210,0r0,117"},"m":{"d":"702,-954v170,2,230,105,230,284r0,670r-137,0r0,-670v0,-93,-28,-168,-109,-168v-52,0,-90,27,-114,82v-24,55,-37,131,-37,230r0,526r-138,0r0,-670v0,-93,-29,-168,-110,-168v-71,0,-102,49,-123,103v-22,56,-26,134,-27,209r0,526r-137,0r0,-932r137,0r0,135v29,-105,91,-157,187,-157v91,0,153,46,186,137v45,-91,109,-137,192,-137"},"n":{"d":"745,-575v-1,-164,-65,-264,-229,-263v-112,1,-191,59,-242,128v-53,71,-87,174,-88,292r0,418r-137,0r0,-932r137,0r0,234v66,-171,184,-256,353,-256v229,0,344,126,344,379r0,575r-138,0r0,-575"},"o":{"d":"922,-660v45,119,46,279,0,395v-46,119,-136,204,-254,252v-117,47,-283,48,-400,0v-172,-70,-288,-214,-288,-450v0,-234,116,-385,288,-455v117,-48,284,-48,400,0v119,49,208,136,254,258xm796,-316v31,-88,31,-206,0,-294v-48,-132,-154,-228,-329,-228v-175,0,-279,96,-327,228v-31,88,-31,206,0,294v47,131,153,222,327,222v174,0,281,-91,329,-222"},"p":{"d":"459,23v-116,0,-204,-46,-273,-107r0,457r-137,0r0,-1305r137,0r0,86v85,-72,176,-108,273,-108v233,0,373,119,439,292v46,117,45,279,0,395v-67,171,-207,290,-439,290xm186,-215v69,75,147,121,273,121v172,0,271,-94,315,-226v29,-88,29,-203,0,-292v-29,-92,-87,-159,-170,-197v-42,-19,-90,-29,-145,-29v-125,0,-204,48,-273,123r0,500"},"q":{"d":"745,-84v-68,62,-156,107,-272,107v-232,0,-372,-119,-439,-290v-45,-116,-46,-278,0,-395v66,-174,205,-292,439,-292v97,0,187,36,272,108r0,-86r138,0r0,1305r-138,0r0,-457xm745,-715v-68,-75,-147,-123,-272,-123v-172,0,-271,93,-315,226v-29,89,-29,204,0,292v44,132,143,226,315,226v125,0,204,-46,272,-121r0,-500"},"r":{"d":"881,-801v-89,-45,-236,-52,-326,-1v-123,69,-207,200,-207,384r0,301r211,0r0,117r-559,0r0,-117r211,0r0,-698r-211,0r0,-117r348,0r0,234v73,-209,239,-285,480,-247v35,6,68,17,98,32"},"s":{"d":"801,-737v-112,-82,-254,-117,-435,-93v-70,9,-133,36,-174,74v-36,33,-42,103,-4,136v62,55,177,66,283,81v155,24,319,48,397,149v51,65,49,202,-2,268v-117,153,-429,177,-658,108v-84,-25,-157,-57,-218,-97r61,-118v120,74,238,135,410,135v206,0,309,-53,309,-160v0,-60,-44,-88,-94,-104v-200,-66,-496,-38,-612,-192v-47,-62,-52,-186,-4,-253v74,-104,224,-150,401,-151v168,0,293,41,395,110"},"t":{"d":"578,-94v138,2,239,-100,249,-228r115,25v-17,188,-162,322,-364,320v-176,-2,-288,-87,-340,-217v-18,-45,-27,-95,-27,-148r0,-473r-211,0r0,-117r211,0r0,-373r137,0r0,373r397,0r0,117r-397,0r0,473v2,113,55,190,134,228v28,13,60,20,96,20"},"u":{"d":"186,-356v1,164,66,263,230,262v112,-1,190,-59,241,-128v53,-71,87,-174,88,-292r0,-418r138,0r0,932r-138,0r0,-233v-65,171,-183,256,-352,256v-229,0,-344,-126,-344,-379r0,-576r137,0r0,576"},"v":{"d":"963,-932r-404,932r-184,0r-406,-932r164,0r334,817r332,-817r164,0"},"w":{"d":"963,-932r-189,932r-160,0r-149,-684r-141,684r-160,0r-191,-932r146,0r135,746r145,-746r136,0r149,746r135,-746r144,0"},"x":{"d":"954,0r-385,0r0,-121r82,0r-184,-270r-182,270r75,0r0,121r-380,0r0,-121r145,0r256,-352r-246,-336r-135,0r0,-123r383,0r0,123r-86,0r170,254r172,-254r-94,0r0,-123r387,0r0,123r-131,0r-246,336r256,352r143,0r0,121"},"y":{"d":"25,242v48,21,109,37,165,37v45,0,77,-11,94,-33v45,-59,69,-146,101,-219r-416,-959r162,0r336,815r330,-815r164,0r-504,1168v-43,117,-129,159,-267,159v-64,0,-128,-12,-192,-35"},"z":{"d":"887,0r-840,0r0,-117r635,-698r-516,0r0,256r-117,0r0,-373r815,0r0,117r-635,698r541,0r0,-256r117,0r0,373"},"{":{"d":"743,373v-78,0,-148,4,-205,-21v-98,-43,-165,-127,-165,-262r0,-424v0,-112,-62,-168,-187,-168r0,-112v125,0,187,-56,187,-168r0,-430v2,-134,67,-217,165,-258v57,-24,128,-21,205,-21r0,111r-92,0v-113,0,-170,56,-170,168r0,430v-4,88,-48,155,-103,196v-21,16,-44,25,-69,29v81,16,132,80,159,151v9,24,13,49,13,72r0,424v0,113,57,170,170,170r92,0r0,113"},"|":{"d":"535,186r-138,0r0,-1677r138,0r0,1677"},"}":{"d":"743,-502v-123,0,-184,56,-184,168r0,426v-2,135,-71,218,-168,260v-57,24,-128,21,-205,21r0,-113r93,0v111,0,167,-56,167,-168r0,-426v4,-88,49,-157,106,-196v21,-14,44,-23,69,-27v-81,-19,-134,-80,-161,-154v-9,-25,-14,-48,-14,-71r0,-430v0,-112,-56,-168,-167,-168r-93,0r0,-111v78,0,148,-4,205,21v96,43,168,124,168,258r0,430v0,112,61,168,184,168r0,112"},"~":{"d":"592,-582v30,32,91,30,122,0v61,-59,71,-176,87,-286r135,14v-13,171,-61,315,-170,389v-59,40,-155,42,-218,9v-104,-54,-130,-188,-208,-266v-32,-32,-90,-31,-122,0v-61,60,-72,174,-87,284r-135,-15v13,-169,62,-316,169,-389v57,-39,157,-40,219,-8v105,54,133,187,208,268"},"\u00a0":{},"\u00a1":{"d":"561,0r51,-938r82,0r51,938r-184,0xm559,-1305r186,0r0,187r-186,0r0,-187"},"\u00a2":{"d":"905,-362v-74,111,-197,190,-370,200r0,162r-138,0r0,-170v-227,-39,-391,-219,-389,-481v2,-207,95,-344,230,-422v48,-27,100,-46,159,-57r0,-175r138,0r0,166v173,7,296,89,370,199r-96,66v-53,-80,-150,-141,-274,-148r0,743v124,-10,221,-67,274,-149xm397,-1010v-154,36,-252,176,-252,359v0,184,99,322,252,360r0,-719"},"\u00a3":{"d":"979,-281v-78,176,-253,281,-492,281r-438,0r0,-117v46,-1,91,3,120,-17v41,-29,67,-80,67,-145r0,-315r-187,0r0,-117r187,0r0,-264v2,-164,72,-274,189,-325v66,-29,163,-38,237,-10v100,38,166,120,190,235r-125,28v-15,-60,-36,-103,-63,-127v-27,-24,-61,-36,-101,-36v-137,0,-190,94,-190,235r0,264r186,0r0,117r-186,0r0,270v1,98,-33,174,-92,207r206,0v181,0,308,-74,383,-223"},"\u00a4":{"d":"467,-1141v129,0,235,42,309,101r117,-117r80,78r-117,116v61,77,102,183,102,314v0,130,-41,235,-100,311r115,115r-80,78r-115,-113v-76,59,-181,96,-311,96v-132,0,-236,-41,-313,-100r-115,117r-78,-78r115,-117v-59,-76,-96,-179,-96,-309v0,-123,33,-227,98,-312r-117,-118r78,-78r117,119v85,-69,188,-103,311,-103xm796,-502v31,-88,31,-206,0,-294v-48,-132,-153,-228,-329,-228v-176,0,-280,96,-327,228v-31,88,-31,206,0,294v47,131,153,221,327,221v174,0,281,-90,329,-221"},"\u00a5":{"d":"932,-408r-397,0r0,408r-136,0r0,-408r-399,0r0,-120r399,0r0,-35r-108,-215r-291,0r0,-121r229,0r-204,-406r153,0r289,596r2,0r289,-596r153,0r-204,406r225,0r0,121r-287,0r-110,215r0,35r397,0r0,120"},"\u00a6":{"d":"535,186r-138,0r0,-745r138,0r0,745xm535,-745r-138,0r0,-746r138,0r0,746"},"\u00a7":{"d":"147,-211v36,178,157,281,365,281v121,0,209,-50,250,-133v37,-76,23,-188,-31,-243v-116,-116,-327,-149,-477,-234v-53,-30,-98,-67,-133,-112v-35,-45,-53,-104,-53,-177v0,-123,53,-200,135,-261v-76,-53,-137,-126,-135,-253v2,-175,108,-265,244,-309v95,-31,213,-31,310,-2v156,47,267,154,291,335r-129,21v-27,-169,-128,-261,-317,-261v-109,0,-198,41,-239,115v-16,27,-23,61,-23,101v0,49,18,88,53,118v122,105,334,140,477,229v53,33,97,72,133,120v36,48,54,111,54,188v0,113,-47,198,-115,258v65,57,117,133,115,254v-3,181,-115,286,-254,336v-159,58,-362,13,-466,-61v-88,-62,-156,-152,-182,-277xm336,-1018v-78,39,-131,89,-131,187v0,49,16,88,47,119v106,105,299,134,442,208v48,-39,90,-94,90,-172v0,-114,-71,-171,-148,-216v-87,-51,-204,-82,-300,-126"},"\u00a8":{"d":"745,-1118r-186,0r0,-187r186,0r0,187xm373,-1118r-187,0r0,-187r187,0r0,187"},"\u00a9":{"d":"346,-745v0,132,81,243,219,243v93,0,158,-33,195,-100r106,72v-64,98,-164,147,-301,147v-174,0,-283,-88,-335,-216v-35,-86,-37,-200,-2,-287v53,-128,160,-222,337,-222v137,0,237,49,301,147r-106,72v-37,-67,-102,-100,-195,-100v-136,0,-219,108,-219,244xm1077,-966v58,133,60,298,3,434v-57,136,-159,242,-294,302v-130,59,-294,61,-432,6v-137,-55,-244,-157,-305,-290v-60,-131,-62,-310,-3,-446v59,-135,163,-242,298,-301v133,-57,300,-58,434,-1v136,58,240,160,299,296xm1018,-549v52,-118,52,-267,0,-385v-52,-120,-143,-212,-262,-265v-118,-53,-267,-53,-385,-1v-119,52,-214,142,-265,262v-51,118,-51,271,0,389v51,119,143,211,263,261v118,50,267,50,385,0v120,-51,213,-142,264,-261"},"\u00aa":{"d":"35,-1235v120,-92,413,-126,562,-31v57,38,103,94,103,187r0,520r-141,0r0,-111v-100,111,-233,155,-397,115v-67,-16,-119,-58,-148,-112v-34,-62,-26,-157,12,-211v80,-113,261,-148,458,-136r75,10v-1,-52,6,-105,-19,-136v-34,-42,-96,-66,-167,-66v-127,0,-203,24,-283,80xm133,-760v0,69,61,104,141,103v120,-1,213,-42,266,-107v28,-35,16,-75,19,-129v-120,-18,-264,-16,-351,23v-50,22,-75,59,-75,110xm700,-256r-700,0r0,-117r700,0r0,117"},"\u00ab":{"d":"788,-229r-77,79r-326,-327r326,-330r77,80r-245,250xm418,-229r-80,79r-324,-327r324,-330r80,80r-248,250"},"\u00ac":{"d":"932,-186r-113,0r0,-447r-819,0r0,-112r932,0r0,559"},"\u00ad":{"d":"932,-606r-932,0r0,-117r932,0r0,117"},"\u00ae":{"d":"1073,-1153v58,132,60,298,3,433v-57,136,-157,241,-292,301v-130,59,-294,61,-432,6v-137,-55,-244,-156,-305,-289v-60,-131,-63,-311,-3,-447v59,-135,163,-239,298,-298v132,-57,299,-58,432,-2v134,57,240,163,299,296xm1014,-737v51,-116,52,-266,1,-384v-51,-119,-143,-213,-261,-265v-117,-52,-266,-52,-385,-2v-120,50,-214,143,-265,262v-51,118,-51,271,0,389v51,119,142,211,262,261v118,50,267,51,386,0v120,-51,211,-142,262,-261xm854,-1055v-1,115,-77,203,-192,211r204,248r-186,0r-174,-242r-35,0r0,242r-143,0r0,-676r268,0v113,1,199,45,238,122v14,27,20,58,20,95xm596,-948v69,2,117,-42,117,-107v0,-65,-45,-108,-117,-108r-125,0r0,215r125,0"},"\u00af":{"d":"745,-1106r-559,0r0,-113r559,0r0,113"},"\u00b0":{"d":"30,-972v-39,-89,-39,-200,0,-290v39,-91,108,-161,198,-200v89,-39,200,-39,290,0v91,40,159,109,198,200v39,90,39,201,0,290v-39,90,-108,157,-198,197v-90,40,-201,40,-290,0v-89,-40,-159,-107,-198,-197xm114,-1227v-29,66,-29,153,0,219v43,95,126,170,259,170v131,0,217,-75,259,-170v29,-66,29,-153,0,-219v-42,-96,-127,-172,-259,-172v-134,0,-216,76,-259,172"},"\u00b1":{"d":"932,-608r-410,0r0,422r-112,0r0,-422r-410,0r0,-113r410,0r0,-409r112,0r0,409r410,0r0,113xm932,0r-932,0r0,-113r932,0r0,113"},"\u00b2":{"d":"244,-1317v110,0,206,68,205,166v0,37,-13,69,-33,100v-20,31,-97,101,-136,137r-79,78r147,0r0,-73r98,0r0,164r-405,0r0,-78r252,-240v31,-31,47,-61,47,-88v1,-49,-46,-72,-96,-72v-77,0,-115,46,-115,138r-102,0v0,-155,72,-232,217,-232"},"\u00b3":{"d":"227,-1315v112,0,196,61,197,164v0,51,-22,88,-66,111v51,35,76,79,76,131v0,98,-97,176,-207,176v-136,0,-212,-68,-229,-203r106,-14v10,82,51,123,123,123v49,0,99,-37,99,-82v0,-37,-11,-59,-33,-66v-11,-7,-39,-10,-84,-10r0,-100v71,0,106,-22,106,-66v0,-49,-29,-74,-88,-74v-75,0,-112,41,-112,123r-105,0v0,-71,21,-125,64,-162v41,-35,93,-51,153,-51"},"\u00b4":{"d":"711,-1255r-432,243r-37,-65r403,-287"},"\u00b5":{"d":"186,-358v1,164,66,265,230,264v112,-1,190,-59,241,-128v53,-71,87,-174,88,-292r0,-418r138,0r0,932r-138,0r0,-236v-64,173,-181,259,-352,259v-82,0,-151,-19,-207,-56r0,406r-137,0r0,-1305r137,0r0,574"},"\u00b6":{"d":"907,0r-137,0r0,-559r-235,0r0,559r-138,0r0,-567v-244,-26,-366,-148,-366,-365v0,-249,166,-373,499,-373r377,0r0,1305xm770,-682r0,-506r-235,0r0,506r235,0xm397,-1178v-139,23,-227,96,-227,246v0,134,76,214,227,240r0,-486"},"\u00b7":{"d":"559,-385r-186,0r0,-186r186,0r0,186"},"\u00b8":{"d":"559,0v5,121,-19,209,-82,276v-59,63,-137,95,-235,95r0,-117v149,2,212,-90,202,-254r115,0"},"\u00b9":{"d":"389,-745r-289,0r0,-91r90,0r0,-290v-27,67,-93,127,-190,125r0,-99v85,-4,141,-57,172,-120v12,-25,18,-53,18,-85r109,0r0,469r90,0r0,91"},"\u00ba":{"d":"736,-1092v40,94,41,224,0,319v-58,137,-178,232,-363,232v-186,0,-304,-94,-361,-229v-39,-93,-40,-228,0,-322v57,-136,173,-233,361,-233v186,0,306,97,363,233xm119,-932v-4,158,103,277,254,275v124,-2,200,-69,237,-162v26,-67,25,-159,-2,-225v-38,-93,-111,-164,-235,-164v-124,0,-198,71,-235,164v-13,34,-19,71,-19,112xm745,-256r-745,0r0,-117r745,0r0,117"},"\u00bb":{"d":"920,-477r-328,327r-78,-77r248,-250r-248,-250r78,-78xm545,-477r-324,327r-80,-77r248,-250r-248,-250r80,-78"},"\u00bc":{"d":"932,-1272r-836,1299r-94,-60r838,-1302xm389,-745r-289,0r0,-91r90,0r0,-290v-27,67,-93,127,-190,125r0,-99v85,-4,141,-57,172,-120v12,-25,18,-53,18,-85r109,0r0,469r90,0r0,91xm932,0r-287,0r0,-90r92,0r0,-60r-250,0r0,-75r244,-334r111,0r0,317r90,0r0,92r-90,0r0,60r90,0r0,90xm737,-242r0,-159r-119,159r119,0"},"\u00bd":{"d":"932,-1272r-836,1299r-94,-60r838,-1302xm729,-571v110,0,206,68,205,165v0,37,-14,69,-33,101v-19,31,-97,100,-135,136v-23,21,-50,48,-80,79r148,0r0,-74r98,0r0,164r-406,0r0,-78r252,-239v31,-32,47,-62,47,-89v0,-48,-46,-72,-96,-71v-77,0,-115,46,-115,137r-102,0v0,-154,72,-231,217,-231xm389,-745r-289,0r0,-91r90,0r0,-290v-27,67,-93,127,-190,125r0,-99v85,-4,141,-57,172,-120v12,-25,18,-53,18,-85r109,0r0,469r90,0r0,91"},"\u00be":{"d":"227,-1315v112,0,196,61,197,164v0,51,-22,88,-66,111v51,35,76,79,76,131v0,98,-97,176,-207,176v-136,0,-212,-68,-229,-203r106,-14v10,82,51,123,123,123v49,0,99,-37,99,-82v0,-37,-11,-59,-33,-66v-11,-7,-39,-10,-84,-10r0,-100v71,0,106,-22,106,-66v0,-49,-29,-74,-88,-74v-75,0,-112,41,-112,123r-105,0v0,-71,21,-125,64,-162v41,-35,93,-51,153,-51xm932,-1272r-836,1299r-94,-60r838,-1302xm932,0r-287,0r0,-90r92,0r0,-60r-250,0r0,-75r244,-334r111,0r0,317r90,0r0,92r-90,0r0,60r90,0r0,90xm737,-242r0,-159r-119,159r119,0"},"\u00bf":{"d":"559,-1305r186,0r0,187r-186,0r0,-187xm561,23v-206,0,-351,-115,-352,-306v0,-110,48,-181,100,-243v83,-96,202,-164,261,-282v19,-36,28,-77,28,-124r145,0v0,113,-50,188,-102,254v-80,101,-197,177,-263,289v-20,33,-30,68,-30,106v0,122,82,189,211,189v171,0,248,-116,268,-264r123,18v-23,217,-150,363,-389,363"},"\u00c0":{"d":"700,-1450r-41,65r-430,-243r66,-109xm995,0r-147,0r-123,-373r-516,0r-121,373r-147,0r434,-1305r186,0xm686,-494r-219,-673r-219,673r438,0"},"\u00c1":{"d":"711,-1626r-432,243r-37,-65r403,-287xm995,0r-147,0r-123,-373r-516,0r-121,373r-147,0r434,-1305r186,0xm686,-494r-219,-673r-219,673r438,0"},"\u00c2":{"d":"764,-1452r-53,67r-242,-205r-246,207r-53,-65r297,-291xm995,0r-147,0r-123,-373r-516,0r-121,373r-147,0r434,-1305r186,0xm686,-494r-219,-673r-219,673r438,0"},"\u00c3":{"d":"846,-1600v-60,105,-142,158,-246,158v-105,0,-148,-58,-211,-98v-18,-12,-40,-19,-65,-19v-69,0,-124,37,-166,111r-80,-47v61,-104,143,-156,246,-156v105,0,148,59,210,99v18,12,40,18,66,18v68,0,123,-38,166,-113xm995,0r-147,0r-123,-373r-516,0r-121,373r-147,0r434,-1305r186,0xm686,-494r-219,-673r-219,673r438,0"},"\u00c4":{"d":"745,-1489r-186,0r0,-187r186,0r0,187xm373,-1489r-187,0r0,-187r187,0r0,187xm995,0r-147,0r-123,-373r-516,0r-121,373r-147,0r434,-1305r186,0xm686,-494r-219,-673r-219,673r438,0"},"\u00c5":{"d":"356,-1251v-63,-35,-115,-105,-114,-199v1,-107,60,-174,137,-208v54,-23,122,-23,176,0v77,34,135,102,137,208v1,93,-52,162,-114,197r417,1253r-147,0r-123,-373r-516,0r-121,373r-147,0xm686,-494r-219,-673r-219,673r438,0xm467,-1585v-71,0,-135,64,-135,135v0,71,64,135,135,135v71,0,135,-64,135,-135v0,-71,-64,-135,-135,-135"},"\u00c6":{"d":"932,0r-506,0r0,-373r-233,0r-111,373r-145,0r395,-1305r600,0r0,121r-367,0r0,457r277,0r0,121r-277,0r0,483r367,0r0,123xm426,-494r0,-659r-197,659r197,0"},"\u00c7":{"d":"481,-1327v164,0,282,59,334,174r0,-152r117,0r0,428r-117,0v-5,-156,-90,-258,-205,-307v-97,-42,-228,-29,-304,24v-171,121,-220,428,-172,706v23,133,80,244,172,310v46,34,104,50,175,50v163,0,276,-98,340,-295r119,47v-56,185,-179,329,-381,358v11,213,-117,355,-317,355r0,-117v142,1,208,-80,202,-234v-263,-19,-390,-194,-440,-426v-54,-250,-17,-556,90,-714v79,-117,196,-208,387,-207"},"\u00c8":{"d":"700,-1450r-41,65r-430,-243r66,-109xm883,0r-834,0r0,-1305r834,0r0,117r-697,0r0,467r514,0r0,117r-514,0r0,487r697,0r0,117"},"\u00c9":{"d":"711,-1626r-432,243r-37,-65r403,-287xm883,0r-834,0r0,-1305r834,0r0,117r-697,0r0,467r514,0r0,117r-514,0r0,487r697,0r0,117"},"\u00ca":{"d":"764,-1452r-53,67r-242,-205r-246,207r-53,-65r297,-291xm883,0r-834,0r0,-1305r834,0r0,117r-697,0r0,467r514,0r0,117r-514,0r0,487r697,0r0,117"},"\u00cb":{"d":"745,-1489r-186,0r0,-187r186,0r0,187xm373,-1489r-187,0r0,-187r187,0r0,187xm883,0r-834,0r0,-1305r834,0r0,117r-697,0r0,467r514,0r0,117r-514,0r0,487r697,0r0,117"},"\u00cc":{"d":"700,-1450r-41,65r-430,-243r66,-109xm745,0r-559,0r0,-117r211,0r0,-1071r-211,0r0,-117r559,0r0,117r-210,0r0,1071r210,0r0,117"},"\u00cd":{"d":"711,-1626r-432,243r-37,-65r403,-287xm745,0r-559,0r0,-117r211,0r0,-1071r-211,0r0,-117r559,0r0,117r-210,0r0,1071r210,0r0,117"},"\u00ce":{"d":"764,-1452r-53,67r-242,-205r-246,207r-53,-65r297,-291xm745,0r-559,0r0,-117r211,0r0,-1071r-211,0r0,-117r559,0r0,117r-210,0r0,1071r210,0r0,117"},"\u00cf":{"d":"745,-1489r-186,0r0,-187r186,0r0,187xm373,-1489r-187,0r0,-187r187,0r0,187xm745,0r-559,0r0,-117r211,0r0,-1071r-211,0r0,-117r559,0r0,117r-210,0r0,1071r210,0r0,117"},"\u00d0":{"d":"862,-1108v110,155,144,466,83,708v-39,157,-119,281,-247,349v-64,34,-139,51,-225,51r-424,0r0,-606r-166,0r0,-117r166,0r0,-582r424,0v189,-1,309,84,389,197xm838,-653v0,-171,-32,-302,-96,-395v-64,-93,-154,-140,-269,-140r-287,0r0,465r254,0r0,117r-254,0r0,489r287,0v115,0,205,-47,269,-140v64,-93,96,-225,96,-396"},"\u00d1":{"d":"846,-1600v-60,105,-142,158,-246,158v-105,0,-148,-58,-211,-98v-18,-12,-40,-19,-65,-19v-69,0,-124,37,-166,111r-80,-47v61,-104,143,-156,246,-156v105,0,148,59,210,99v18,12,40,18,66,18v68,0,123,-38,166,-113xm883,0r-170,0r-527,-1104r0,1104r-137,0r0,-1305r193,0r503,1053r0,-1053r138,0r0,1305"},"\u00d2":{"d":"700,-1450r-41,65r-430,-243r66,-109xm852,-1120v107,162,145,469,88,722v-37,163,-114,288,-240,364v-121,73,-344,72,-466,0v-183,-109,-267,-331,-267,-617v0,-286,86,-510,269,-619v122,-72,341,-74,462,0v63,39,113,88,154,150xm755,-274v107,-198,95,-611,-21,-786v-57,-86,-137,-149,-267,-150v-150,-1,-234,80,-288,181v-77,145,-92,374,-59,575v23,134,80,243,170,310v88,65,266,66,353,0v46,-35,84,-77,112,-130"},"\u00d3":{"d":"711,-1626r-432,243r-37,-65r403,-287xm852,-1120v107,162,145,469,88,722v-37,163,-114,288,-240,364v-121,73,-344,72,-466,0v-183,-109,-267,-331,-267,-617v0,-286,86,-510,269,-619v122,-72,341,-74,462,0v63,39,113,88,154,150xm755,-274v107,-198,95,-611,-21,-786v-57,-86,-137,-149,-267,-150v-150,-1,-234,80,-288,181v-77,145,-92,374,-59,575v23,134,80,243,170,310v88,65,266,66,353,0v46,-35,84,-77,112,-130"},"\u00d4":{"d":"764,-1452r-53,67r-242,-205r-246,207r-53,-65r297,-291xm852,-1120v107,162,145,469,88,722v-37,163,-114,288,-240,364v-121,73,-344,72,-466,0v-183,-109,-267,-331,-267,-617v0,-286,86,-510,269,-619v122,-72,341,-74,462,0v63,39,113,88,154,150xm755,-274v107,-198,95,-611,-21,-786v-57,-86,-137,-149,-267,-150v-150,-1,-234,80,-288,181v-77,145,-92,374,-59,575v23,134,80,243,170,310v88,65,266,66,353,0v46,-35,84,-77,112,-130"},"\u00d5":{"d":"846,-1600v-60,105,-142,158,-246,158v-105,0,-148,-58,-211,-98v-18,-12,-40,-19,-65,-19v-69,0,-124,37,-166,111r-80,-47v61,-104,143,-156,246,-156v105,0,148,59,210,99v18,12,40,18,66,18v68,0,123,-38,166,-113xm852,-1120v107,162,145,469,88,722v-37,163,-114,288,-240,364v-121,73,-344,72,-466,0v-183,-109,-267,-331,-267,-617v0,-286,86,-510,269,-619v122,-72,341,-74,462,0v63,39,113,88,154,150xm755,-274v107,-198,95,-611,-21,-786v-57,-86,-137,-149,-267,-150v-150,-1,-234,80,-288,181v-77,145,-92,374,-59,575v23,134,80,243,170,310v88,65,266,66,353,0v46,-35,84,-77,112,-130"},"\u00d6":{"d":"745,-1489r-186,0r0,-187r186,0r0,187xm373,-1489r-187,0r0,-187r187,0r0,187xm852,-1120v107,162,145,469,88,722v-37,163,-114,288,-240,364v-121,73,-344,72,-466,0v-183,-109,-267,-331,-267,-617v0,-286,86,-510,269,-619v122,-72,341,-74,462,0v63,39,113,88,154,150xm755,-274v107,-198,95,-611,-21,-786v-57,-86,-137,-149,-267,-150v-150,-1,-234,80,-288,181v-77,145,-92,374,-59,575v23,134,80,243,170,310v88,65,266,66,353,0v46,-35,84,-77,112,-130"},"\u00d7":{"d":"836,-954r-291,290r291,291r-80,78r-289,-291r-291,291r-78,-78r289,-291r-289,-290r78,-78r291,291r289,-291"},"\u00d8":{"d":"467,23v-187,1,-303,-78,-379,-193r-133,141r0,-159r78,-84v-102,-240,-84,-657,47,-848v79,-116,198,-208,387,-207v184,0,301,83,377,197r135,-146r0,160r-82,86v73,166,91,423,43,632v-37,163,-113,290,-240,364v-64,38,-142,57,-233,57xm180,-268v53,99,138,174,287,174v149,0,234,-81,288,-180v86,-159,94,-451,40,-648xm750,-1032v-57,-101,-140,-176,-283,-178v-150,-2,-234,80,-288,181v-86,159,-96,448,-42,648"},"\u00d9":{"d":"700,-1450r-41,65r-430,-243r66,-109xm465,23v-297,-3,-416,-193,-416,-490r0,-838r137,0r0,840v1,90,15,183,52,245v43,71,110,126,227,126v116,0,186,-55,229,-126v37,-62,51,-155,51,-245r0,-840r138,0r0,840v0,226,-73,384,-231,453v-53,23,-115,35,-187,35"},"\u00da":{"d":"711,-1626r-432,243r-37,-65r403,-287xm465,23v-297,-3,-416,-193,-416,-490r0,-838r137,0r0,840v1,90,15,183,52,245v43,71,110,126,227,126v116,0,186,-55,229,-126v37,-62,51,-155,51,-245r0,-840r138,0r0,840v0,226,-73,384,-231,453v-53,23,-115,35,-187,35"},"\u00db":{"d":"764,-1452r-53,67r-242,-205r-246,207r-53,-65r297,-291xm465,23v-297,-3,-416,-193,-416,-490r0,-838r137,0r0,840v1,90,15,183,52,245v43,71,110,126,227,126v116,0,186,-55,229,-126v37,-62,51,-155,51,-245r0,-840r138,0r0,840v0,226,-73,384,-231,453v-53,23,-115,35,-187,35"},"\u00dc":{"d":"745,-1489r-186,0r0,-187r186,0r0,187xm373,-1489r-187,0r0,-187r187,0r0,187xm465,23v-297,-3,-416,-193,-416,-490r0,-838r137,0r0,840v1,90,15,183,52,245v43,71,110,126,227,126v116,0,186,-55,229,-126v37,-62,51,-155,51,-245r0,-840r138,0r0,840v0,226,-73,384,-231,453v-53,23,-115,35,-187,35"},"\u00dd":{"d":"711,-1626r-432,243r-37,-65r403,-287xm952,-1188r-106,0r-311,625r0,446r210,0r0,117r-559,0r0,-117r211,0r0,-446r-311,-625r-106,0r0,-117r368,0r0,117r-108,0r227,492r225,-492r-108,0r0,-117r368,0r0,117"},"\u00de":{"d":"930,-664v0,249,-167,373,-500,373r-244,0r0,291r-137,0r0,-1305r137,0r0,269r244,0v333,0,500,124,500,372xm791,-664v0,-169,-120,-254,-361,-254r-244,0r0,512r244,0v120,0,210,-22,270,-66v60,-44,91,-107,91,-192"},"\u00df":{"d":"426,-1210v-198,3,-240,166,-240,364r0,846r-137,0r0,-844v1,-117,17,-237,65,-318v57,-96,152,-168,312,-165v151,2,252,66,298,173v32,72,26,187,-12,245v-40,61,-91,96,-144,140v-38,31,-48,79,-4,109v81,56,192,95,264,164v55,53,106,122,104,228v-3,146,-98,226,-212,268v-91,34,-226,28,-310,-5v-48,-19,-94,-46,-138,-81r78,-104v63,57,123,96,230,96v119,0,213,-55,213,-176v0,-82,-52,-124,-103,-159v-85,-57,-201,-92,-263,-173v-40,-52,-37,-156,3,-202v44,-50,104,-87,146,-138v22,-25,32,-57,32,-98v0,-105,-61,-172,-182,-170"},"\u00e0":{"d":"700,-1077r-41,65r-430,-243r66,-109xm747,-156v-82,100,-203,179,-372,179v-123,0,-217,-24,-280,-71v-63,-47,-95,-115,-95,-204v0,-125,73,-198,160,-242v144,-72,393,-77,587,-49v1,-72,0,-136,-29,-179v-48,-71,-136,-114,-243,-116v-148,-3,-260,45,-356,103r-62,-103v135,-85,359,-152,567,-96v149,40,261,136,261,324r0,610r-138,0r0,-156xm747,-430v-211,-23,-477,-29,-579,89v-21,24,-31,54,-31,89v0,39,20,74,57,108v63,58,240,61,336,24v82,-31,148,-81,190,-144v34,-51,26,-94,27,-166"},"\u00e1":{"d":"711,-1254r-432,243r-37,-65r403,-287xm747,-156v-82,100,-203,179,-372,179v-123,0,-217,-24,-280,-71v-63,-47,-95,-115,-95,-204v0,-125,73,-198,160,-242v144,-72,393,-77,587,-49v1,-72,0,-136,-29,-179v-48,-71,-136,-114,-243,-116v-148,-3,-260,45,-356,103r-62,-103v135,-85,359,-152,567,-96v149,40,261,136,261,324r0,610r-138,0r0,-156xm747,-430v-211,-23,-477,-29,-579,89v-21,24,-31,54,-31,89v0,39,20,74,57,108v63,58,240,61,336,24v82,-31,148,-81,190,-144v34,-51,26,-94,27,-166"},"\u00e2":{"d":"764,-1080r-53,67r-242,-205r-246,207r-53,-65r297,-291xm747,-156v-82,100,-203,179,-372,179v-123,0,-217,-24,-280,-71v-63,-47,-95,-115,-95,-204v0,-125,73,-198,160,-242v144,-72,393,-77,587,-49v1,-72,0,-136,-29,-179v-48,-71,-136,-114,-243,-116v-148,-3,-260,45,-356,103r-62,-103v135,-85,359,-152,567,-96v149,40,261,136,261,324r0,610r-138,0r0,-156xm747,-430v-211,-23,-477,-29,-579,89v-21,24,-31,54,-31,89v0,39,20,74,57,108v63,58,240,61,336,24v82,-31,148,-81,190,-144v34,-51,26,-94,27,-166"},"\u00e3":{"d":"846,-1228v-60,105,-142,158,-246,158v-105,0,-148,-58,-211,-98v-18,-12,-40,-19,-65,-19v-69,0,-124,37,-166,111r-80,-47v61,-104,143,-156,246,-156v105,0,148,59,210,99v18,12,40,18,66,18v68,0,123,-38,166,-113xm747,-156v-82,100,-203,179,-372,179v-123,0,-217,-24,-280,-71v-63,-47,-95,-115,-95,-204v0,-125,73,-198,160,-242v144,-72,393,-77,587,-49v1,-72,0,-136,-29,-179v-48,-71,-136,-114,-243,-116v-148,-3,-260,45,-356,103r-62,-103v135,-85,359,-152,567,-96v149,40,261,136,261,324r0,610r-138,0r0,-156xm747,-430v-211,-23,-477,-29,-579,89v-21,24,-31,54,-31,89v0,39,20,74,57,108v63,58,240,61,336,24v82,-31,148,-81,190,-144v34,-51,26,-94,27,-166"},"\u00e4":{"d":"745,-1118r-186,0r0,-187r186,0r0,187xm373,-1118r-187,0r0,-187r187,0r0,187xm747,-156v-82,100,-203,179,-372,179v-123,0,-217,-24,-280,-71v-63,-47,-95,-115,-95,-204v0,-125,73,-198,160,-242v144,-72,393,-77,587,-49v1,-72,0,-136,-29,-179v-48,-71,-136,-114,-243,-116v-148,-3,-260,45,-356,103r-62,-103v135,-85,359,-152,567,-96v149,40,261,136,261,324r0,610r-138,0r0,-156xm747,-430v-211,-23,-477,-29,-579,89v-21,24,-31,54,-31,89v0,39,20,74,57,108v63,58,240,61,336,24v82,-31,148,-81,190,-144v34,-51,26,-94,27,-166"},"\u00e5":{"d":"747,-156v-82,100,-203,179,-372,179v-123,0,-217,-24,-280,-71v-63,-47,-95,-115,-95,-204v0,-125,73,-198,160,-242v144,-72,393,-77,587,-49v1,-72,0,-136,-29,-179v-48,-71,-136,-114,-243,-116v-148,-3,-260,45,-356,103r-62,-103v135,-85,359,-152,567,-96v149,40,261,136,261,324r0,610r-138,0r0,-156xm747,-430v-211,-23,-477,-29,-579,89v-21,24,-31,54,-31,89v0,39,20,74,57,108v63,58,240,61,336,24v82,-31,148,-81,190,-144v34,-51,26,-94,27,-166xm259,-1168v-23,-53,-23,-124,0,-176v34,-76,102,-138,208,-138v106,0,173,62,207,138v24,52,24,123,0,176v-34,78,-100,137,-207,137v-106,0,-174,-59,-208,-137xm467,-1392v-72,0,-135,64,-135,136v0,71,64,135,135,135v71,0,135,-64,135,-135v0,-72,-63,-136,-135,-136"},"\u00e6":{"d":"674,23v-115,0,-203,-86,-225,-193v-29,77,-81,143,-156,176v-26,12,-55,17,-88,17v-156,3,-243,-123,-242,-277v1,-160,87,-250,210,-288v66,-20,143,-22,216,-11r0,-96v0,-95,-44,-194,-141,-191v-27,0,-57,12,-88,36v-31,24,-59,56,-82,95r-86,-84v44,-73,113,-125,198,-152v22,-6,41,-9,58,-9v114,2,187,51,213,147v28,-93,122,-145,229,-147v130,-2,191,94,224,194v32,93,39,228,40,342r-428,0v0,111,13,191,39,240v26,49,65,74,117,74v77,0,118,-50,137,-123r117,37v-43,129,-107,213,-262,213xm807,-539v0,-109,-11,-186,-32,-232v-21,-46,-56,-69,-103,-69v-44,0,-79,22,-106,66v-27,44,-40,123,-40,235r281,0xm100,-244v2,72,43,143,119,140v81,-4,129,-58,155,-120v24,-57,12,-138,15,-214v-159,-23,-293,36,-289,194"},"\u00e7":{"d":"492,-94v141,1,255,-63,309,-150r96,66v-69,106,-181,180,-338,196v11,212,-118,353,-317,353r0,-117v142,1,208,-80,202,-234v-211,-19,-349,-127,-412,-296v-43,-115,-42,-271,1,-386v65,-175,208,-292,440,-292v104,0,188,39,245,90v21,19,37,41,48,67r0,-135r123,0r0,373r-123,0v-3,-136,-76,-219,-177,-259v-80,-31,-192,-25,-263,9v-120,56,-189,172,-189,344v0,175,83,287,207,342v44,19,93,29,148,29"},"\u00e8":{"d":"700,-1077r-41,65r-430,-243r66,-109xm893,-178v-90,123,-203,201,-406,201v-234,0,-384,-120,-455,-290v-48,-114,-48,-275,-4,-393v65,-174,208,-292,441,-294v164,-2,280,60,357,150v77,90,116,223,116,386r-805,0v17,189,147,324,350,324v138,0,257,-67,310,-150xm797,-535v-25,-185,-137,-303,-328,-303v-150,0,-239,78,-293,180v-19,38,-32,78,-37,123r658,0"},"\u00e9":{"d":"711,-1254r-432,243r-37,-65r403,-287xm893,-178v-90,123,-203,201,-406,201v-234,0,-384,-120,-455,-290v-48,-114,-48,-275,-4,-393v65,-174,208,-292,441,-294v164,-2,280,60,357,150v77,90,116,223,116,386r-805,0v17,189,147,324,350,324v138,0,257,-67,310,-150xm797,-535v-25,-185,-137,-303,-328,-303v-150,0,-239,78,-293,180v-19,38,-32,78,-37,123r658,0"},"\u00ea":{"d":"764,-1080r-53,67r-242,-205r-246,207r-53,-65r297,-291xm893,-178v-90,123,-203,201,-406,201v-234,0,-384,-120,-455,-290v-48,-114,-48,-275,-4,-393v65,-174,208,-292,441,-294v164,-2,280,60,357,150v77,90,116,223,116,386r-805,0v17,189,147,324,350,324v138,0,257,-67,310,-150xm797,-535v-25,-185,-137,-303,-328,-303v-150,0,-239,78,-293,180v-19,38,-32,78,-37,123r658,0"},"\u00eb":{"d":"745,-1118r-186,0r0,-187r186,0r0,187xm373,-1118r-187,0r0,-187r187,0r0,187xm893,-178v-90,123,-203,201,-406,201v-234,0,-384,-120,-455,-290v-48,-114,-48,-275,-4,-393v65,-174,208,-292,441,-294v164,-2,280,60,357,150v77,90,116,223,116,386r-805,0v17,189,147,324,350,324v138,0,257,-67,310,-150xm797,-535v-25,-185,-137,-303,-328,-303v-150,0,-239,78,-293,180v-19,38,-32,78,-37,123r658,0"},"\u00ec":{"d":"700,-1077r-41,65r-430,-243r66,-109xm745,0r-559,0r0,-117r211,0r0,-694r-211,0r0,-121r349,0r0,815r210,0r0,117"},"\u00ed":{"d":"711,-1254r-432,243r-37,-65r403,-287xm745,0r-559,0r0,-117r211,0r0,-694r-211,0r0,-121r349,0r0,815r210,0r0,117"},"\u00ee":{"d":"764,-1080r-53,67r-242,-205r-246,207r-53,-65r297,-291xm745,0r-559,0r0,-117r211,0r0,-694r-211,0r0,-121r349,0r0,815r210,0r0,117"},"\u00ef":{"d":"745,-1118r-186,0r0,-187r186,0r0,187xm373,-1118r-187,0r0,-187r187,0r0,187xm745,0r-559,0r0,-117r211,0r0,-694r-211,0r0,-121r349,0r0,815r210,0r0,117"},"\u00f0":{"d":"430,23v-260,1,-452,-123,-450,-377v0,-70,19,-133,58,-186v136,-185,407,-264,689,-312v-55,-96,-141,-165,-233,-227r-183,182r-78,-80r160,-160v-55,-30,-111,-51,-174,-73r45,-117v78,30,151,63,219,98r144,-143r78,80r-121,123v200,131,366,308,366,632v0,267,-112,442,-303,521v-64,26,-136,39,-217,39xm117,-354v1,165,135,263,313,260v198,-3,308,-108,358,-262v37,-114,33,-278,-8,-383v-182,20,-352,66,-477,135v-59,33,-104,70,-137,112v-33,42,-49,87,-49,138"},"\u00f1":{"d":"846,-1228v-60,105,-142,158,-246,158v-105,0,-148,-58,-211,-98v-18,-12,-40,-19,-65,-19v-69,0,-124,37,-166,111r-80,-47v61,-104,143,-156,246,-156v105,0,148,59,210,99v18,12,40,18,66,18v68,0,123,-38,166,-113xm745,-575v-1,-164,-65,-264,-229,-263v-112,1,-191,59,-242,128v-53,71,-87,174,-88,292r0,418r-137,0r0,-932r137,0r0,234v66,-171,184,-256,353,-256v229,0,344,126,344,379r0,575r-138,0r0,-575"},"\u00f2":{"d":"700,-1077r-41,65r-430,-243r66,-109xm922,-660v45,119,46,279,0,395v-46,119,-136,204,-254,252v-117,47,-283,48,-400,0v-172,-70,-288,-214,-288,-450v0,-234,116,-385,288,-455v117,-48,284,-48,400,0v119,49,208,136,254,258xm796,-316v31,-88,31,-206,0,-294v-48,-132,-154,-228,-329,-228v-175,0,-279,96,-327,228v-31,88,-31,206,0,294v47,131,153,222,327,222v174,0,281,-91,329,-222"},"\u00f3":{"d":"711,-1254r-432,243r-37,-65r403,-287xm922,-660v45,119,46,279,0,395v-46,119,-136,204,-254,252v-117,47,-283,48,-400,0v-172,-70,-288,-214,-288,-450v0,-234,116,-385,288,-455v117,-48,284,-48,400,0v119,49,208,136,254,258xm796,-316v31,-88,31,-206,0,-294v-48,-132,-154,-228,-329,-228v-175,0,-279,96,-327,228v-31,88,-31,206,0,294v47,131,153,222,327,222v174,0,281,-91,329,-222"},"\u00f4":{"d":"764,-1080r-53,67r-242,-205r-246,207r-53,-65r297,-291xm922,-660v45,119,46,279,0,395v-46,119,-136,204,-254,252v-117,47,-283,48,-400,0v-172,-70,-288,-214,-288,-450v0,-234,116,-385,288,-455v117,-48,284,-48,400,0v119,49,208,136,254,258xm796,-316v31,-88,31,-206,0,-294v-48,-132,-154,-228,-329,-228v-175,0,-279,96,-327,228v-31,88,-31,206,0,294v47,131,153,222,327,222v174,0,281,-91,329,-222"},"\u00f5":{"d":"846,-1228v-60,105,-142,158,-246,158v-105,0,-148,-58,-211,-98v-18,-12,-40,-19,-65,-19v-69,0,-124,37,-166,111r-80,-47v61,-104,143,-156,246,-156v105,0,148,59,210,99v18,12,40,18,66,18v68,0,123,-38,166,-113xm922,-660v45,119,46,279,0,395v-46,119,-136,204,-254,252v-117,47,-283,48,-400,0v-172,-70,-288,-214,-288,-450v0,-234,116,-385,288,-455v117,-48,284,-48,400,0v119,49,208,136,254,258xm796,-316v31,-88,31,-206,0,-294v-48,-132,-154,-228,-329,-228v-175,0,-279,96,-327,228v-31,88,-31,206,0,294v47,131,153,222,327,222v174,0,281,-91,329,-222"},"\u00f6":{"d":"745,-1118r-186,0r0,-187r186,0r0,187xm373,-1118r-187,0r0,-187r187,0r0,187xm922,-660v45,119,46,279,0,395v-46,119,-136,204,-254,252v-117,47,-283,48,-400,0v-172,-70,-288,-214,-288,-450v0,-234,116,-385,288,-455v117,-48,284,-48,400,0v119,49,208,136,254,258xm796,-316v31,-88,31,-206,0,-294v-48,-132,-154,-228,-329,-228v-175,0,-279,96,-327,228v-31,88,-31,206,0,294v47,131,153,222,327,222v174,0,281,-91,329,-222"},"\u00f7":{"d":"559,-944r-186,0r0,-186r186,0r0,186xm559,-199r-186,0r0,-186r186,0r0,186xm932,-606r-932,0r0,-117r932,0r0,117"},"\u00f8":{"d":"467,23v-160,0,-279,-57,-361,-142r-149,119r0,-119r92,-74v-77,-124,-92,-317,-35,-467v46,-122,135,-210,254,-258v60,-24,126,-36,199,-36v160,0,277,58,358,143r152,-121r0,119r-94,76v81,127,96,320,39,472v-46,119,-135,205,-254,252v-60,24,-127,36,-201,36xm209,-201v60,62,140,108,258,107v174,-2,282,-91,329,-222v38,-106,30,-245,-20,-337xm725,-731v-59,-61,-142,-108,-258,-107v-175,1,-279,96,-327,228v-36,101,-30,245,16,331"},"\u00f9":{"d":"700,-1079r-41,65r-430,-243r66,-109xm186,-356v1,164,66,263,230,262v112,-1,190,-59,241,-128v53,-71,87,-174,88,-292r0,-418r138,0r0,932r-138,0r0,-233v-65,171,-183,256,-352,256v-229,0,-344,-126,-344,-379r0,-576r137,0r0,576"},"\u00fa":{"d":"711,-1255r-432,243r-37,-65r403,-287xm186,-356v1,164,66,263,230,262v112,-1,190,-59,241,-128v53,-71,87,-174,88,-292r0,-418r138,0r0,932r-138,0r0,-233v-65,171,-183,256,-352,256v-229,0,-344,-126,-344,-379r0,-576r137,0r0,576"},"\u00fb":{"d":"764,-1081r-53,67r-242,-205r-246,207r-53,-65r297,-291xm186,-356v1,164,66,263,230,262v112,-1,190,-59,241,-128v53,-71,87,-174,88,-292r0,-418r138,0r0,932r-138,0r0,-233v-65,171,-183,256,-352,256v-229,0,-344,-126,-344,-379r0,-576r137,0r0,576"},"\u00fc":{"d":"745,-1118r-186,0r0,-187r186,0r0,187xm373,-1118r-187,0r0,-187r187,0r0,187xm186,-356v1,164,66,263,230,262v112,-1,190,-59,241,-128v53,-71,87,-174,88,-292r0,-418r138,0r0,932r-138,0r0,-233v-65,171,-183,256,-352,256v-229,0,-344,-126,-344,-379r0,-576r137,0r0,576"},"\u00fd":{"d":"711,-1255r-432,243r-37,-65r403,-287xm25,242v48,21,109,37,165,37v45,0,77,-11,94,-33v45,-59,69,-146,101,-219r-416,-959r162,0r336,815r330,-815r164,0r-504,1168v-43,117,-129,159,-267,159v-64,0,-128,-12,-192,-35"},"\u00fe":{"d":"900,-668v44,115,46,285,1,401v-65,174,-205,292,-440,292v-100,0,-192,-33,-275,-99r0,447r-137,0r0,-1678r137,0r0,449v127,-106,304,-126,469,-64v118,45,199,133,245,252xm774,-316v29,-90,29,-211,0,-300v-43,-134,-140,-226,-313,-226v-104,0,-196,42,-275,127r0,500v79,86,171,129,275,129v174,-1,271,-95,313,-230"},"\u00ff":{"d":"745,-1118r-186,0r0,-187r186,0r0,187xm373,-1118r-187,0r0,-187r187,0r0,187xm25,242v48,21,109,37,165,37v45,0,77,-11,94,-33v45,-59,69,-146,101,-219r-416,-959r162,0r336,815r330,-815r164,0r-504,1168v-43,117,-129,159,-267,159v-64,0,-128,-12,-192,-35"},"\u0152":{"d":"396,-250v35,-167,29,-429,21,-628v-5,-119,-22,-223,-67,-291v-35,-55,-116,-55,-152,0v-74,115,-75,321,-75,518v0,147,4,288,29,401v11,49,27,87,46,115v37,54,116,54,152,0v18,-28,35,-66,46,-115xm274,23v-192,0,-288,-225,-288,-674v0,-451,96,-676,288,-676v49,0,86,13,110,38v24,25,46,65,65,118r0,-134r483,0r0,117r-373,0r0,467r283,0r0,117r-283,0r0,487r373,0r0,117r-483,0r0,-133v-19,53,-41,93,-65,118v-24,25,-61,38,-110,38"},"\u0153":{"d":"453,-760v26,-117,89,-192,217,-194v138,-2,204,83,242,184v37,95,41,229,42,352r-428,0v0,111,13,191,39,240v26,49,65,74,117,74v78,0,112,-47,127,-127r127,41v-45,142,-130,213,-254,213v-119,0,-194,-67,-227,-201v-29,134,-100,201,-213,201v-186,0,-279,-163,-279,-488v0,-326,93,-489,279,-489v109,0,180,65,211,194xm807,-539v0,-101,-9,-176,-27,-226v-18,-50,-55,-75,-110,-75v-55,0,-92,26,-111,79v-19,53,-30,127,-33,222r281,0xm383,-465v0,-250,-47,-375,-141,-375v-95,0,-142,125,-142,375v0,251,47,377,142,377v94,0,141,-126,141,-377"},"\u0178":{"d":"745,-1489r-186,0r0,-187r186,0r0,187xm373,-1489r-187,0r0,-187r187,0r0,187xm952,-1188r-106,0r-311,625r0,446r210,0r0,117r-559,0r0,-117r211,0r0,-446r-311,-625r-106,0r0,-117r368,0r0,117r-108,0r227,492r225,-492r-108,0r0,-117r368,0r0,117"},"\u02c6":{"d":"764,-1081r-53,67r-242,-205r-246,207r-53,-65r297,-291"},"\u02dc":{"d":"846,-1229v-60,105,-142,158,-246,158v-105,0,-148,-59,-211,-99v-18,-12,-40,-18,-65,-18v-69,0,-124,37,-166,111r-80,-47v61,-104,143,-156,246,-156v105,0,148,58,210,98v18,12,40,19,66,19v68,0,123,-38,166,-113"},"\u2013":{"d":"0,-424r0,-108r932,0r0,108r-932,0"},"\u2014":{"d":"1026,-424r-1118,0r0,-108r1118,0r0,108"},"\u2018":{"d":"745,-745r-319,0v4,-122,-13,-253,20,-349v29,-84,82,-145,160,-181v40,-19,86,-28,139,-28r0,117v-145,-2,-210,90,-202,254r202,0r0,187"},"\u2019":{"d":"186,-1305r320,0v-4,122,14,253,-20,349v-43,122,-137,206,-300,208r0,-116v146,2,211,-90,203,-254r-203,0r0,-187"},"\u201a":{"d":"559,-186r-43,469r-102,0r-41,-469r186,0"},"\u201c":{"d":"932,-745r-320,0v4,-122,-13,-253,20,-349v29,-84,82,-145,160,-181v40,-19,87,-28,140,-28r0,117v-146,-2,-211,90,-203,254r203,0r0,187xm373,-745r-318,0v4,-122,-13,-252,19,-349v27,-84,83,-145,160,-181v40,-19,86,-28,139,-28r0,117v-145,-2,-209,90,-201,254r201,0r0,187"},"\u201d":{"d":"0,-1305r319,0v-4,122,13,253,-20,349v-43,123,-136,206,-299,208r0,-116v146,2,211,-90,203,-254r-203,0r0,-187xm559,-1305r318,0v-4,122,13,252,-19,349v-42,123,-136,206,-299,208r0,-116v145,2,209,-90,201,-254r-201,0r0,-187"},"\u201e":{"d":"745,-185r-40,465r-103,0r-43,-465r186,0xm373,-185r-43,465r-101,0r-43,-465r187,0"},"\u2022":{"d":"216,-414v-40,-89,-40,-200,0,-290v40,-91,108,-158,198,-198v89,-40,201,-40,290,0v91,40,158,107,198,198v40,90,40,201,0,290v-40,90,-107,158,-198,198v-90,40,-201,40,-290,0v-90,-40,-158,-108,-198,-198"},"\u2026":{"d":"932,0r-187,0r0,-186r187,0r0,186xm559,0r-186,0r0,-186r186,0r0,186xm186,0r-186,0r0,-186r186,0r0,186"},"\u2039":{"d":"604,-229r-78,79r-327,-327r327,-330r78,80r-248,250"},"\u203a":{"d":"733,-477r-325,327r-80,-77r247,-250r-247,-250r80,-78"},"\u20ac":{"d":"0,-858r166,0v29,-192,95,-355,238,-432v46,-25,99,-37,159,-37v93,0,171,29,233,88v62,59,110,151,144,276r-121,31v-19,-82,-51,-148,-94,-200v-89,-108,-244,-101,-327,10v-44,60,-77,147,-95,264r256,0r0,113r-268,0v-3,58,-3,126,0,186r268,0r0,113r-256,0v17,119,50,206,95,265v85,110,239,117,327,8v43,-53,75,-120,94,-202r121,33v-34,125,-83,215,-144,276v-93,92,-267,118,-392,52v-144,-76,-211,-240,-240,-432r-164,0r0,-113r154,0v-3,-58,-3,-126,0,-186r-154,0r0,-113"},"\u2122":{"d":"1118,-745r-110,0r0,-394r-129,334r-78,0r-129,-334r0,394r-111,0r0,-560r158,0r121,328r121,-328r157,0r0,560xm465,-1192r-176,0r0,447r-113,0r0,-447r-176,0r0,-113r465,0r0,113"}}});
