/*!
 * The following copyright notice may not be removed under any circumstances.
 * 
 * Copyright:
 * Copyright (c) Mark Simonson 2009. All rights reserved.
 * 
 * Trademark:
 * Anonymous Pro is a trademark of Mark Simonson.
 * 
 * Designer:
 * Mark Simonson
 * 
 * Vendor URL:
 * http://www.ms-studio.com
 */
Cufon.registerFont({"w":1118,"face":{"font-family":"Anonymous Pro","font-weight":400,"font-style":"italic","font-stretch":"normal","units-per-em":"2048","panose-1":"2 6 6 9 3 2 2 0 5 4","ascent":"1733","descent":"-315","bbox":"-176 -1739 1296 395.003","underline-thickness":"123","underline-position":"-126","slope":"-12","unicode-range":"U+0020-U+2122"},"glyphs":{" ":{},"!":{"d":"735,-1305r-250,938r-82,0r148,-938r184,0xm461,0r-187,0r39,-186r187,0"},"\"":{"d":"924,-1305r-140,465r-102,0r55,-465r187,0xm551,-1305r-141,465r-101,0r56,-465r186,0"},"#":{"d":"958,-594r-221,0r-47,221r-117,0r48,-221r-256,0r-48,221r-116,0r47,-221r-221,0r24,-117r221,0r58,-264r-221,0r20,-102r221,0r49,-228r117,0r-49,228r256,0r49,-228r117,0r-49,228r221,0r-21,102r-221,0r-57,264r221,0xm645,-711r57,-264r-256,0r-57,264r256,0"},"$":{"d":"295,16v-198,-27,-323,-138,-322,-358r136,-33v5,146,71,249,210,271r113,-527v-93,-38,-174,-74,-231,-138v-48,-54,-67,-123,-45,-224v20,-94,75,-166,140,-221v71,-60,168,-100,284,-113r34,-164r138,0r-35,164v144,21,237,108,273,235v10,40,13,80,7,121r-147,25v7,-127,-46,-235,-160,-254r-100,471v112,45,190,98,240,155v79,89,53,269,-10,362v-81,119,-208,209,-388,228r-37,170r-137,0xm457,-104v149,-17,233,-102,264,-224v14,-56,2,-106,-25,-146v-27,-40,-73,-77,-137,-108xm322,-1061v-36,57,-43,144,5,195v31,34,76,64,136,90r90,-426v-106,15,-185,67,-231,141"},"%":{"d":"612,-1172v21,126,-43,217,-113,276v-65,55,-187,103,-287,54v-75,-36,-127,-115,-103,-231v23,-112,102,-193,201,-233v62,-26,137,-29,195,0v54,26,96,68,107,134xm1102,-1272r-1110,1299r-82,-60r1114,-1302xm910,-327v25,124,-45,216,-113,276v-63,56,-188,101,-288,55v-76,-36,-131,-115,-106,-233v24,-111,104,-192,204,-231v62,-25,136,-27,195,0v55,25,95,70,108,133xm326,-922v87,0,167,-75,182,-151v16,-85,-35,-152,-117,-152v-87,0,-167,75,-182,152v-16,85,36,151,117,151xm625,-78v86,0,167,-75,182,-151v17,-86,-38,-150,-119,-150v-88,0,-167,73,-182,150v-16,84,37,151,119,151"},"&":{"d":"668,-317v76,-81,138,-180,186,-281r123,33v-54,124,-137,243,-229,338r126,147r-116,107r-125,-154v-103,75,-230,150,-391,150v-160,0,-261,-88,-296,-217v-23,-89,11,-193,40,-256v46,-103,120,-173,209,-232v-49,-89,-88,-180,-64,-309v35,-189,186,-336,399,-336v138,0,237,59,264,171v23,96,-17,202,-61,257v-59,74,-134,128,-222,173v-45,23,-88,46,-130,71xm123,-174v58,81,198,77,299,36v49,-20,95,-46,137,-79r-272,-336r-25,-29v-80,61,-143,132,-168,248v-13,64,-2,116,29,160xm354,-1140v-58,60,-97,138,-87,256v3,40,19,84,46,134v106,-56,222,-106,295,-193v43,-51,70,-160,17,-216v-43,-46,-135,-58,-202,-27v-25,12,-49,26,-69,46"},"'":{"d":"737,-1305r-143,469r-102,0r59,-469r186,0"},"(":{"d":"455,371v-160,-154,-273,-371,-273,-671v0,-329,115,-579,254,-786v109,-162,254,-307,418,-417r51,90v-216,149,-388,356,-501,606v-87,193,-136,465,-74,709v39,151,113,284,215,379"},")":{"d":"763,-1086v72,267,14,575,-81,787v-124,277,-318,507,-559,670r-53,-90v215,-150,392,-357,504,-607v88,-194,138,-468,72,-710v-42,-151,-116,-280,-216,-377r92,-90v112,106,196,250,241,417"},"*":{"d":"1016,-1024r-381,184r301,189r-76,94r-289,-203r-67,387r-117,0r96,-387r-374,203r-35,-94r383,-189r-303,-184r75,-96r289,205r68,-390r116,0r-96,390r375,-205"},"+":{"d":"961,-606r-408,0r-86,407r-117,0r86,-407r-407,0r26,-117r408,0r86,-407r117,0r-86,407r407,0"},",":{"d":"512,-186r-393,559r-97,0r306,-559r184,0"},"-":{"d":"735,-420r-559,0r25,-117r559,0"},".":{"d":"461,0r-187,0r39,-186r187,0"},"\/":{"d":"1083,-1303r-1093,1543r-88,-52r1093,-1542"},"0":{"d":"868,-1024v-35,-111,-107,-186,-243,-186v-117,0,-217,51,-301,150v-119,139,-214,413,-204,681xm143,-268v41,117,123,176,244,176v115,0,214,-50,299,-150v85,-100,144,-236,182,-409v19,-84,27,-165,21,-260xm-22,-398v-2,-186,48,-364,110,-506v69,-158,176,-287,320,-366v127,-69,345,-78,460,0v107,72,164,196,165,366v2,187,-47,364,-109,506v-69,158,-170,285,-316,364v-127,69,-351,78,-466,0v-106,-72,-162,-194,-164,-364"},"1":{"d":"647,0r-559,0r25,-117r211,0r188,-891v-70,100,-188,190,-316,237v-46,17,-92,26,-137,26r31,-142v111,-5,212,-75,288,-135v84,-68,171,-170,197,-283r138,0r-252,1188r211,0"},"2":{"d":"92,-856v56,-274,243,-471,559,-471v172,0,299,72,339,207v24,77,-6,192,-32,250v-31,70,-79,124,-136,180v-33,33,-75,70,-126,112r-551,461r551,0r54,-256r116,0r-78,373r-847,0r24,-121r619,-516r91,-78v75,-69,151,-140,177,-252v38,-162,-76,-243,-225,-243v-238,2,-364,144,-408,354r-127,0"},"3":{"d":"686,-690v160,20,247,145,211,330v-23,120,-101,214,-187,277v-80,59,-192,106,-319,106v-253,0,-413,-129,-383,-402r137,-18v-30,198,88,303,271,303v140,0,236,-74,299,-159v38,-52,68,-161,47,-237v-32,-118,-172,-126,-328,-128r25,-117v151,-1,276,-40,351,-120v59,-63,86,-217,18,-289v-41,-43,-97,-66,-175,-66v-215,0,-351,119,-389,317r-129,0v47,-202,168,-343,353,-405v103,-35,240,-41,342,-4v125,46,211,152,171,335v-32,151,-151,254,-315,277"},"4":{"d":"834,0r-560,0r25,-117r211,0r53,-256r-583,0r26,-119r719,-813r174,0r-172,813r211,0r-27,119r-211,0r-53,256r211,0xm590,-492r137,-651r-575,651r438,0"},"5":{"d":"252,-780v80,-66,191,-120,319,-121v138,-1,239,48,303,125v66,79,90,196,58,338v-47,207,-188,354,-375,425v-111,43,-259,50,-369,8v-140,-54,-230,-176,-200,-382r137,-21v-16,146,36,245,136,290v77,34,190,29,269,-2v135,-53,233,-165,265,-318v43,-206,-58,-346,-260,-346v-129,0,-235,59,-310,131r-137,0r139,-652r817,0r-24,117r-680,0"},"6":{"d":"958,-633v26,143,-25,292,-82,383v-69,110,-171,193,-300,240v-131,47,-318,44,-416,-24v-104,-72,-158,-194,-158,-364v0,-305,110,-559,267,-724v108,-113,252,-204,458,-205v130,0,228,45,295,135r-107,80v-46,-65,-117,-98,-213,-98v-246,0,-381,149,-468,324v-32,67,-56,140,-72,220v56,-110,174,-186,300,-226v101,-33,218,-21,305,16v102,44,169,124,191,243xm668,-188v98,-81,174,-219,155,-394v-15,-135,-109,-213,-262,-213v-175,0,-287,90,-359,201v-62,94,-96,284,-26,392v44,67,116,109,230,108v110,-1,197,-40,262,-94"},"7":{"d":"1071,-1184v-259,227,-430,474,-541,832v-33,106,-63,223,-90,352r-143,0v79,-370,196,-678,397,-930v70,-89,153,-175,248,-258r-623,0r-55,256r-117,0r80,-373r871,0"},"8":{"d":"922,-367v-43,200,-178,317,-369,367v-115,30,-262,32,-372,0v-151,-44,-257,-153,-210,-367v28,-128,119,-229,225,-285v39,-20,80,-33,123,-38v-72,-7,-119,-55,-147,-106v-25,-46,-41,-111,-27,-177v39,-177,169,-282,338,-331v159,-46,360,-17,447,66v60,57,101,142,71,265v-26,109,-100,194,-187,247v-33,20,-69,32,-107,36v122,16,194,100,215,216v6,36,8,72,0,107xm526,-748v181,0,308,-82,338,-225v34,-161,-77,-237,-239,-237v-178,0,-312,91,-342,237v-14,69,-1,123,39,164v40,41,109,61,204,61xm730,-246v40,-52,77,-156,52,-242v-51,-175,-381,-171,-529,-82v-71,43,-123,109,-144,203v-22,99,9,162,58,206v74,67,229,84,353,51v89,-23,161,-71,210,-136"},"9":{"d":"98,-193v43,62,114,99,213,99v155,0,269,-66,351,-152v93,-97,157,-236,192,-393v-60,108,-175,186,-304,227v-103,32,-215,22,-302,-16v-146,-63,-234,-215,-187,-432v47,-217,184,-364,377,-434v131,-48,316,-44,416,24v106,72,158,195,158,365v0,304,-110,558,-266,723v-107,112,-256,204,-459,205v-130,0,-228,-45,-295,-136xm347,-1116v-97,81,-175,222,-155,394v16,134,107,212,261,212v174,0,291,-87,361,-200v60,-98,94,-286,24,-393v-43,-67,-117,-108,-230,-107v-109,1,-197,40,-261,94"},":":{"d":"618,-745r-186,0r39,-187r186,0xm461,0r-187,0r39,-186r187,0"},";":{"d":"618,-745r-186,0r39,-187r186,0xm551,-186r-393,559r-97,0r306,-559r184,0"},"<":{"d":"739,-231r-96,79r-403,-512r622,-512r60,80r-525,432"},"=":{"d":"1008,-825r-932,0r24,-119r932,0xm913,-385r-931,0r26,-117r932,0"},">":{"d":"774,-664r-620,512r-60,-79r522,-433r-340,-432r97,-80"},"?":{"d":"461,0r-187,0r39,-186r187,0xm274,-965v66,-205,210,-359,465,-362v201,-3,332,109,289,305v-59,268,-335,334,-473,526v-27,37,-46,77,-55,123r-146,0v23,-109,89,-184,157,-253v101,-102,234,-182,325,-290v51,-61,82,-176,27,-244v-45,-55,-182,-62,-261,-30v-106,43,-172,131,-209,244"},"@":{"d":"375,-37v129,0,230,-47,305,-117r35,48v-104,86,-222,129,-353,129v-182,0,-290,-81,-342,-206v-94,-225,-12,-536,67,-722v68,-159,175,-286,319,-365v126,-69,347,-78,462,0v107,72,163,194,165,365v2,183,-44,369,-121,489v-39,60,-97,123,-185,125v-67,1,-110,-65,-92,-141r10,-49v-73,127,-165,190,-276,190v-135,-1,-196,-86,-199,-215v-4,-167,62,-296,148,-385v60,-62,150,-112,264,-113v55,0,108,24,159,72r13,-53r102,0r-119,553v-7,31,3,47,29,47v55,0,86,-56,110,-99v55,-103,82,-253,86,-394v5,-154,-43,-268,-132,-336v-97,-74,-300,-64,-410,0v-188,109,-291,320,-342,563v-41,193,-37,343,14,451v51,108,145,163,283,163xm721,-829v-69,-94,-162,-120,-263,-67v-92,48,-149,148,-173,265v-15,77,-16,136,3,179v19,43,53,65,101,65v144,0,216,-94,265,-197v35,-75,46,-159,67,-245"},"A":{"d":"897,0r-147,0r-45,-373r-517,0r-198,373r-148,0r711,-1305r186,0xm692,-494r-76,-673r-362,673r438,0"},"B":{"d":"909,-373v-51,248,-245,373,-542,373r-416,0r276,-1305r394,0v233,0,428,70,370,338v-29,135,-116,228,-262,277v155,51,213,156,180,317xm803,-854v39,-43,75,-154,45,-226v-60,-146,-310,-101,-508,-108r-94,443v167,-5,354,21,472,-41v32,-16,59,-40,85,-68xm391,-117v204,0,346,-87,381,-256v40,-194,-84,-257,-272,-258r-279,0r-108,514r278,0"},"C":{"d":"664,-1327v155,0,266,53,297,174r32,-152r117,0r-92,428r-117,0v24,-98,-4,-182,-47,-237v-43,-56,-119,-96,-215,-96v-158,1,-253,84,-325,181v-107,145,-172,343,-183,575v-7,137,29,246,105,310v39,34,94,50,165,50v163,0,297,-98,404,-295r108,47v-57,112,-132,200,-223,266v-91,66,-196,99,-313,99v-182,0,-288,-82,-344,-206v-59,-131,-50,-307,-15,-468v59,-270,184,-506,402,-619v71,-38,152,-57,244,-57"},"D":{"d":"993,-1108v96,212,23,521,-60,706v-68,152,-172,279,-317,350v-70,35,-151,52,-241,52r-424,0r276,-1305r424,0v177,-2,288,77,342,197xm877,-651v37,-171,33,-303,-11,-397v-44,-94,-124,-140,-239,-140r-287,0r-227,1071r286,0v115,0,214,-46,298,-139v84,-93,144,-224,180,-395"},"E":{"d":"784,0r-833,0r276,-1305r834,0r-25,117r-696,0r-100,467r514,0r-25,117r-514,0r-102,487r696,0"},"F":{"d":"1036,-1188r-696,0r-100,467r514,0r-25,117r-514,0r-127,604r-137,0r276,-1305r834,0"},"G":{"d":"664,-1327v155,0,266,53,297,174r32,-152r117,0r-92,428r-117,0v34,-153,-33,-259,-138,-307v-97,-44,-229,-28,-311,24v-159,101,-251,297,-296,509v-25,120,-41,264,-4,377v35,105,107,180,249,180v105,0,197,-41,276,-122v79,-81,139,-196,181,-343r-289,0r25,-117r434,0v-59,284,-182,525,-408,644v-128,68,-349,76,-463,-2v-106,-72,-165,-194,-166,-364v-1,-187,47,-364,109,-506v68,-158,175,-289,320,-366v71,-38,152,-57,244,-57"},"H":{"d":"784,0r-137,0r127,-604r-559,0r-127,604r-137,0r276,-1305r138,0r-125,584r559,0r125,-584r137,0"},"I":{"d":"647,0r-559,0r25,-117r211,0r227,-1071r-211,0r25,-117r559,0r-25,117r-211,0r-227,1071r211,0"},"J":{"d":"100,-387v10,198,88,289,275,293v127,2,210,-59,266,-132v55,-71,89,-171,111,-272r172,-807r137,0r-172,807v-35,165,-97,293,-187,384v-90,91,-207,137,-352,137v-238,-1,-369,-130,-379,-365"},"K":{"d":"827,0r-168,0r-299,-639r-170,154r-102,485r-137,0r276,-1305r138,0r-136,635r695,-635r180,0r-633,570"},"L":{"d":"784,0r-833,0r276,-1305r138,0r-252,1188r696,0"},"M":{"d":"784,0r-137,0r230,-1087r-375,673r-99,0r-86,-673r-229,1087r-137,0r276,-1305r179,0r92,682r385,-682r178,0"},"N":{"d":"784,0r-170,0r-292,-1104r-234,1104r-137,0r276,-1305r193,0r280,1053r224,-1053r137,0"},"O":{"d":"991,-1120v89,224,16,532,-67,722v-69,158,-170,285,-316,364v-127,69,-351,78,-466,0v-106,-72,-162,-194,-164,-364v-2,-186,48,-364,109,-506v67,-158,177,-287,321,-366v127,-69,345,-79,460,0v56,38,97,87,123,150xm714,-274v107,-145,179,-378,179,-610v0,-192,-78,-326,-268,-326v-158,0,-255,84,-326,181v-106,146,-168,344,-181,575v-8,137,29,245,104,310v82,71,260,61,352,0v53,-35,101,-77,140,-130"},"P":{"d":"1028,-932v-50,246,-237,373,-526,373r-295,0r-119,559r-137,0r276,-1305r430,0v143,0,247,31,313,93v66,62,83,156,58,280xm526,-676v198,-2,329,-84,365,-256v39,-189,-79,-255,-256,-256r-295,0r-109,512r295,0"},"Q":{"d":"289,16v-214,-28,-309,-183,-309,-422v0,-182,47,-360,107,-498v68,-158,177,-287,321,-366v127,-69,344,-78,460,0v107,72,161,196,164,366v3,180,-43,357,-101,494v-63,151,-158,276,-288,356v-64,40,-136,64,-217,72v-7,183,66,233,246,236v23,0,44,0,60,-1r48,-3r-26,117r-107,4v-261,0,-379,-99,-358,-355xm686,-242v114,-131,196,-358,207,-607v9,-206,-62,-361,-268,-361v-157,1,-254,85,-326,181v-75,100,-126,239,-156,378v-37,173,-35,310,7,409v42,99,121,148,237,148v115,0,214,-49,299,-148"},"R":{"d":"846,0r-174,0r-262,-559r-203,0r-119,559r-137,0r276,-1305r430,0v143,0,247,31,313,93v66,62,85,156,58,280v-36,169,-147,277,-297,333v-51,19,-104,30,-160,34xm524,-676v200,-2,327,-83,363,-256v39,-187,-75,-255,-254,-256r-293,0r-109,512r293,0"},"S":{"d":"627,-1327v130,0,234,56,268,158r29,-136r120,0r-79,373r-121,0v24,-134,-40,-216,-132,-256v-96,-41,-235,-18,-305,28v-55,37,-101,92,-116,169v-14,77,18,119,63,151v163,118,446,130,516,340v35,106,-12,239,-64,308v-89,118,-226,215,-421,215v-149,0,-266,-57,-313,-162r-29,139r-117,0r84,-397r117,0v-20,97,17,169,63,218v65,70,208,109,330,69v106,-35,187,-108,213,-222v22,-91,-15,-144,-62,-185v-53,-45,-132,-71,-202,-99v-127,-51,-270,-93,-313,-224v-33,-100,13,-231,63,-294v87,-111,221,-193,408,-193"},"T":{"d":"1016,-864r-117,0r70,-324r-281,0r-227,1071r211,0r-25,117r-559,0r25,-117r211,0r227,-1071r-281,0r-69,324r-117,0r94,-441r932,0"},"U":{"d":"883,-465v-48,213,-145,377,-328,453v-104,43,-277,46,-375,0v-144,-67,-173,-255,-131,-455r178,-838r138,0r-179,840v-14,76,-28,173,0,245v29,76,87,126,199,126v121,0,203,-58,257,-126v52,-63,84,-157,103,-245r179,-840r137,0"},"V":{"d":"1174,-1305r-713,1305r-187,0r-155,-1305r145,0r133,1166r627,-1166r150,0"},"W":{"d":"1174,-1305r-512,1305r-162,0r2,-637r-271,637r-159,0r43,-1305r145,0r-43,1074r279,-701r135,0r-17,701r412,-1074r148,0"},"X":{"d":"856,0r-371,0r25,-117r88,0r-115,-428r-297,428r88,0r-24,117r-371,0r25,-117r127,0r397,-540r-166,-531r-108,0r24,-117r373,0r-25,117r-108,0r112,418r287,-418r-104,0r24,-117r373,0r-25,117r-112,0r-385,531r166,540r127,0"},"Y":{"d":"1106,-1188r-107,0r-444,625r-94,446r211,0r-25,117r-559,0r25,-117r211,0r94,-446r-178,-625r-107,0r25,-117r368,0r-24,117r-109,0r123,492r330,-492r-109,0r25,-117r368,0"},"Z":{"d":"788,0r-837,0r24,-117r883,-1071r-539,0r-67,320r-117,0r92,-437r817,0r-24,117r-877,1071r553,0r68,-325r117,0"},"[":{"d":"567,373r-372,0r395,-1864r373,0r-23,111r-262,0r-348,1640r262,0"},"\\":{"d":"858,188r-108,52r-439,-1543r109,-51"},"]":{"d":"381,373r-373,0r25,-113r262,0r348,-1640r-262,0r22,-111r373,0"},"^":{"d":"768,-559r-96,0r-80,-498r-287,498r-96,0r344,-746r184,0"},"_":{"d":"979,186r-1116,0r24,-110r1117,0"},"`":{"d":"829,-1077r-53,65r-379,-243r88,-109"},"a":{"d":"680,-156v-102,95,-230,179,-412,179v-123,0,-211,-24,-264,-71v-53,-47,-70,-115,-51,-204v62,-296,459,-335,809,-291v11,-51,31,-131,8,-179v-35,-75,-120,-116,-219,-116v-153,0,-271,46,-377,103r-41,-103v148,-79,377,-153,590,-96v135,36,230,134,190,324r-129,610r-137,0xm737,-430v-218,-26,-483,-22,-598,89v-51,49,-75,134,-16,197v56,60,235,58,331,24v91,-33,167,-83,221,-144v46,-52,47,-96,62,-166"},"b":{"d":"266,-846v82,-58,176,-107,299,-108v147,-2,251,54,315,138v64,84,83,210,52,351v-48,219,-179,378,-372,452v-63,24,-131,36,-204,36v-113,-1,-193,-44,-252,-107r-16,84r-137,0r276,-1305r138,0xm133,-215v53,78,129,121,248,121v119,0,205,-47,271,-108v94,-87,165,-233,151,-410v-11,-143,-106,-225,-264,-226v-105,0,-206,42,-301,125"},"c":{"d":"412,-94v147,0,272,-67,342,-150r82,66v-99,113,-247,201,-449,201v-218,0,-360,-107,-395,-290v-27,-143,26,-297,83,-395v67,-118,165,-205,297,-256v112,-43,272,-54,368,4v44,26,83,62,96,117r28,-135r123,0r-78,373r-123,0v26,-134,-30,-220,-124,-259v-79,-33,-189,-23,-264,9v-139,59,-224,182,-261,344v-37,165,21,290,133,342v40,19,87,29,142,29"},"d":{"d":"575,-954v110,1,195,42,250,106r74,-340r-186,0r24,-117r324,0r-277,1305r-137,0r17,-86v-78,60,-177,108,-297,109v-285,3,-433,-191,-369,-488v47,-218,176,-379,370,-453v64,-24,134,-36,207,-36xm799,-715v-55,-78,-132,-123,-252,-123v-184,0,-291,102,-359,226v-57,104,-99,300,-25,412v44,66,116,109,226,108v105,0,206,-42,303,-125"},"e":{"d":"831,-178v-111,118,-237,200,-448,201v-149,1,-257,-54,-325,-137v-68,-84,-95,-203,-62,-351v49,-219,179,-378,372,-453v120,-47,297,-50,404,4v102,50,167,142,177,279v5,65,-1,138,-17,217r-805,0v-22,198,86,324,281,324v144,0,274,-71,342,-150xm811,-535v16,-195,-85,-303,-264,-303v-159,0,-258,83,-330,180v-27,38,-48,78,-63,123r657,0"},"f":{"d":"1087,-1200v-43,-6,-80,-10,-133,-10v-195,3,-284,102,-321,278r397,0r-24,117r-398,0r-147,698r211,0r-25,117r-559,0r25,-117r211,0r147,-698r-211,0r25,-117r211,0v54,-266,235,-421,563,-392v22,2,40,4,53,7"},"g":{"d":"571,-954v112,1,198,42,254,106r19,-84r137,0r-195,922v-42,194,-170,320,-347,378v-127,42,-313,36,-410,-25v-57,-36,-102,-85,-133,-150r108,-74v40,88,143,154,277,153v196,-2,333,-108,366,-278r23,-100v-99,72,-200,108,-303,108v-283,0,-434,-171,-369,-467v48,-218,178,-378,370,-453v64,-24,131,-36,203,-36xm799,-715v-55,-78,-134,-123,-254,-123v-184,0,-289,102,-357,226v-55,101,-97,301,-26,402v44,62,118,95,229,95v130,0,227,-51,305,-125"},"h":{"d":"784,0r-137,0r121,-575v35,-168,-14,-264,-174,-263v-117,2,-204,61,-268,128v-70,73,-126,178,-150,292r-88,418r-137,0r276,-1305r138,0r-129,607v102,-171,238,-256,407,-256v229,0,315,126,262,379"},"i":{"d":"698,-1118r-186,0r39,-187r186,0xm647,0r-559,0r25,-117r211,0r147,-698r-211,0r25,-117r348,0r-172,815r211,0"},"j":{"d":"885,-1118r-187,0r39,-187r187,0xm-16,121v26,97,86,158,206,158v192,0,261,-120,295,-279r172,-815r-211,0r25,-117r348,0r-196,932v-47,223,-199,395,-459,395v-164,0,-263,-67,-297,-202"},"k":{"d":"831,0r-194,0r-293,-418r-201,154r-55,264r-137,0r276,-1305r138,0r-187,875r637,-502r197,0r-557,428"},"l":{"d":"647,0r-559,0r25,-117r211,0r227,-1071r-211,0r25,-117r348,0r-252,1188r211,0"},"m":{"d":"834,0r-138,0r142,-670v19,-94,5,-168,-74,-168v-52,0,-96,27,-132,82v-36,55,-64,131,-85,230r-111,526r-137,0r141,-670v21,-94,4,-168,-75,-168v-76,0,-114,51,-145,103v-34,58,-55,136,-70,209r-111,526r-137,0r196,-932r138,0r-29,135v52,-105,126,-157,221,-157v91,0,143,46,156,137v65,-91,140,-137,223,-137v165,1,207,101,168,284"},"n":{"d":"784,0r-137,0r121,-575v35,-168,-14,-264,-174,-263v-117,2,-204,61,-268,128v-70,73,-126,178,-150,292r-88,418r-137,0r196,-932r138,0r-49,234v102,-171,238,-256,407,-256v229,0,315,126,262,379"},"o":{"d":"964,-660v24,148,-28,298,-86,395v-70,116,-172,202,-306,252v-121,45,-286,49,-400,0v-153,-66,-243,-224,-192,-450v50,-221,187,-381,384,-455v122,-46,287,-50,400,0v105,47,180,131,200,258xm668,-199v99,-87,180,-233,158,-411v-17,-141,-118,-228,-281,-228v-187,0,-302,104,-374,228v-61,104,-99,304,-19,411v47,63,125,106,235,105v120,0,213,-46,281,-105"},"p":{"d":"354,23v-111,-1,-191,-44,-250,-107r-96,457r-135,0r274,-1305r138,0r-19,86v101,-72,200,-108,297,-108v283,-1,432,193,369,489v-46,220,-180,377,-374,452v-63,24,-131,36,-204,36xm133,-215v53,78,127,121,246,121v120,0,206,-48,273,-108v70,-64,120,-156,143,-263v22,-102,14,-199,-31,-265v-44,-65,-118,-110,-227,-108v-130,2,-218,50,-297,123"},"q":{"d":"664,-84v-78,60,-175,107,-295,107v-217,0,-347,-106,-379,-290v-25,-143,27,-297,86,-395v98,-164,251,-292,502,-292v97,0,179,36,247,108r19,-86r137,0r-276,1305r-138,0xm799,-715v-56,-78,-128,-123,-248,-123v-119,0,-208,47,-273,108v-69,64,-119,158,-141,265v-44,213,42,374,256,371v131,-2,216,-48,299,-121"},"r":{"d":"952,-801v-85,-47,-233,-49,-326,-1v-142,74,-251,209,-288,384r-64,301r211,0r-24,117r-559,0r24,-117r211,0r148,-698r-211,0r24,-117r348,0r-49,234v124,-205,279,-285,534,-247v33,6,63,17,89,32"},"s":{"d":"858,-737v-97,-86,-242,-116,-416,-93v-73,10,-141,36,-188,74v-25,20,-41,44,-47,74v-12,61,28,85,73,102v183,68,478,31,572,190v19,33,21,77,10,132v-22,112,-100,180,-192,222v-151,68,-384,79,-558,22v-78,-25,-145,-57,-198,-97r86,-118v108,76,215,135,381,135v206,0,322,-53,344,-160v12,-61,-27,-87,-73,-104v-184,-67,-478,-31,-571,-192v-19,-33,-25,-78,-11,-132v50,-197,251,-269,495,-272v163,-2,281,39,371,110"},"t":{"d":"498,-94v147,0,263,-107,299,-228r108,25v-53,178,-215,320,-432,320v-212,0,-338,-137,-289,-365r101,-473r-211,0r24,-117r211,0r80,-373r137,0r-80,373r398,0r-25,117r-397,0r-100,473v-23,107,13,193,84,228v25,13,56,20,92,20"},"u":{"d":"147,-932r138,0r-123,576v-32,168,13,263,174,262v117,-2,206,-61,270,-128v71,-74,126,-178,150,-292r88,-418r137,0r-197,932r-137,0r49,-233v-102,171,-238,256,-407,256v-229,0,-317,-126,-264,-379"},"v":{"d":"1061,-932r-600,932r-185,0r-208,-932r163,0r160,817r506,-817r164,0"},"w":{"d":"1061,-932r-385,932r-160,0r-6,-684r-285,684r-159,0r6,-932r145,0r-22,746r303,-746r135,0r-8,746r293,-746r143,0"},"x":{"d":"856,0r-385,0r25,-121r82,0r-127,-270r-240,270r76,0r-25,121r-381,0r25,-121r145,0r332,-352r-176,-336r-135,0r26,-123r383,0r-26,123r-86,0r116,254r226,-254r-95,0r27,-123r387,0r-26,123r-132,0r-315,336r180,352r144,0"},"y":{"d":"-125,242v68,34,202,61,257,4v58,-59,101,-147,149,-219r-213,-959r161,0r164,815r502,-815r164,0r-752,1168v-65,113,-153,159,-301,159v-64,0,-125,-12,-182,-35"},"z":{"d":"788,0r-839,0r24,-117r783,-698r-516,0r-54,256r-116,0r77,-373r816,0r-25,117r-782,698r540,0r54,-256r116,0"},"{":{"d":"565,373v-75,0,-148,3,-201,-21v-88,-40,-138,-131,-110,-262r90,-424v25,-112,-25,-168,-149,-168r22,-112v124,0,200,-56,223,-168r90,-430v31,-126,109,-214,222,-258v61,-24,129,-21,209,-21r-23,111r-92,0v-113,0,-184,56,-207,168r-90,430v-23,83,-79,153,-145,196v-24,16,-50,25,-76,29v75,14,112,77,127,151v4,24,3,49,-2,72r-91,424v-23,113,23,170,136,170r92,0"},"|":{"d":"395,186r-137,0r356,-1677r138,0"},"}":{"d":"752,-502v-123,0,-198,56,-222,168r-90,426v-26,129,-112,216,-223,260v-60,25,-130,21,-209,21r25,-113r92,0v112,0,180,-56,203,-168r90,-426v23,-83,79,-156,147,-196v25,-14,49,-23,74,-27v-72,-17,-117,-76,-128,-154v-3,-25,-2,-48,3,-71r90,-430v25,-112,-19,-168,-131,-168r-92,0r22,-111v75,0,148,-4,201,21v86,40,140,127,113,258r-90,430v-25,112,24,168,147,168"},"~":{"d":"618,-582v28,34,87,28,120,0v76,-63,109,-180,149,-286r131,14v-47,165,-123,311,-253,389v-63,38,-159,44,-220,9v-70,-40,-88,-130,-118,-208v-15,-41,-35,-81,-87,-81v-62,0,-95,44,-124,88v-39,61,-64,140,-91,219r-133,-15v50,-161,123,-312,252,-389v62,-37,160,-43,221,-8v70,41,94,128,121,209v8,23,19,43,32,59"},"\u00a0":{},"\u00a1":{"d":"463,0r250,-938r82,0r-148,938r-184,0xm737,-1305r187,0r-39,187r-187,0"},"\u00a2":{"d":"494,-279v132,-11,237,-70,307,-149r82,66v-95,107,-231,189,-414,200r-33,162r-137,0r35,-170v-214,-38,-346,-216,-287,-481v44,-196,160,-339,319,-422v53,-27,111,-46,173,-57r36,-175r138,0r-35,166v164,6,275,84,328,199r-111,66v-37,-84,-126,-142,-242,-148xm512,-1010v-169,39,-291,186,-328,359v-39,187,33,322,176,360"},"\u00a3":{"d":"940,-281v-111,169,-298,281,-551,281r-438,0r24,-117v48,-1,92,3,123,-17v47,-30,83,-84,97,-145r67,-315r-186,0r24,-117r187,0r57,-264v33,-155,123,-271,258,-325v70,-28,166,-39,239,-10v88,35,139,113,140,235r-131,28v-5,-105,-35,-163,-129,-163v-146,0,-211,103,-240,235r-57,264r186,0r-24,117r-187,0r-57,270v-17,95,-67,172,-135,207r207,0v180,0,323,-74,430,-223"},"\u00a4":{"d":"610,-1141v124,0,223,40,287,101r143,-117r64,78r-143,116v48,82,61,192,36,314v-27,126,-89,233,-166,311r91,115r-97,78r-92,-113v-87,58,-196,95,-332,96v-127,0,-223,-39,-290,-100r-140,117r-61,-78r139,-117v-47,-83,-57,-189,-31,-309v27,-123,81,-227,164,-312r-90,-118r94,-78r90,119v100,-69,211,-103,334,-103xm580,-308v180,-72,309,-243,285,-488v-14,-142,-116,-228,-279,-228v-188,0,-303,105,-376,228v-61,103,-95,303,-18,411v46,64,127,105,236,104v55,0,105,-9,152,-27"},"\u00a5":{"d":"920,-408r-398,0r-86,408r-135,0r86,-408r-399,0r24,-120r400,0r8,-35r-64,-215r-290,0r26,-121r230,0r-119,-406r153,0r162,596r2,0r416,-596r154,0r-291,406r225,0r-27,121r-286,0r-156,215r-8,35r397,0"},"\u00a6":{"d":"395,186r-137,0r160,-745r137,0xm594,-745r-137,0r157,-746r138,0"},"\u00a7":{"d":"92,-211v0,190,112,283,305,281v129,-1,223,-56,281,-133v43,-57,70,-178,19,-243v-94,-120,-296,-149,-427,-234v-46,-30,-85,-67,-110,-112v-52,-93,-9,-244,46,-318v32,-43,74,-84,130,-120v-64,-53,-111,-126,-82,-253v37,-165,156,-262,310,-309v98,-29,214,-32,310,-2v138,44,236,145,220,335r-133,21v8,-179,-85,-261,-263,-261v-117,0,-206,46,-262,115v-41,51,-75,162,-17,219v105,105,305,138,429,229v87,63,158,148,121,308v-25,109,-85,196,-170,258v55,57,89,134,61,254v-40,170,-165,282,-324,336v-158,54,-358,18,-453,-61v-71,-59,-125,-147,-124,-277xm453,-1018v-88,40,-148,94,-170,187v-11,49,-4,88,21,119v88,107,272,134,398,208v58,-40,110,-97,127,-172v26,-114,-37,-171,-103,-216v-76,-51,-187,-82,-273,-126"},"\u00a8":{"d":"885,-1118r-187,0r39,-187r187,0xm512,-1118r-186,0r39,-187r186,0"},"\u00a9":{"d":"881,-530v-86,98,-197,147,-334,147v-209,0,-331,-137,-285,-362v33,-162,140,-278,282,-335v48,-19,100,-28,156,-28v137,0,227,49,271,147r-121,72v-23,-67,-81,-100,-174,-100v-146,-1,-243,117,-270,244v-29,137,32,243,167,243v93,0,165,-33,215,-100xm1182,-966v36,169,-18,323,-88,434v-84,132,-207,240,-358,302v-135,57,-300,64,-434,6v-122,-52,-210,-152,-244,-290v-17,-68,-16,-144,3,-229v36,-163,135,-303,248,-397v107,-90,254,-165,432,-165v160,0,283,68,357,161v40,50,69,109,84,178xm1036,-549v64,-98,113,-233,82,-385v-25,-125,-102,-214,-207,-265v-114,-56,-262,-50,-385,-1v-134,54,-245,146,-320,262v-39,60,-66,125,-79,195v-46,227,50,383,203,455v114,52,262,48,384,0v134,-53,247,-145,322,-261"},"\u00aa":{"d":"199,-1235v111,-69,300,-113,473,-75v72,16,129,56,154,119v12,31,14,68,5,112r-110,520r-141,0r22,-111v-95,86,-199,129,-311,129v-119,0,-207,-38,-235,-126v-26,-83,16,-164,59,-211v97,-108,278,-149,486,-136r73,10v7,-42,30,-97,8,-136v-25,-45,-85,-66,-152,-66v-132,0,-211,25,-301,80xm649,-893v-122,-19,-264,-15,-356,23v-55,22,-89,59,-98,110v-13,71,42,104,120,103v126,-2,225,-46,289,-107v37,-36,31,-77,45,-129xm655,-256r-700,0r25,-117r700,0"},"\u00ab":{"d":"737,-229r-94,79r-256,-327r395,-330r62,80r-299,250xm367,-229r-97,79r-254,-327r394,-330r63,80r-301,250"},"\u00ac":{"d":"872,-186r-112,0r94,-447r-819,0r24,-112r932,0"},"\u00ad":{"d":"961,-606r-932,0r26,-117r932,0"},"\u00ae":{"d":"1217,-932v-56,245,-226,423,-443,513v-136,57,-301,64,-435,6v-122,-52,-209,-150,-241,-289v-39,-167,18,-338,90,-447v86,-131,209,-237,362,-298v138,-55,303,-61,433,-2v119,54,205,157,237,296v16,68,15,142,-3,221xm1071,-737v62,-97,115,-235,83,-384v-38,-180,-174,-304,-390,-304v-156,0,-284,64,-379,141v-102,83,-189,206,-221,352v-32,148,5,270,70,352v66,84,176,145,321,142v245,-6,414,-139,516,-299xm893,-596r-186,0r-123,-242r-35,0r-51,242r-144,0r144,-676r268,0v106,1,188,39,213,122v8,27,8,58,0,95v-22,108,-114,202,-238,211xm698,-948v75,1,127,-46,140,-107v14,-67,-23,-108,-95,-108r-125,0r-45,215r125,0"},"\u00af":{"d":"881,-1106r-559,0r24,-113r559,0"},"\u00b0":{"d":"136,-972v-37,-183,66,-323,168,-410v71,-60,167,-109,286,-109v161,0,268,92,294,229v36,189,-63,319,-166,407v-69,59,-170,110,-286,110v-163,0,-269,-91,-296,-227xm276,-1227v-35,55,-67,136,-48,219v23,101,98,170,223,170v140,0,237,-80,295,-170v34,-54,68,-133,48,-219v-23,-102,-99,-172,-223,-172v-142,0,-237,80,-295,172"},"\u00b1":{"d":"963,-608r-410,0r-90,422r-113,0r90,-422r-409,0r22,-113r410,0r88,-409r113,0r-89,409r410,0xm834,0r-932,0r22,-113r932,0"},"\u00b2":{"d":"555,-1276v71,60,41,167,-14,225v-61,64,-182,143,-262,215r147,0r16,-73r99,0r-35,164r-406,0r17,-78r303,-240v38,-31,59,-61,65,-88v12,-51,-34,-72,-82,-72v-76,0,-124,46,-143,138r-102,0v33,-155,121,-232,266,-232v56,0,100,14,131,41"},"\u00b3":{"d":"145,-1102v23,-125,125,-211,263,-213v110,-2,182,58,161,164v-10,51,-41,88,-90,111v93,75,49,193,-33,254v-46,35,-100,53,-161,53v-137,0,-199,-68,-187,-203r109,-14v-8,82,24,123,96,123v53,0,108,-41,117,-82v8,-37,2,-59,-19,-66v-9,-7,-37,-10,-82,-10r21,-100v71,0,111,-22,121,-66v11,-49,-13,-74,-72,-74v-75,0,-122,41,-139,123r-105,0"},"\u00b4":{"d":"879,-1255r-484,243r-24,-65r465,-287"},"\u00b5":{"d":"784,0r-137,0r49,-236v-101,173,-236,259,-407,259v-82,0,-147,-19,-195,-56r-86,406r-135,0r274,-1305r138,0r-121,574v-35,168,12,266,172,264v117,-2,206,-61,270,-128v71,-74,126,-178,150,-292r88,-418r137,0"},"\u00b6":{"d":"809,0r-137,0r119,-559r-236,0r-119,559r-137,0r119,-567v-239,-26,-336,-148,-289,-365v53,-249,247,-373,580,-373r376,0xm815,-682r109,-506r-236,0r-108,506r235,0xm549,-1178v-154,24,-250,105,-281,246v-30,134,30,214,176,240"},"\u00b7":{"d":"541,-385r-187,0r41,-186r187,0"},"\u00b8":{"d":"461,0v-23,115,-64,209,-142,276v-73,63,-157,95,-256,95r25,-117v135,0,218,-71,248,-213r10,-41r115,0"},"\u00b9":{"d":"449,-745r-289,0r18,-91r90,0r62,-290v-39,63,-116,126,-217,125r22,-99v91,-5,154,-60,197,-120v18,-25,30,-53,37,-85r108,0r-100,469r90,0"},"\u00ba":{"d":"868,-1092v34,195,-68,351,-176,443v-99,85,-297,145,-452,81v-125,-52,-199,-178,-160,-364v38,-180,156,-307,314,-366v96,-35,219,-38,310,0v87,35,147,107,164,206xm611,-732v75,-65,141,-176,120,-312v-16,-100,-85,-164,-201,-164v-131,0,-215,77,-269,164v-49,78,-76,232,-15,312v56,73,174,94,273,56v33,-13,64,-32,92,-56xm700,-256r-745,0r25,-117r745,0"},"\u00bb":{"d":"922,-477r-398,327r-61,-77r301,-250r-195,-250r95,-78xm547,-477r-393,327r-64,-77r301,-250r-194,-250r96,-78"},"\u00bc":{"d":"1102,-1272r-1110,1299r-82,-60r1114,-1302xm449,-745r-289,0r18,-91r90,0r62,-290v-39,63,-116,126,-217,125r22,-99v91,-5,154,-60,197,-120v18,-25,30,-53,37,-85r108,0r-100,469r90,0xm834,0r-287,0r18,-90r92,0r13,-60r-250,0r16,-75r316,-334r110,0r-67,317r90,0r-21,92r-90,0r-12,60r90,0xm690,-242r33,-159r-152,159r119,0"},"\u00bd":{"d":"1102,-1272r-1110,1299r-82,-60r1114,-1302xm883,-530v70,62,37,166,-17,225v-29,32,-113,94,-164,136r-96,79r148,0r16,-74r98,0r-34,164r-406,0r16,-78r301,-239v39,-32,62,-61,68,-89v10,-49,-33,-72,-82,-71v-77,0,-124,46,-143,137r-103,0v33,-154,122,-231,267,-231v56,0,100,14,131,41xm449,-745r-289,0r18,-91r90,0r62,-290v-39,63,-116,126,-217,125r22,-99v91,-5,154,-60,197,-120v18,-25,30,-53,37,-85r108,0r-100,469r90,0"},"\u00be":{"d":"145,-1102v23,-125,125,-211,263,-213v110,-2,182,58,161,164v-10,51,-41,88,-90,111v93,75,49,193,-33,254v-46,35,-100,53,-161,53v-137,0,-199,-68,-187,-203r109,-14v-8,82,24,123,96,123v53,0,108,-41,117,-82v8,-37,2,-59,-19,-66v-9,-7,-37,-10,-82,-10r21,-100v71,0,111,-22,121,-66v11,-49,-13,-74,-72,-74v-75,0,-122,41,-139,123r-105,0xm1102,-1272r-1110,1299r-82,-60r1114,-1302xm834,0r-287,0r18,-90r92,0r13,-60r-250,0r16,-75r316,-334r110,0r-67,317r90,0r-21,92r-90,0r-12,60r90,0xm690,-242r33,-159r-152,159r119,0"},"\u00bf":{"d":"737,-1305r187,0r-39,187r-187,0xm170,-283v21,-107,84,-179,152,-243v103,-96,238,-166,320,-282v27,-36,45,-77,54,-124r146,0v-23,109,-90,186,-157,254v-101,101,-235,179,-323,289v-26,33,-45,68,-53,106v-26,126,44,189,170,189v85,0,154,-25,207,-75v53,-50,93,-113,119,-189r119,18v-37,112,-96,201,-174,266v-78,65,-176,97,-293,97v-201,0,-327,-108,-287,-306"},"\u00c0":{"d":"909,-1450r-53,65r-379,-243r88,-109xm897,0r-147,0r-45,-373r-517,0r-198,373r-148,0r711,-1305r186,0xm692,-494r-76,-673r-362,673r438,0"},"\u00c1":{"d":"959,-1626r-484,243r-24,-65r465,-287xm897,0r-147,0r-45,-373r-517,0r-198,373r-148,0r711,-1305r186,0xm692,-494r-76,-673r-362,673r438,0"},"\u00c2":{"d":"975,-1452r-68,67r-198,-205r-289,207r-41,-65r358,-291xm897,0r-147,0r-45,-373r-517,0r-198,373r-148,0r711,-1305r186,0xm692,-494r-76,-673r-362,673r438,0"},"\u00c3":{"d":"1088,-1600v-82,105,-175,158,-279,158v-101,0,-137,-55,-191,-98v-15,-12,-35,-19,-61,-19v-68,0,-131,37,-190,111r-70,-47v83,-104,176,-156,279,-156v101,0,136,57,190,99v15,12,36,18,62,18v68,0,131,-38,190,-113xm897,0r-147,0r-45,-373r-517,0r-198,373r-148,0r711,-1305r186,0xm692,-494r-76,-673r-362,673r438,0"},"\u00c4":{"d":"965,-1489r-187,0r39,-187r187,0xm592,-1489r-186,0r39,-187r186,0xm897,0r-147,0r-45,-373r-517,0r-198,373r-148,0r711,-1305r186,0xm692,-494r-76,-673r-362,673r438,0"},"\u00c5":{"d":"522,-1251v-55,-35,-92,-105,-71,-199v22,-101,93,-172,181,-208v55,-22,124,-24,176,0v69,32,113,103,93,208v-18,90,-82,160,-156,197r152,1253r-147,0r-45,-373r-517,0r-198,373r-148,0xm692,-494r-76,-673r-362,673r438,0xm705,-1585v-77,0,-149,69,-164,135v-16,74,37,135,106,135v76,0,150,-69,164,-135v15,-74,-36,-135,-106,-135"},"\u00c6":{"d":"834,0r-506,0r78,-373r-234,0r-188,373r-146,0r672,-1305r600,0r-27,121r-366,0r-96,457r276,0r-27,121r-276,0r-102,483r366,0xm432,-494r139,-659r-335,659r196,0"},"\u00c7":{"d":"664,-1327v155,0,266,53,297,174r32,-152r117,0r-92,428r-117,0v24,-98,-4,-182,-47,-237v-43,-56,-119,-96,-215,-96v-158,1,-253,84,-325,181v-107,145,-172,343,-183,575v-7,137,29,246,105,310v39,34,94,50,165,50v163,0,297,-98,404,-295r108,47v-92,178,-237,326,-456,358v-22,109,-64,196,-138,260v-72,63,-157,95,-256,95r25,-117v142,2,228,-84,252,-234v-240,-16,-349,-176,-349,-426v0,-184,48,-358,109,-498v69,-158,175,-289,320,-366v71,-38,152,-57,244,-57"},"\u00c8":{"d":"909,-1450r-53,65r-379,-243r88,-109xm784,0r-833,0r276,-1305r834,0r-25,117r-696,0r-100,467r514,0r-25,117r-514,0r-102,487r696,0"},"\u00c9":{"d":"959,-1626r-484,243r-24,-65r465,-287xm784,0r-833,0r276,-1305r834,0r-25,117r-696,0r-100,467r514,0r-25,117r-514,0r-102,487r696,0"},"\u00ca":{"d":"975,-1452r-68,67r-198,-205r-289,207r-41,-65r358,-291xm784,0r-833,0r276,-1305r834,0r-25,117r-696,0r-100,467r514,0r-25,117r-514,0r-102,487r696,0"},"\u00cb":{"d":"965,-1489r-187,0r39,-187r187,0xm592,-1489r-186,0r39,-187r186,0xm784,0r-833,0r276,-1305r834,0r-25,117r-696,0r-100,467r514,0r-25,117r-514,0r-102,487r696,0"},"\u00cc":{"d":"909,-1450r-53,65r-379,-243r88,-109xm647,0r-559,0r25,-117r211,0r227,-1071r-211,0r25,-117r559,0r-25,117r-211,0r-227,1071r211,0"},"\u00cd":{"d":"959,-1626r-484,243r-24,-65r465,-287xm647,0r-559,0r25,-117r211,0r227,-1071r-211,0r25,-117r559,0r-25,117r-211,0r-227,1071r211,0"},"\u00ce":{"d":"975,-1452r-68,67r-198,-205r-289,207r-41,-65r358,-291xm647,0r-559,0r25,-117r211,0r227,-1071r-211,0r25,-117r559,0r-25,117r-211,0r-227,1071r211,0"},"\u00cf":{"d":"965,-1489r-187,0r39,-187r187,0xm592,-1489r-186,0r39,-187r186,0xm647,0r-559,0r25,-117r211,0r227,-1071r-211,0r25,-117r559,0r-25,117r-211,0r-227,1071r211,0"},"\u00d0":{"d":"1040,-900v0,292,-98,547,-244,708v-98,108,-230,192,-421,192r-424,0r127,-606r-166,0r27,-117r165,0r123,-582r424,0v181,-2,289,77,346,197v27,60,43,129,43,208xm877,-653v37,-171,33,-302,-11,-395v-44,-93,-124,-140,-239,-140r-287,0r-98,465r254,0r-27,117r-254,0r-102,489r286,0v115,0,214,-47,298,-140v84,-93,144,-225,180,-396"},"\u00d1":{"d":"1088,-1600v-82,105,-175,158,-279,158v-101,0,-137,-55,-191,-98v-15,-12,-35,-19,-61,-19v-68,0,-131,37,-190,111r-70,-47v83,-104,176,-156,279,-156v101,0,136,57,190,99v15,12,36,18,62,18v68,0,131,-38,190,-113xm784,0r-170,0r-292,-1104r-234,1104r-137,0r276,-1305r193,0r280,1053r224,-1053r137,0"},"\u00d2":{"d":"909,-1450r-53,65r-379,-243r88,-109xm991,-1120v89,224,16,532,-67,722v-69,158,-170,285,-316,364v-127,69,-351,78,-466,0v-106,-72,-162,-194,-164,-364v-2,-186,48,-364,109,-506v67,-158,177,-287,321,-366v127,-69,345,-79,460,0v56,38,97,87,123,150xm714,-274v107,-145,179,-378,179,-610v0,-192,-78,-326,-268,-326v-158,0,-255,84,-326,181v-106,146,-168,344,-181,575v-8,137,29,245,104,310v82,71,260,61,352,0v53,-35,101,-77,140,-130"},"\u00d3":{"d":"959,-1626r-484,243r-24,-65r465,-287xm991,-1120v89,224,16,532,-67,722v-69,158,-170,285,-316,364v-127,69,-351,78,-466,0v-106,-72,-162,-194,-164,-364v-2,-186,48,-364,109,-506v67,-158,177,-287,321,-366v127,-69,345,-79,460,0v56,38,97,87,123,150xm714,-274v107,-145,179,-378,179,-610v0,-192,-78,-326,-268,-326v-158,0,-255,84,-326,181v-106,146,-168,344,-181,575v-8,137,29,245,104,310v82,71,260,61,352,0v53,-35,101,-77,140,-130"},"\u00d4":{"d":"975,-1452r-68,67r-198,-205r-289,207r-41,-65r358,-291xm991,-1120v89,224,16,532,-67,722v-69,158,-170,285,-316,364v-127,69,-351,78,-466,0v-106,-72,-162,-194,-164,-364v-2,-186,48,-364,109,-506v67,-158,177,-287,321,-366v127,-69,345,-79,460,0v56,38,97,87,123,150xm714,-274v107,-145,179,-378,179,-610v0,-192,-78,-326,-268,-326v-158,0,-255,84,-326,181v-106,146,-168,344,-181,575v-8,137,29,245,104,310v82,71,260,61,352,0v53,-35,101,-77,140,-130"},"\u00d5":{"d":"1088,-1600v-82,105,-175,158,-279,158v-101,0,-137,-55,-191,-98v-15,-12,-35,-19,-61,-19v-68,0,-131,37,-190,111r-70,-47v83,-104,176,-156,279,-156v101,0,136,57,190,99v15,12,36,18,62,18v68,0,131,-38,190,-113xm991,-1120v89,224,16,532,-67,722v-69,158,-170,285,-316,364v-127,69,-351,78,-466,0v-106,-72,-162,-194,-164,-364v-2,-186,48,-364,109,-506v67,-158,177,-287,321,-366v127,-69,345,-79,460,0v56,38,97,87,123,150xm714,-274v107,-145,179,-378,179,-610v0,-192,-78,-326,-268,-326v-158,0,-255,84,-326,181v-106,146,-168,344,-181,575v-8,137,29,245,104,310v82,71,260,61,352,0v53,-35,101,-77,140,-130"},"\u00d6":{"d":"965,-1489r-187,0r39,-187r187,0xm592,-1489r-186,0r39,-187r186,0xm991,-1120v89,224,16,532,-67,722v-69,158,-170,285,-316,364v-127,69,-351,78,-466,0v-106,-72,-162,-194,-164,-364v-2,-186,48,-364,109,-506v67,-158,177,-287,321,-366v127,-69,345,-79,460,0v56,38,97,87,123,150xm714,-274v107,-145,179,-378,179,-610v0,-192,-78,-326,-268,-326v-158,0,-255,84,-326,181v-106,146,-168,344,-181,575v-8,137,29,245,104,310v82,71,260,61,352,0v53,-35,101,-77,140,-130"},"\u00d7":{"d":"940,-954r-354,290r229,291r-96,78r-227,-291r-353,291r-61,-78r350,-291r-225,-290r94,-78r227,291r353,-291"},"\u00d8":{"d":"362,23v-179,1,-280,-73,-337,-193r-162,141r35,-159r94,-84v-28,-126,-13,-254,14,-379v59,-271,184,-506,402,-619v71,-38,151,-57,241,-57v176,-1,281,77,336,197r166,-146r-35,160r-100,86v45,230,-19,462,-92,632v-68,159,-169,287,-316,364v-72,38,-154,57,-246,57xm137,-268v35,104,109,175,250,174v156,-1,255,-85,327,-180v74,-98,125,-240,154,-377v22,-100,30,-190,23,-271xm870,-1032v-35,-107,-111,-178,-245,-178v-158,0,-255,84,-326,181v-98,134,-155,312,-177,516v-5,46,-6,90,-4,132"},"\u00d9":{"d":"909,-1450r-53,65r-379,-243r88,-109xm883,-465v-48,213,-145,377,-328,453v-104,43,-277,46,-375,0v-144,-67,-173,-255,-131,-455r178,-838r138,0r-179,840v-14,76,-28,173,0,245v29,76,87,126,199,126v121,0,203,-58,257,-126v52,-63,84,-157,103,-245r179,-840r137,0"},"\u00da":{"d":"959,-1626r-484,243r-24,-65r465,-287xm883,-465v-48,213,-145,377,-328,453v-104,43,-277,46,-375,0v-144,-67,-173,-255,-131,-455r178,-838r138,0r-179,840v-14,76,-28,173,0,245v29,76,87,126,199,126v121,0,203,-58,257,-126v52,-63,84,-157,103,-245r179,-840r137,0"},"\u00db":{"d":"975,-1452r-68,67r-198,-205r-289,207r-41,-65r358,-291xm883,-465v-48,213,-145,377,-328,453v-104,43,-277,46,-375,0v-144,-67,-173,-255,-131,-455r178,-838r138,0r-179,840v-14,76,-28,173,0,245v29,76,87,126,199,126v121,0,203,-58,257,-126v52,-63,84,-157,103,-245r179,-840r137,0"},"\u00dc":{"d":"965,-1489r-187,0r39,-187r187,0xm592,-1489r-186,0r39,-187r186,0xm883,-465v-48,213,-145,377,-328,453v-104,43,-277,46,-375,0v-144,-67,-173,-255,-131,-455r178,-838r138,0r-179,840v-14,76,-28,173,0,245v29,76,87,126,199,126v121,0,203,-58,257,-126v52,-63,84,-157,103,-245r179,-840r137,0"},"\u00dd":{"d":"959,-1626r-484,243r-24,-65r465,-287xm1106,-1188r-107,0r-444,625r-94,446r211,0r-25,117r-559,0r25,-117r211,0r94,-446r-178,-625r-107,0r25,-117r368,0r-24,117r-109,0r123,492r330,-492r-109,0r25,-117r368,0"},"\u00de":{"d":"971,-664v-53,249,-245,373,-578,373r-243,0r-62,291r-137,0r276,-1305r138,0r-58,269r244,0v333,0,473,124,420,372xm418,-406v227,1,375,-79,413,-258v37,-169,-64,-254,-305,-254r-243,0r-109,512r244,0"},"\u00df":{"d":"291,-190v53,59,106,96,209,96v129,0,230,-63,252,-176v16,-81,-26,-124,-70,-159v-72,-57,-183,-88,-226,-173v-34,-68,5,-165,46,-202v55,-50,118,-89,174,-138v49,-43,77,-148,38,-218v-35,-62,-191,-59,-258,-20v-111,63,-160,192,-190,334r-178,846r-137,0r178,-844v25,-113,67,-235,132,-318v73,-92,181,-167,347,-165v142,1,239,57,262,173v18,91,-20,196,-63,245v-53,60,-112,95,-175,140v-39,27,-70,73,-26,109v96,78,244,122,282,260v24,87,-6,188,-49,246v-75,101,-196,177,-364,177v-138,0,-211,-41,-285,-109"},"\u00e0":{"d":"829,-1077r-53,65r-379,-243r88,-109xm682,-156v-102,95,-230,179,-412,179v-123,0,-211,-24,-264,-71v-53,-47,-70,-115,-51,-204v62,-296,459,-335,809,-291v11,-51,31,-131,8,-179v-35,-75,-120,-116,-219,-116v-153,0,-271,46,-377,103r-41,-103v148,-79,377,-153,590,-96v135,36,230,134,190,324r-129,610r-137,0xm739,-430v-218,-26,-483,-22,-598,89v-51,49,-75,134,-16,197v56,60,235,58,331,24v91,-33,167,-83,221,-144v46,-52,47,-96,62,-166"},"\u00e1":{"d":"879,-1254r-484,243r-24,-65r465,-287xm682,-156v-102,95,-230,179,-412,179v-123,0,-211,-24,-264,-71v-53,-47,-70,-115,-51,-204v62,-296,459,-335,809,-291v11,-51,31,-131,8,-179v-35,-75,-120,-116,-219,-116v-153,0,-271,46,-377,103r-41,-103v148,-79,377,-153,590,-96v135,36,230,134,190,324r-129,610r-137,0xm739,-430v-218,-26,-483,-22,-598,89v-51,49,-75,134,-16,197v56,60,235,58,331,24v91,-33,167,-83,221,-144v46,-52,47,-96,62,-166"},"\u00e2":{"d":"895,-1080r-68,67r-198,-205r-289,207r-41,-65r358,-291xm682,-156v-102,95,-230,179,-412,179v-123,0,-211,-24,-264,-71v-53,-47,-70,-115,-51,-204v62,-296,459,-335,809,-291v11,-51,31,-131,8,-179v-35,-75,-120,-116,-219,-116v-153,0,-271,46,-377,103r-41,-103v148,-79,377,-153,590,-96v135,36,230,134,190,324r-129,610r-137,0xm739,-430v-218,-26,-483,-22,-598,89v-51,49,-75,134,-16,197v56,60,235,58,331,24v91,-33,167,-83,221,-144v46,-52,47,-96,62,-166"},"\u00e3":{"d":"1008,-1228v-82,105,-175,158,-279,158v-101,0,-137,-55,-191,-98v-15,-12,-35,-19,-61,-19v-68,0,-131,37,-190,111r-70,-47v83,-104,176,-156,279,-156v101,0,136,57,190,99v15,12,36,18,62,18v68,0,131,-38,190,-113xm682,-156v-102,95,-230,179,-412,179v-123,0,-211,-24,-264,-71v-53,-47,-70,-115,-51,-204v62,-296,459,-335,809,-291v11,-51,31,-131,8,-179v-35,-75,-120,-116,-219,-116v-153,0,-271,46,-377,103r-41,-103v148,-79,377,-153,590,-96v135,36,230,134,190,324r-129,610r-137,0xm739,-430v-218,-26,-483,-22,-598,89v-51,49,-75,134,-16,197v56,60,235,58,331,24v91,-33,167,-83,221,-144v46,-52,47,-96,62,-166"},"\u00e4":{"d":"885,-1118r-187,0r39,-187r187,0xm512,-1118r-186,0r39,-187r186,0xm682,-156v-102,95,-230,179,-412,179v-123,0,-211,-24,-264,-71v-53,-47,-70,-115,-51,-204v62,-296,459,-335,809,-291v11,-51,31,-131,8,-179v-35,-75,-120,-116,-219,-116v-153,0,-271,46,-377,103r-41,-103v148,-79,377,-153,590,-96v135,36,230,134,190,324r-129,610r-137,0xm739,-430v-218,-26,-483,-22,-598,89v-51,49,-75,134,-16,197v56,60,235,58,331,24v91,-33,167,-83,221,-144v46,-52,47,-96,62,-166"},"\u00e5":{"d":"682,-156v-102,95,-230,179,-412,179v-123,0,-211,-24,-264,-71v-53,-47,-70,-115,-51,-204v62,-296,459,-335,809,-291v11,-51,31,-131,8,-179v-35,-75,-120,-116,-219,-116v-153,0,-271,46,-377,103r-41,-103v148,-79,377,-153,590,-96v135,36,230,134,190,324r-129,610r-137,0xm739,-430v-218,-26,-483,-22,-598,89v-51,49,-75,134,-16,197v56,60,235,58,331,24v91,-33,167,-83,221,-144v46,-52,47,-96,62,-166xm408,-1168v-21,-111,39,-194,101,-248v58,-50,168,-91,258,-48v68,33,115,102,93,208v-21,101,-93,172,-181,208v-55,23,-124,25,-176,0v-49,-23,-84,-62,-95,-120xm664,-1392v-77,0,-149,69,-164,136v-16,74,37,135,106,135v77,0,150,-69,164,-135v16,-74,-37,-136,-106,-136"},"\u00e6":{"d":"569,23v-107,-1,-183,-81,-184,-193v-41,76,-108,141,-192,176v-29,12,-60,17,-93,17v-153,4,-213,-120,-182,-277v30,-152,132,-248,272,-288v70,-19,143,-22,218,-11v13,-68,43,-160,14,-229v-16,-38,-47,-58,-94,-58v-27,0,-59,12,-96,36v-37,24,-72,56,-103,95r-68,-84v58,-71,137,-127,232,-152v122,-32,235,17,239,138v48,-89,147,-144,263,-147v246,-7,190,348,149,536r-428,0v-23,111,-27,191,-12,240v15,49,48,74,100,74v84,0,129,-53,164,-123r109,37v-39,72,-82,125,-131,160v-49,35,-108,53,-177,53xm821,-539v23,-109,30,-186,19,-232v-11,-46,-41,-69,-88,-69v-44,0,-84,22,-120,66v-36,44,-66,123,-91,235r280,0xm383,-438v-169,-24,-303,47,-330,194v-14,74,13,144,88,140v88,-5,144,-60,181,-120v36,-59,43,-139,61,-214"},"\u00e7":{"d":"412,-94v147,0,272,-67,342,-150r82,66v-90,102,-214,178,-379,196v-23,107,-65,195,-138,258v-73,63,-157,95,-256,95r25,-117v142,2,228,-84,252,-234v-253,-19,-403,-199,-340,-485v48,-218,178,-378,372,-453v112,-43,272,-54,368,4v44,26,83,62,96,117r28,-135r123,0r-78,373r-123,0v26,-134,-30,-220,-124,-259v-79,-33,-189,-23,-264,9v-139,59,-224,182,-261,344v-37,165,21,290,133,342v40,19,87,29,142,29"},"\u00e8":{"d":"829,-1077r-53,65r-379,-243r88,-109xm831,-178v-111,118,-237,200,-448,201v-149,1,-257,-54,-325,-137v-68,-84,-95,-203,-62,-351v49,-219,179,-378,372,-453v120,-47,297,-50,404,4v102,50,167,142,177,279v5,65,-1,138,-17,217r-805,0v-22,198,86,324,281,324v144,0,274,-71,342,-150xm811,-535v16,-195,-85,-303,-264,-303v-159,0,-258,83,-330,180v-27,38,-48,78,-63,123r657,0"},"\u00e9":{"d":"879,-1254r-484,243r-24,-65r465,-287xm831,-178v-111,118,-237,200,-448,201v-149,1,-257,-54,-325,-137v-68,-84,-95,-203,-62,-351v49,-219,179,-378,372,-453v120,-47,297,-50,404,4v102,50,167,142,177,279v5,65,-1,138,-17,217r-805,0v-22,198,86,324,281,324v144,0,274,-71,342,-150xm811,-535v16,-195,-85,-303,-264,-303v-159,0,-258,83,-330,180v-27,38,-48,78,-63,123r657,0"},"\u00ea":{"d":"895,-1080r-68,67r-198,-205r-289,207r-41,-65r358,-291xm831,-178v-111,118,-237,200,-448,201v-149,1,-257,-54,-325,-137v-68,-84,-95,-203,-62,-351v49,-219,179,-378,372,-453v120,-47,297,-50,404,4v102,50,167,142,177,279v5,65,-1,138,-17,217r-805,0v-22,198,86,324,281,324v144,0,274,-71,342,-150xm811,-535v16,-195,-85,-303,-264,-303v-159,0,-258,83,-330,180v-27,38,-48,78,-63,123r657,0"},"\u00eb":{"d":"885,-1118r-187,0r39,-187r187,0xm512,-1118r-186,0r39,-187r186,0xm831,-178v-111,118,-237,200,-448,201v-149,1,-257,-54,-325,-137v-68,-84,-95,-203,-62,-351v49,-219,179,-378,372,-453v120,-47,297,-50,404,4v102,50,167,142,177,279v5,65,-1,138,-17,217r-805,0v-22,198,86,324,281,324v144,0,274,-71,342,-150xm811,-535v16,-195,-85,-303,-264,-303v-159,0,-258,83,-330,180v-27,38,-48,78,-63,123r657,0"},"\u00ec":{"d":"829,-1077r-53,65r-379,-243r88,-109xm647,0r-559,0r25,-117r211,0r147,-694r-211,0r25,-121r348,0r-172,815r211,0"},"\u00ed":{"d":"879,-1254r-484,243r-24,-65r465,-287xm647,0r-559,0r25,-117r211,0r147,-694r-211,0r25,-121r348,0r-172,815r211,0"},"\u00ee":{"d":"895,-1080r-68,67r-198,-205r-289,207r-41,-65r358,-291xm647,0r-559,0r25,-117r211,0r147,-694r-211,0r25,-121r348,0r-172,815r211,0"},"\u00ef":{"d":"885,-1118r-187,0r39,-187r187,0xm512,-1118r-186,0r39,-187r186,0xm647,0r-559,0r25,-117r211,0r147,-694r-211,0r25,-121r348,0r-172,815r211,0"},"\u00f0":{"d":"535,-1137v-47,-30,-102,-52,-158,-73r69,-117v73,30,139,63,199,98r174,-143r62,80r-148,123v130,96,235,223,248,427v17,265,-97,487,-243,614v-101,89,-235,150,-412,151v-137,0,-240,-33,-308,-97v-68,-64,-90,-157,-63,-280v34,-158,154,-255,289,-328v155,-83,355,-137,565,-170v-37,-98,-107,-166,-184,-227r-222,182r-61,-80xm520,-126v191,-81,302,-266,322,-516v3,-33,0,-66,-4,-97v-269,31,-519,103,-667,247v-42,41,-69,87,-79,138v-34,169,84,260,258,260v61,0,118,-11,170,-32"},"\u00f1":{"d":"1008,-1228v-82,105,-175,158,-279,158v-101,0,-137,-55,-191,-98v-15,-12,-35,-19,-61,-19v-68,0,-131,37,-190,111r-70,-47v83,-104,176,-156,279,-156v101,0,136,57,190,99v15,12,36,18,62,18v68,0,131,-38,190,-113xm784,0r-137,0r121,-575v35,-168,-14,-264,-174,-263v-117,2,-204,61,-268,128v-70,73,-126,178,-150,292r-88,418r-137,0r196,-932r138,0r-49,234v102,-171,238,-256,407,-256v229,0,315,126,262,379"},"\u00f2":{"d":"829,-1077r-53,65r-379,-243r88,-109xm964,-660v24,148,-28,298,-86,395v-70,116,-172,202,-306,252v-121,45,-286,49,-400,0v-153,-66,-243,-224,-192,-450v50,-221,187,-381,384,-455v122,-46,287,-50,400,0v105,47,180,131,200,258xm668,-199v99,-87,180,-233,158,-411v-17,-141,-118,-228,-281,-228v-187,0,-302,104,-374,228v-61,104,-99,304,-19,411v47,63,125,106,235,105v120,0,213,-46,281,-105"},"\u00f3":{"d":"879,-1254r-484,243r-24,-65r465,-287xm964,-660v24,148,-28,298,-86,395v-70,116,-172,202,-306,252v-121,45,-286,49,-400,0v-153,-66,-243,-224,-192,-450v50,-221,187,-381,384,-455v122,-46,287,-50,400,0v105,47,180,131,200,258xm668,-199v99,-87,180,-233,158,-411v-17,-141,-118,-228,-281,-228v-187,0,-302,104,-374,228v-61,104,-99,304,-19,411v47,63,125,106,235,105v120,0,213,-46,281,-105"},"\u00f4":{"d":"895,-1080r-68,67r-198,-205r-289,207r-41,-65r358,-291xm964,-660v24,148,-28,298,-86,395v-70,116,-172,202,-306,252v-121,45,-286,49,-400,0v-153,-66,-243,-224,-192,-450v50,-221,187,-381,384,-455v122,-46,287,-50,400,0v105,47,180,131,200,258xm668,-199v99,-87,180,-233,158,-411v-17,-141,-118,-228,-281,-228v-187,0,-302,104,-374,228v-61,104,-99,304,-19,411v47,63,125,106,235,105v120,0,213,-46,281,-105"},"\u00f5":{"d":"1008,-1228v-82,105,-175,158,-279,158v-101,0,-137,-55,-191,-98v-15,-12,-35,-19,-61,-19v-68,0,-131,37,-190,111r-70,-47v83,-104,176,-156,279,-156v101,0,136,57,190,99v15,12,36,18,62,18v68,0,131,-38,190,-113xm964,-660v24,148,-28,298,-86,395v-70,116,-172,202,-306,252v-121,45,-286,49,-400,0v-153,-66,-243,-224,-192,-450v50,-221,187,-381,384,-455v122,-46,287,-50,400,0v105,47,180,131,200,258xm668,-199v99,-87,180,-233,158,-411v-17,-141,-118,-228,-281,-228v-187,0,-302,104,-374,228v-61,104,-99,304,-19,411v47,63,125,106,235,105v120,0,213,-46,281,-105"},"\u00f6":{"d":"885,-1118r-187,0r39,-187r187,0xm512,-1118r-186,0r39,-187r186,0xm964,-660v24,148,-28,298,-86,395v-70,116,-172,202,-306,252v-121,45,-286,49,-400,0v-153,-66,-243,-224,-192,-450v50,-221,187,-381,384,-455v122,-46,287,-50,400,0v105,47,180,131,200,258xm668,-199v99,-87,180,-233,158,-411v-17,-141,-118,-228,-281,-228v-187,0,-302,104,-374,228v-61,104,-99,304,-19,411v47,63,125,106,235,105v120,0,213,-46,281,-105"},"\u00f7":{"d":"659,-944r-186,0r41,-186r186,0xm502,-199r-187,0r39,-186r187,0xm961,-606r-932,0r26,-117r932,0"},"\u00f8":{"d":"362,23v-152,0,-263,-54,-329,-142r-174,119r26,-119r105,-74v-56,-152,-3,-355,66,-467v72,-117,173,-208,308,-258v66,-24,135,-36,207,-36v153,0,261,55,328,143r176,-121r-24,119r-111,76v62,154,8,360,-62,472v-72,115,-172,203,-306,252v-66,24,-136,36,-210,36xm152,-201v48,64,122,109,235,107v186,-3,304,-99,376,-222v48,-81,89,-222,52,-337xm780,-731v-49,-63,-124,-109,-235,-107v-187,3,-303,104,-374,228v-45,78,-86,222,-56,331"},"\u00f9":{"d":"829,-1079r-53,65r-379,-243r88,-109xm147,-932r138,0r-123,576v-32,168,13,263,174,262v117,-2,206,-61,270,-128v71,-74,126,-178,150,-292r88,-418r137,0r-197,932r-137,0r49,-233v-102,171,-238,256,-407,256v-229,0,-317,-126,-264,-379"},"\u00fa":{"d":"879,-1255r-484,243r-24,-65r465,-287xm147,-932r138,0r-123,576v-32,168,13,263,174,262v117,-2,206,-61,270,-128v71,-74,126,-178,150,-292r88,-418r137,0r-197,932r-137,0r49,-233v-102,171,-238,256,-407,256v-229,0,-317,-126,-264,-379"},"\u00fb":{"d":"895,-1081r-68,67r-198,-205r-289,207r-41,-65r358,-291xm147,-932r138,0r-123,576v-32,168,13,263,174,262v117,-2,206,-61,270,-128v71,-74,126,-178,150,-292r88,-418r137,0r-197,932r-137,0r49,-233v-102,171,-238,256,-407,256v-229,0,-317,-126,-264,-379"},"\u00fc":{"d":"885,-1118r-187,0r39,-187r187,0xm512,-1118r-186,0r39,-187r186,0xm147,-932r138,0r-123,576v-32,168,13,263,174,262v117,-2,206,-61,270,-128v71,-74,126,-178,150,-292r88,-418r137,0r-197,932r-137,0r49,-233v-102,171,-238,256,-407,256v-229,0,-317,-126,-264,-379"},"\u00fd":{"d":"879,-1255r-484,243r-24,-65r465,-287xm-125,242v68,34,202,61,257,4v58,-59,101,-147,149,-219r-213,-959r161,0r164,815r502,-815r164,0r-752,1168v-65,113,-153,159,-301,159v-64,0,-125,-12,-182,-35"},"\u00fe":{"d":"942,-668v23,144,-27,306,-84,401v-98,163,-251,292,-502,292v-99,0,-184,-33,-254,-99r-94,447r-135,0r354,-1678r138,0r-97,449v99,-65,198,-98,297,-98v214,2,348,101,377,286xm652,-194v93,-94,167,-243,152,-422v-12,-144,-103,-225,-263,-226v-104,0,-204,42,-301,127r-107,500v60,86,142,129,246,129v119,-1,209,-45,273,-108"},"\u00ff":{"d":"885,-1118r-187,0r39,-187r187,0xm512,-1118r-186,0r39,-187r186,0xm-125,242v68,34,202,61,257,4v58,-59,101,-147,149,-219r-213,-959r161,0r164,815r502,-815r164,0r-752,1168v-65,113,-153,159,-301,159v-64,0,-125,-12,-182,-35"},"\u0152":{"d":"520,-1054v0,-84,-15,-156,-88,-156v-31,0,-61,13,-85,41v-103,120,-142,325,-185,518v-30,133,-57,265,-57,401v0,84,15,156,90,156v31,0,61,-13,85,-41v102,-120,138,-324,181,-516v30,-133,59,-268,59,-403xm457,-1327v108,0,123,58,141,156r29,-134r483,0r-25,117r-372,0r-101,467r283,0r-25,117r-282,0r-103,487r373,0r-24,117r-484,0r27,-133v-30,53,-60,93,-89,118v-29,25,-69,38,-118,38v-191,0,-240,-225,-145,-674v95,-451,239,-676,432,-676"},"\u0153":{"d":"604,-104v86,0,122,-51,156,-127r117,41v-75,142,-175,213,-299,213v-119,0,-181,-67,-185,-201v-57,134,-143,201,-256,201v-184,0,-243,-163,-174,-488v69,-326,198,-489,383,-489v109,0,165,65,168,194v30,-65,66,-114,110,-146v44,-32,94,-48,150,-48v191,-3,223,163,201,358v-7,63,-18,122,-31,178r-428,0v-23,111,-27,191,-12,240v15,49,48,74,100,74xm821,-539v22,-101,29,-176,21,-226v-8,-50,-38,-75,-92,-75v-55,0,-97,26,-128,79v-31,53,-58,127,-81,222r280,0xm383,-465v53,-250,33,-375,-61,-375v-95,0,-169,125,-222,375v-53,251,-33,377,62,377v94,0,168,-126,221,-377"},"\u0178":{"d":"965,-1489r-187,0r39,-187r187,0xm592,-1489r-186,0r39,-187r186,0xm1106,-1188r-107,0r-444,625r-94,446r211,0r-25,117r-559,0r25,-117r211,0r94,-446r-178,-625r-107,0r25,-117r368,0r-24,117r-109,0r123,492r330,-492r-109,0r25,-117r368,0"},"\u02c6":{"d":"895,-1081r-68,67r-198,-205r-289,207r-41,-65r358,-291"},"\u02dc":{"d":"1008,-1229v-82,105,-175,158,-279,158v-101,0,-137,-56,-191,-99v-15,-12,-35,-18,-61,-18v-68,0,-131,37,-190,111r-70,-47v83,-104,176,-156,279,-156v101,0,136,56,190,98v15,12,36,19,62,19v68,0,131,-38,190,-113"},"\u2013":{"d":"-10,-424r24,-108r932,0r-24,108r-932,0"},"\u2014":{"d":"1016,-424r-1116,0r22,-108r1118,0"},"\u2018":{"d":"805,-745r-320,0v28,-122,42,-251,95,-349v44,-81,111,-144,198,-181v44,-19,93,-28,146,-28r-25,117v-145,-4,-233,94,-258,254r203,0"},"\u2019":{"d":"365,-1305r319,0r-47,218v-33,147,-117,257,-245,311v-44,18,-93,28,-146,28r24,-116v135,0,219,-74,250,-223r8,-31r-202,0"},"\u201a":{"d":"500,-186r-143,469r-102,0r59,-469r186,0"},"\u201c":{"d":"991,-745r-319,0v28,-121,40,-251,94,-349v45,-81,110,-144,198,-181v44,-19,93,-28,146,-28r-25,117v-135,0,-218,74,-251,223r-7,31r203,0xm432,-745r-317,0v28,-121,41,-250,93,-349v43,-81,111,-144,198,-181v44,-19,92,-28,145,-28r-25,117v-143,-4,-231,94,-256,254r201,0"},"\u201d":{"d":"178,-1305r320,0v-30,121,-41,251,-96,349v-65,116,-168,204,-343,208r25,-116v135,0,219,-74,250,-223r8,-31r-203,0xm737,-1305r318,0v-30,120,-41,250,-95,349v-64,116,-168,204,-342,208r25,-116v134,0,217,-74,248,-223r8,-31r-201,0"},"\u201e":{"d":"687,-186r-140,465r-102,0r55,-465r187,0xm314,-186r-141,465r-101,0r56,-465r186,0"},"\u2022":{"d":"207,-559v22,-108,92,-202,165,-263v71,-58,168,-109,285,-110v107,0,192,48,241,110v49,60,79,154,54,263v-38,166,-154,283,-302,343v-93,38,-204,42,-290,0v-111,-55,-189,-169,-153,-343"},"\u2026":{"d":"834,0r-187,0r39,-186r186,0xm461,0r-187,0r39,-186r187,0xm88,0r-186,0r39,-186r186,0"},"\u2039":{"d":"553,-229r-94,79r-258,-327r397,-330r61,80r-301,250"},"\u203a":{"d":"735,-477r-395,327r-64,-77r302,-250r-195,-250r96,-78"},"\u20ac":{"d":"174,-559v8,-66,24,-127,39,-186r-154,0r25,-113r166,0v67,-185,164,-350,330,-432v50,-25,105,-37,165,-37v93,0,165,29,215,88v50,59,77,151,84,276r-126,31v-2,-82,-19,-148,-52,-200v-33,-52,-80,-78,-141,-78v-67,0,-129,29,-187,88v-58,59,-108,147,-151,264r256,0r-25,113r-268,0r-32,141v-4,15,-6,30,-7,45r269,0r-25,113r-256,0v-9,119,3,207,37,265v34,58,84,87,151,87v62,0,120,-26,175,-79v55,-53,101,-120,137,-202r114,33v-61,125,-129,217,-203,276v-74,59,-158,89,-251,89v-124,1,-200,-57,-246,-137v-47,-82,-61,-202,-53,-332r-164,0r24,-113r154,0"},"\u2122":{"d":"1178,-745r-111,0r84,-394r-201,334r-78,0r-57,-334r-84,394r-110,0r118,-560r158,0r51,328r191,-328r157,0xm618,-1192r-176,0r-94,447r-112,0r94,-447r-176,0r24,-113r465,0"}}});
